{
  "version": "1.0.0",
  "type": "nn/gpt",
  "config": {
    "vocab_size": 96,
    "block_size": 16,
    "n_layer": 1,
    "n_embd": 16,
    "n_head": 4
  },
  "weights": [
    {
      "path": "wte.weight",
      "shape": [
        96,
        16
      ],
      "data": [
        -0.03654941916465759,
        0.0648614913225174,
        -0.03586681932210922,
        0.11513572931289673,
        0.04243549704551697,
        -0.04415976256132126,
        0.030346591025590897,
        0.019891640171408653,
        0.0446065254509449,
        0.011791504919528961,
        -0.1723126322031021,
        -0.030392929911613464,
        -0.07451832294464111,
        0.01078911405056715,
        -0.08416195213794708,
        0.0348624587059021,
        -0.06353413313627243,
        -0.11170172691345215,
        -0.018338438123464584,
        0.00930295791476965,
        0.0721672847867012,
        -0.017982888966798782,
        0.05096152797341347,
        0.051749277859926224,
        0.06887665390968323,
        -0.05554872006177902,
        -0.001759218517690897,
        -0.08991453051567078,
        0.09918824583292007,
        0.1027975082397461,
        0.08916103094816208,
        0.07197169214487076,
        -0.09761784970760345,
        -0.05016236752271652,
        -0.1331789493560791,
        0.004491505678743124,
        0.044304102659225464,
        -0.2792980372905731,
        -0.14007683098316193,
        -0.007701965980231762,
        0.03564542531967163,
        -0.16424953937530518,
        0.03822856768965721,
        -0.17553478479385376,
        -0.12105230987071991,
        0.007072820328176022,
        0.04548070207238197,
        0.06577415764331818,
        -0.13226471841335297,
        0.04619766026735306,
        -0.02960999496281147,
        0.16219185292720795,
        0.007503698114305735,
        0.03370516374707222,
        0.07857200503349304,
        0.04585820809006691,
        -0.09686123579740524,
        -0.10809288918972015,
        0.030624741688370705,
        0.05429239943623543,
        0.05219784006476402,
        0.12281688302755356,
        -0.13029739260673523,
        -0.029367132112383842,
        -0.09655564278364182,
        0.038589514791965485,
        0.022347981110215187,
        -0.005865602754056454,
        -0.09159679710865021,
        -0.0732886865735054,
        -0.10748409479856491,
        -0.040075719356536865,
        -0.13368894159793854,
        -0.03149911016225815,
        0.06764166057109833,
        -0.04812402278184891,
        -0.12179958820343018,
        0.09592492878437042,
        0.14201752841472626,
        -0.03602082282304764,
        0.1461419314146042,
        0.10866723209619522,
        -0.003333524102345109,
        -0.05056578665971756,
        -0.1574498862028122,
        -0.036951661109924316,
        0.1391710340976715,
        0.11941417306661606,
        0.01784234493970871,
        0.0950004905462265,
        0.0058881063014268875,
        0.078913614153862,
        -0.14526239037513733,
        -0.08015356957912445,
        -0.06259538233280182,
        0.12344537675380707,
        0.05685883387923241,
        -0.1615557223558426,
        -0.06584545969963074,
        -0.04729488864541054,
        -0.04745334014296532,
        -0.09451428800821304,
        -0.03160523995757103,
        0.027050359174609184,
        -0.06434935331344604,
        -0.004965911153703928,
        -0.16506071388721466,
        0.10015330463647842,
        0.017375318333506584,
        -0.07642139494419098,
        0.12045416235923767,
        0.11990044265985489,
        0.06505998224020004,
        -0.054653093218803406,
        0.05671846121549606,
        0.02548682503402233,
        -0.05696599930524826,
        0.07404959946870804,
        -0.0010480383643880486,
        -0.12067452073097229,
        0.055431071668863297,
        0.06058204919099808,
        0.06889092922210693,
        0.1022578775882721,
        0.11614350974559784,
        -0.006501189433038235,
        0.07562105357646942,
        -0.018570423126220703,
        0.02120167389512062,
        0.021694831550121307,
        0.008981876075267792,
        0.13309450447559357,
        -0.07535677403211594,
        -0.09711664170026779,
        -0.086275115609169,
        0.06429467350244522,
        0.14151309430599213,
        0.02578897215425968,
        -0.06164533272385597,
        0.06354347616434097,
        -0.04803571477532387,
        -0.053978729993104935,
        0.08950591832399368,
        -0.07812883704900742,
        -0.04883819445967674,
        0.19805258512496948,
        0.014682675711810589,
        0.046561818569898605,
        0.06273051351308823,
        -0.10760267078876495,
        -0.01068241149187088,
        -0.036263853311538696,
        -0.09080638736486435,
        -0.015431984327733517,
        -0.010530301369726658,
        0.1058158427476883,
        -0.04318072274327278,
        0.11787976324558258,
        0.17149260640144348,
        -0.04695146903395653,
        0.004604457411915064,
        0.032249778509140015,
        -0.0089052002876997,
        0.04784977808594704,
        -0.03349662944674492,
        -0.07194104790687561,
        -0.034586694091558456,
        -0.09928610175848007,
        0.09410274773836136,
        -0.007839614525437355,
        0.09592738747596741,
        -0.029321417212486267,
        0.07641527056694031,
        0.00927470251917839,
        0.020558971911668777,
        0.06009350344538689,
        0.1198609322309494,
        0.06847426295280457,
        -0.00609070947393775,
        0.13373929262161255,
        -0.0746162086725235,
        0.06401517987251282,
        -0.008979635313153267,
        0.07290145754814148,
        -0.03543689846992493,
        0.03679677098989487,
        0.08331168442964554,
        -0.054376885294914246,
        -0.059764131903648376,
        0.15476198494434357,
        -0.04675605893135071,
        -0.028620870783925056,
        -0.13897529244422913,
        0.020543064922094345,
        -0.02817455120384693,
        -0.09024278074502945,
        -0.09409729391336441,
        0.17391237616539001,
        0.032005682587623596,
        0.08421619981527328,
        0.019694380462169647,
        0.028405211865901947,
        0.006675682496279478,
        0.1120133325457573,
        0.10416144132614136,
        -0.06842885166406631,
        -0.0912584587931633,
        -0.05901288986206055,
        0.08766454458236694,
        0.062145307660102844,
        0.04095005616545677,
        -0.11300065368413925,
        -0.15202449262142181,
        -0.11949019879102707,
        -0.05234049633145332,
        0.04656505584716797,
        -0.02193862572312355,
        -0.09968900680541992,
        -0.04678003862500191,
        0.03245120123028755,
        0.015773264691233635,
        -0.019059015437960625,
        -0.12293284386396408,
        0.08699190616607666,
        0.11694812774658203,
        0.07553285360336304,
        0.150987446308136,
        -0.018082380294799805,
        0.008264655247330666,
        -0.016719600185751915,
        -0.12528982758522034,
        -0.11186938732862473,
        -0.0643496960401535,
        -0.030978169292211533,
        0.06087595596909523,
        -0.024195628240704536,
        0.050307922065258026,
        -0.004801239352673292,
        0.10010455548763275,
        -0.022946268320083618,
        0.0219153743237257,
        -0.0054681324400007725,
        0.08068127185106277,
        0.015310985036194324,
        -0.18338215351104736,
        0.0855896845459938,
        -0.11058327555656433,
        0.020728427916765213,
        0.08957543224096298,
        0.046874482184648514,
        0.08001763373613358,
        -0.060329314321279526,
        0.12078053504228592,
        0.11833440512418747,
        0.06241084635257721,
        0.07556995749473572,
        0.039950180798769,
        -0.08356276154518127,
        0.04363254830241203,
        -0.0015949326334521174,
        0.036919232457876205,
        -0.06571044772863388,
        0.07842091470956802,
        -0.03536667302250862,
        0.01790148951113224,
        -0.14674000442028046,
        0.01494594570249319,
        0.052578896284103394,
        0.07087329775094986,
        -0.07514003664255142,
        0.04647408053278923,
        -0.08445768803358078,
        -0.029642831534147263,
        0.08970484137535095,
        0.10400975495576859,
        0.043808311223983765,
        0.06120486930012703,
        0.03851529210805893,
        -0.016680549830198288,
        0.08316841721534729,
        -0.084279865026474,
        -0.022711463272571564,
        0.009914149530231953,
        -0.08784174919128418,
        -0.07073947787284851,
        -0.08749524503946304,
        -0.005780079402029514,
        -0.004839171189814806,
        0.08780494332313538,
        0.03327315300703049,
        -0.020877042785286903,
        -0.08730751276016235,
        0.09432567656040192,
        0.015300300903618336,
        -0.07331163436174393,
        -0.09801346808671951,
        0.011629042215645313,
        0.03154642879962921,
        0.016418982297182083,
        0.01585177332162857,
        -0.02236049994826317,
        -0.029458824545145035,
        -0.014160186983644962,
        -0.010504472069442272,
        -0.0802287831902504,
        0.0648488774895668,
        -0.060592349618673325,
        0.08179033547639847,
        -0.003565662307664752,
        0.04719292372465134,
        -0.010211257264018059,
        -0.0992458239197731,
        -0.07287246733903885,
        0.02996491827070713,
        0.025402409955859184,
        0.05601101741194725,
        -0.11287957429885864,
        -0.07077910751104355,
        -0.17393821477890015,
        -0.06755673140287399,
        -0.13882407546043396,
        0.029816890135407448,
        0.039760299026966095,
        -0.10728374868631363,
        0.0028395026456564665,
        -0.024258267134428024,
        -0.08933179080486298,
        -0.10175631195306778,
        0.03543815016746521,
        0.0030125114135444164,
        -0.002058707643300295,
        0.012207838706672192,
        0.08698661625385284,
        -0.027496227994561195,
        0.11684269458055496,
        0.11954019963741302,
        -0.03160696476697922,
        -0.0036446498706936836,
        -0.000023997341486392543,
        -0.010097467340528965,
        0.032056909054517746,
        -0.10503446310758591,
        0.15343263745307922,
        0.037554264068603516,
        -0.08570098131895065,
        0.040703874081373215,
        -0.010085828602313995,
        0.10554935038089752,
        0.01212321687489748,
        0.003420901717618108,
        -0.2851963937282562,
        0.059556059539318085,
        0.011120956391096115,
        0.04979724436998367,
        0.07224612683057785,
        -0.16596031188964844,
        0.056608717888593674,
        -0.02525564469397068,
        0.035818565636873245,
        -0.004393205512315035,
        -0.038696881383657455,
        0.039752837270498276,
        -0.11129368096590042,
        -0.0811883732676506,
        -0.01747388020157814,
        -0.10530459880828857,
        0.02012781798839569,
        0.07454781979322433,
        -0.08199475705623627,
        -0.16900035738945007,
        0.17978303134441376,
        -0.03135721758008003,
        0.13841970264911652,
        -0.10187539458274841,
        0.06543738394975662,
        0.014810816384851933,
        -0.05440784618258476,
        0.028731929138302803,
        -0.08273476362228394,
        -0.18449771404266357,
        0.05057276785373688,
        0.04213188216090202,
        -0.10869662463665009,
        0.02011307142674923,
        -0.014533610083162785,
        -0.040471747517585754,
        0.04615119472146034,
        0.08977009356021881,
        0.06466073542833328,
        0.18481390178203583,
        0.024112744256854057,
        0.06327608972787857,
        0.21785344183444977,
        -0.15926958620548248,
        -0.008430958725512028,
        -0.04536575451493263,
        0.000626207678578794,
        -0.016395732760429382,
        -0.04761325940489769,
        0.049759674817323685,
        0.06176110357046127,
        0.14579616487026215,
        0.1280512809753418,
        0.00704617565497756,
        -0.009896433912217617,
        -0.059363435953855515,
        0.0034499524626880884,
        -0.04104482755064964,
        -0.12413663417100906,
        0.06362628191709518,
        0.011548160575330257,
        -0.12250207364559174,
        -0.00989234633743763,
        -0.06360424309968948,
        -0.08720789849758148,
        -0.02132834866642952,
        -0.04155486077070236,
        -0.019275734201073647,
        0.1769622564315796,
        -0.06577973067760468,
        -0.02561488002538681,
        0.017567941918969154,
        0.11900347471237183,
        0.022373706102371216,
        0.004004302434623241,
        -0.04241904243826866,
        -0.035218849778175354,
        0.035985786467790604,
        -0.002473700325936079,
        -0.04086783155798912,
        -0.038648586720228195,
        0.09645453095436096,
        -0.0022273706272244453,
        0.014430140145123005,
        0.03663765639066696,
        -0.1075509563088417,
        0.20763273537158966,
        0.09552746266126633,
        -0.11566288769245148,
        -0.097116619348526,
        -0.04721372202038765,
        -0.07207855582237244,
        0.13511888682842255,
        -0.08498270064592361,
        0.15066733956336975,
        0.1175508052110672,
        0.25873976945877075,
        0.028823865577578545,
        -0.0006094540585763752,
        0.0013964331010356545,
        0.018888188526034355,
        0.06848634034395218,
        0.012558196671307087,
        0.05230659618973732,
        -0.013272521086037159,
        0.0692574605345726,
        -0.01578589342534542,
        0.01662277616560459,
        -0.06191389262676239,
        0.061151742935180664,
        -0.016745831817388535,
        -0.07160698622465134,
        -0.0677177757024765,
        0.0070175970904529095,
        0.040479812771081924,
        -0.07054243981838226,
        0.013813499361276627,
        0.13881507515907288,
        -0.016590634360909462,
        0.0695333406329155,
        0.023252394050359726,
        -0.05433930829167366,
        -0.05746282637119293,
        -0.09967224299907684,
        0.16342034935951233,
        0.13936153054237366,
        -0.10108397901058197,
        -0.04190729930996895,
        -0.0775548592209816,
        -0.03398251160979271,
        -0.13026173412799835,
        -0.04051004350185394,
        0.12851545214653015,
        -0.06750009953975677,
        0.10109749436378479,
        -0.10011657327413559,
        -0.038325436413288116,
        -0.16359034180641174,
        -0.21938954293727875,
        -0.016805443912744522,
        -0.013832605443894863,
        0.060215819627046585,
        -0.07052341103553772,
        -0.0419008769094944,
        -0.014750024303793907,
        -0.0942913293838501,
        0.059711284935474396,
        0.00929142627865076,
        0.1613105833530426,
        -0.0033049266785383224,
        -0.003313942812383175,
        -0.0508183129131794,
        -0.1465964913368225,
        -0.009180978871881962,
        -0.02343946322798729,
        0.04152020066976547,
        -0.0033137097489088774,
        -0.14152775704860687,
        -0.06412079930305481,
        0.10968559235334396,
        -0.04296537861227989,
        0.09364277124404907,
        0.033417120575904846,
        -0.03127777576446533,
        -0.15968671441078186,
        -0.03077647089958191,
        -0.0572751984000206,
        0.09182581305503845,
        -0.06874345988035202,
        0.00116001907736063,
        0.1415131539106369,
        0.06837117671966553,
        0.0716836154460907,
        0.18624235689640045,
        -0.08233948051929474,
        -0.27130863070487976,
        -0.12337677925825119,
        0.11698909103870392,
        0.07968519628047943,
        -0.013839121907949448,
        0.06225566193461418,
        0.054506197571754456,
        0.03036431409418583,
        0.06251809000968933,
        0.015810132026672363,
        0.022648707032203674,
        -0.08414442837238312,
        -0.006559227593243122,
        0.018757140263915062,
        -0.03381528705358505,
        -0.0037438482977449894,
        -0.09907452017068863,
        -0.04051247611641884,
        -0.037249792367219925,
        0.10734771192073822,
        -0.019422044977545738,
        -0.020932620391249657,
        0.03828206658363342,
        -0.0784052386879921,
        0.03511068969964981,
        0.07512116432189941,
        0.03332066163420677,
        -0.05994263291358948,
        -0.01947680488228798,
        -0.03727404773235321,
        -0.07789934426546097,
        0.0061458987183868885,
        -0.09917031973600388,
        -0.13975295424461365,
        0.10148254781961441,
        0.027691137045621872,
        0.06826367974281311,
        -0.00783507525920868,
        0.012951953336596489,
        -0.03309643641114235,
        -0.028958534821867943,
        0.002427362836897373,
        -0.17627641558647156,
        -0.0652027502655983,
        -0.03571422025561333,
        -0.030987363308668137,
        -0.21045438945293427,
        0.12829537689685822,
        -0.0006132422713562846,
        0.0758497342467308,
        0.17540501058101654,
        0.130153626203537,
        0.01161249540746212,
        -0.07697268575429916,
        -0.16901476681232452,
        0.011171252466738224,
        0.07746405899524689,
        -0.11520827561616898,
        -0.009123383089900017,
        -0.014871492050588131,
        0.1154390200972557,
        -0.07199321687221527,
        0.1106487289071083,
        -0.012371942400932312,
        -0.09218241274356842,
        0.05488741397857666,
        -0.14305250346660614,
        -0.05146698281168938,
        0.1541660726070404,
        -0.021631447598338127,
        0.07677767425775528,
        0.006019788794219494,
        0.0399145744740963,
        0.07552959024906158,
        -0.11724767833948135,
        0.0728827491402626,
        -0.0005293533904477954,
        -0.03660755604505539,
        0.0473911426961422,
        -0.12907399237155914,
        -0.02253679186105728,
        0.014123533852398396,
        0.002324828179553151,
        0.020324653014540672,
        0.09797606617212296,
        0.037245381623506546,
        -0.000264512374997139,
        0.025383012369275093,
        -0.13868778944015503,
        0.004513537511229515,
        -0.038112226873636246,
        0.021934811025857925,
        0.18679870665073395,
        0.04175485298037529,
        -0.14788328111171722,
        0.1481105536222458,
        -0.02654077112674713,
        0.010320408269762993,
        0.007416544947773218,
        0.0169213954359293,
        0.11879631876945496,
        0.0777367502450943,
        -0.07143750786781311,
        0.2071176916360855,
        -0.19944782555103302,
        0.1176617294549942,
        0.04460212215781212,
        -0.04605785757303238,
        -0.16212469339370728,
        -0.068185955286026,
        0.11197420954704285,
        -0.01143299788236618,
        0.0396101251244545,
        -0.09193097800016403,
        -0.1736486703157425,
        0.029713312163949013,
        0.06312176585197449,
        0.06629376858472824,
        0.04244909808039665,
        0.0020101408008486032,
        0.13690140843391418,
        0.07221294194459915,
        0.051070354878902435,
        -0.06338348984718323,
        0.061953745782375336,
        0.03688214719295502,
        0.03580368682742119,
        -0.02947210520505905,
        0.10978871583938599,
        0.017436828464269638,
        0.0189039409160614,
        -0.030995028093457222,
        0.11642221361398697,
        -0.1589951068162918,
        -0.14798499643802643,
        -0.025992518290877342,
        0.055582258850336075,
        -0.032745521515607834,
        -0.07056031376123428,
        -0.11737124621868134,
        -0.09567169100046158,
        0.08544033765792847,
        -0.02231389284133911,
        0.07522470504045486,
        0.08529186993837357,
        -0.07081594318151474,
        -0.007244836073368788,
        0.08357300609350204,
        0.06559634953737259,
        0.011822983622550964,
        0.08226527273654938,
        0.058573126792907715,
        0.044847577810287476,
        -0.1267455518245697,
        -0.048582009971141815,
        0.036011166870594025,
        0.001508852350525558,
        -0.019531840458512306,
        -0.028872039169073105,
        0.09613221138715744,
        0.004444044549018145,
        0.054422784596681595,
        -0.03534916043281555,
        -0.03612521290779114,
        -0.08418720215559006,
        0.03689233958721161,
        -0.0009454718674533069,
        -0.11199435591697693,
        0.06722719967365265,
        -0.05235961824655533,
        -0.042853254824876785,
        -0.03537721931934357,
        -0.09028836339712143,
        0.09775272756814957,
        0.007073741406202316,
        -0.017521454021334648,
        -0.0018481459701433778,
        -0.04560869187116623,
        0.025267288088798523,
        0.012125358916819096,
        -0.007425720803439617,
        0.061039455235004425,
        0.03192305937409401,
        0.07346656173467636,
        -0.052153486758470535,
        -0.0033883985597640276,
        0.008946474641561508,
        -0.006707508582621813,
        -0.08896363526582718,
        -0.16366209089756012,
        -0.005100857466459274,
        0.026244716718792915,
        0.00875642616301775,
        -0.1682031750679016,
        -0.0063508558087050915,
        0.1005263403058052,
        -0.05238976329565048,
        -0.04117738828063011,
        0.052130602300167084,
        0.013235297054052353,
        -0.027699988335371017,
        -0.07447314262390137,
        -0.06972036510705948,
        0.0034432322718203068,
        -0.05277970805764198,
        -0.08137522637844086,
        0.09298448264598846,
        0.10101360827684402,
        0.004431977402418852,
        -0.02388201467692852,
        0.2510322630405426,
        -0.030515234917402267,
        -0.04193129763007164,
        0.0773395225405693,
        -0.04834719002246857,
        0.0007048022816888988,
        0.09794183820486069,
        -0.09567928314208984,
        -0.042645759880542755,
        -0.03945527970790863,
        0.014112872071564198,
        -0.03551311418414116,
        0.0653257742524147,
        -0.05903615802526474,
        0.02065720595419407,
        0.012290308251976967,
        -0.1182200089097023,
        -0.012743677943944931,
        -0.01468608621507883,
        -0.053858645260334015,
        0.05722842738032341,
        0.07913130521774292,
        0.1039351224899292,
        0.07303369790315628,
        -0.13309885561466217,
        -0.01813451759517193,
        0.16869425773620605,
        -0.011447614058852196,
        0.010956812649965286,
        0.04190071299672127,
        -0.012269090861082077,
        -0.07124660909175873,
        -0.000016771127775427885,
        0.12794362008571625,
        0.12460991740226746,
        0.08488720655441284,
        -0.05303517356514931,
        0.08188063651323318,
        -0.02821943163871765,
        -0.07656407356262207,
        0.11761298030614853,
        0.0038162979763001204,
        -0.037304166704416275,
        -0.0012471579248085618,
        0.03660950809717178,
        -0.00712242117151618,
        -0.0665319561958313,
        -0.03529137372970581,
        0.08207312226295471,
        0.06906543672084808,
        0.02412572130560875,
        0.09333900362253189,
        0.10270063579082489,
        0.12578372657299042,
        0.0659894272685051,
        -0.0521574392914772,
        0.05885316804051399,
        0.058147065341472626,
        0.050071075558662415,
        0.009107804857194424,
        0.06215615198016167,
        0.052404943853616714,
        -0.02858281135559082,
        -0.03866346925497055,
        0.15114715695381165,
        -0.075128473341465,
        -0.11809984594583511,
        -0.028170915320515633,
        -0.03455297648906708,
        0.05670040100812912,
        0.09345772862434387,
        0.04803893342614174,
        0.05890071019530296,
        -0.1096016988158226,
        0.11834121495485306,
        0.005570185370743275,
        -0.06102748587727547,
        -0.11987333744764328,
        0.018922608345746994,
        0.06605734676122665,
        -0.01954980194568634,
        0.003582063829526305,
        0.011615716852247715,
        0.03635920211672783,
        0.03765973076224327,
        0.07104529440402985,
        -0.027981538325548172,
        0.09946006536483765,
        0.034743331372737885,
        -0.06314218789339066,
        0.04954861104488373,
        0.11310351639986038,
        0.12349656969308853,
        0.11816160380840302,
        -0.12304970622062683,
        -0.03542797267436981,
        0.16962650418281555,
        0.018289675936102867,
        0.09047029167413712,
        -0.062102824449539185,
        0.14263062179088593,
        -0.21181264519691467,
        -0.07210195064544678,
        -0.12048739194869995,
        0.030074354261159897,
        0.06765328347682953,
        -0.07563722133636475,
        -0.05923113599419594,
        -0.026978714391589165,
        -0.008274106308817863,
        0.009415017440915108,
        0.018116479739546776,
        -0.13253048062324524,
        -0.08085397630929947,
        -0.026528043672442436,
        0.09101671725511551,
        -0.02215203456580639,
        -0.014288830570876598,
        -0.030724026262760162,
        -0.01289532333612442,
        -0.02749994397163391,
        0.11988313496112823,
        0.11325778812170029,
        0.017379170283675194,
        0.05340275913476944,
        -0.05941825360059738,
        0.0622614249587059,
        0.07660137861967087,
        0.10174133628606796,
        0.07782359421253204,
        0.05923503637313843,
        -0.041442397981882095,
        0.10860252380371094,
        -0.026063745841383934,
        0.08786506205797195,
        -0.058638524264097214,
        -0.0800284743309021,
        0.02522343397140503,
        0.19576607644557953,
        0.06201769411563873,
        0.10954070836305618,
        -0.019308412447571754,
        0.040256567299366,
        -0.05053774267435074,
        0.09854710102081299,
        0.07355522364377975,
        -0.08562655746936798,
        -0.019688531756401062,
        -0.045690469443798065,
        -0.0825844332575798,
        0.04723542556166649,
        -0.17744065821170807,
        -0.07910258322954178,
        -0.18134929239749908,
        -0.20334592461585999,
        -0.07162878662347794,
        -0.05966337397694588,
        -0.02751665934920311,
        0.017650119960308075,
        0.028620097786188126,
        -0.045985378324985504,
        0.016417035833001137,
        0.10345466434955597,
        -0.015491645783185959,
        0.001827543368563056,
        -0.004943805281072855,
        0.020772796124219894,
        0.19271132349967957,
        0.05353271961212158,
        -0.08043726533651352,
        -0.015323692001402378,
        0.07916241884231567,
        0.014074780978262424,
        -0.07114610821008682,
        0.04470599442720413,
        -0.12623925507068634,
        -0.07925419509410858,
        0.027455300092697144,
        0.08400129526853561,
        0.03856169432401657,
        -0.014381210319697857,
        -0.046352069824934006,
        0.04810445383191109,
        -0.1117292046546936,
        -0.051491811871528625,
        0.0649929791688919,
        -0.010487453080713749,
        -0.04927994683384895,
        -0.17358197271823883,
        0.046842750161886215,
        0.045513443648815155,
        -0.14394107460975647,
        -0.012725654989480972,
        0.09391504526138306,
        0.012523208744823933,
        -0.2279520034790039,
        0.08101178705692291,
        0.03441692888736725,
        -0.11846005916595459,
        0.0007957739289849997,
        0.02508014626801014,
        0.08913179486989975,
        0.15333488583564758,
        -0.12247150391340256,
        0.08785311132669449,
        -0.04681310057640076,
        0.013606096617877483,
        -0.06749343872070312,
        -0.1119210422039032,
        0.12332111597061157,
        -0.062241241335868835,
        -0.07898351550102234,
        -0.04443386569619179,
        -0.005146785173565149,
        -0.11074288934469223,
        0.004542716313153505,
        -0.0919807106256485,
        0.05918271839618683,
        -0.0014753537252545357,
        0.0027374899946153164,
        0.03886348381638527,
        0.10155457258224487,
        -0.023893175646662712,
        -0.010354575701057911,
        -0.11860403418540955,
        0.07912760972976685,
        -0.1445663869380951,
        -0.024793243035674095,
        0.08034785836935043,
        -0.17887486517429352,
        -0.016558820381760597,
        0.010252909734845161,
        -0.11333033442497253,
        0.10685048997402191,
        0.1057610884308815,
        0.009664928540587425,
        0.11455284804105759,
        -0.011339403688907623,
        -0.0994408056139946,
        -0.070966936647892,
        -0.0909697487950325,
        -0.15133896470069885,
        -0.058250751346349716,
        -0.010284957475960255,
        0.04106947407126427,
        0.04749660566449165,
        0.1909131556749344,
        -0.028438441455364227,
        0.05900896340608597,
        -0.020502667874097824,
        -0.04059736803174019,
        -0.08837845921516418,
        -0.03431380167603493,
        -0.056261081248521805,
        0.012924915179610252,
        0.03402123227715492,
        -0.1392439603805542,
        -0.05614115670323372,
        -0.08561022579669952,
        -0.13295501470565796,
        -0.16557234525680542,
        -0.04843677207827568,
        -0.03005005419254303,
        0.10411683470010757,
        0.03752779960632324,
        0.012909392826259136,
        0.10991080850362778,
        0.026864493265748024,
        0.11047614365816116,
        -0.10637238621711731,
        -0.16420665383338928,
        -0.04952700063586235,
        0.12069056183099747,
        -0.02587096393108368,
        0.06064789369702339,
        -0.029632586985826492,
        0.08547739684581757,
        -0.13947221636772156,
        -0.13195198774337769,
        -0.012797879986464977,
        0.033306948840618134,
        -0.03398982062935829,
        0.0790829285979271,
        0.14007572829723358,
        0.07195524126291275,
        0.12958556413650513,
        -0.06966900080442429,
        -0.004733334295451641,
        -0.06253961473703384,
        0.05334634333848953,
        0.0033507831394672394,
        0.03221248835325241,
        -0.034063536673784256,
        0.03724868968129158,
        0.08784186840057373,
        -0.020548705011606216,
        -0.09416386485099792,
        -0.008475705981254578,
        -0.08455024659633636,
        0.02354987896978855,
        0.12734438478946686,
        0.005219939164817333,
        -0.19372284412384033,
        -0.10422200709581375,
        0.09217990934848785,
        0.06432677060365677,
        -0.09888480603694916,
        0.05933845415711403,
        0.09586889296770096,
        -0.020472140982747078,
        -0.29628920555114746,
        -0.09321509301662445,
        0.023679694160819054,
        -0.08665571361780167,
        -0.08465937525033951,
        0.04325662553310394,
        -0.17168572545051575,
        0.0843733623623848,
        -0.024056389927864075,
        -0.02481379546225071,
        -0.019541632384061813,
        -0.1853257566690445,
        0.0069364202208817005,
        -0.05171971023082733,
        0.07187169790267944,
        0.007699580397456884,
        0.002900841645896435,
        0.19051635265350342,
        -0.13444587588310242,
        0.091770239174366,
        -0.05057012289762497,
        0.02343718521296978,
        -0.03454820066690445,
        0.050660815089941025,
        0.08499620109796524,
        -0.07599687576293945,
        0.09665247797966003,
        -0.06897734850645065,
        0.17989692091941833,
        -0.03810787945985794,
        0.02083565667271614,
        0.2525396943092346,
        0.06365859508514404,
        -0.056125856935977936,
        0.020832350477576256,
        0.00791662372648716,
        0.028657400980591774,
        0.039356719702482224,
        0.08535300940275192,
        0.10333164781332016,
        0.03759926185011864,
        0.10853445529937744,
        -0.04480442777276039,
        0.1223103255033493,
        0.02809377759695053,
        0.07339794933795929,
        -0.018378406763076782,
        -0.09914051741361618,
        -0.07045438885688782,
        -0.01442171260714531,
        -0.009269677102565765,
        -0.03379570320248604,
        0.11712279915809631,
        0.05166051909327507,
        -0.01819714717566967,
        -0.01652277447283268,
        -0.06159166991710663,
        0.07338064163923264,
        0.0741211324930191,
        -0.05853049457073212,
        -0.03598713502287865,
        -0.01071334071457386,
        0.1382545381784439,
        -0.0938679575920105,
        -0.13439926505088806,
        0.133626326918602,
        -0.08264213800430298,
        -0.05632708966732025,
        -0.016213638707995415,
        0.056429725140333176,
        -0.0964236930012703,
        -0.016472453251481056,
        -0.1359797567129135,
        -0.12691451609134674,
        0.11612019687891006,
        0.1061142310500145,
        0.02763635851442814,
        0.048585645854473114,
        -0.17896130681037903,
        -0.05788178741931915,
        0.006841928698122501,
        0.001237584394402802,
        0.05153138190507889,
        0.009739923290908337,
        0.042141105979681015,
        0.18729205429553986,
        0.03602857515215874,
        0.1175600066781044,
        -0.060451798141002655,
        0.05433337390422821,
        0.043626073747873306,
        -0.00872081145644188,
        0.02843344956636429,
        0.030592085793614388,
        -0.03452879562973976,
        -0.06562214344739914,
        -0.10705574601888657,
        0.17254389822483063,
        0.17424379289150238,
        0.001977801090106368,
        0.0039640022441744804,
        0.05317208543419838,
        -0.04831642657518387,
        -0.0018791460897773504,
        -0.06647174060344696,
        0.009944487363100052,
        0.11764734238386154,
        0.04249783977866173,
        -0.09142497926950455,
        -0.07875222712755203,
        0.07619927823543549,
        -0.026950182393193245,
        -0.08452578634023666,
        0.053687360137701035,
        0.02761724963784218,
        0.10299092531204224,
        -0.018271014094352722,
        0.0235450379550457,
        0.016943158581852913,
        0.007887264713644981,
        0.04182758927345276,
        0.015401076525449753,
        0.13031038641929626,
        0.11690139770507812,
        0.02082631178200245,
        -0.02819616161286831,
        -0.022452928125858307,
        0.04064811021089554,
        0.13225063681602478,
        -0.03102845698595047,
        0.12234903872013092,
        0.07260797172784805,
        -0.027956314384937286,
        0.03353976458311081,
        0.04215070605278015,
        0.024278149008750916,
        0.0760076716542244,
        -0.16660422086715698,
        0.0032706614583730698,
        -0.015493384562432766,
        0.015865527093410492,
        -0.051428575068712234,
        0.088810496032238,
        -0.021344926208257675,
        0.09085585176944733,
        0.09252982586622238,
        -0.04945553094148636,
        0.1312492936849594,
        -0.0928509384393692,
        -0.09114740788936615,
        0.09571714699268341,
        -0.1794603168964386,
        -0.04909048229455948,
        -0.029170097783207893,
        0.04394195228815079,
        -0.04719381034374237,
        0.0013622655533254147,
        0.12984323501586914,
        0.06826053559780121,
        0.049551598727703094,
        -0.017665011808276176,
        -0.1348716914653778,
        0.09158328175544739,
        0.05714042857289314,
        -0.1448197364807129,
        0.025874445214867592,
        0.09044404327869415,
        -0.017138564959168434,
        -0.004205113742500544,
        0.001997322542592883,
        0.07981565594673157,
        -0.013669035397469997,
        0.011691255494952202,
        -0.08620338886976242,
        0.00854539591819048,
        0.04060347005724907,
        0.0011513044591993093,
        -0.008690017275512218,
        -0.0012733392650261521,
        -0.00913646537810564,
        0.05789490044116974,
        -0.010670889168977737,
        -0.06564133614301682,
        0.12683071196079254,
        -0.021460166200995445,
        -0.01356008555740118,
        0.008441424928605556,
        -0.03192364051938057,
        0.02764037251472473,
        -0.02553020417690277,
        0.05844692140817642,
        -0.07130292057991028,
        0.06052171066403389,
        0.03188878297805786,
        0.02055535279214382,
        -0.016235599294304848,
        -0.03379317745566368,
        0.039169296622276306,
        -0.03693612292408943,
        0.029341723769903183,
        -0.03955316171050072,
        0.15032058954238892,
        -0.018958667293190956,
        0.018135126680135727,
        -0.01050387043505907,
        -0.08093159645795822,
        0.010070174001157284,
        0.0644242912530899,
        -0.04407746344804764,
        0.033597562462091446,
        0.10690627992153168,
        0.04298059269785881,
        -0.06926865130662918,
        -0.08007381856441498,
        0.05219492316246033,
        -0.01956251636147499,
        0.07884135842323303,
        -0.0660252496600151,
        -0.06357163190841675,
        -0.044745225459337234,
        0.060818206518888474,
        0.03236711397767067,
        -0.05339592695236206,
        -0.004891133401542902,
        0.0307915098965168,
        -0.13677969574928284,
        -0.07653162628412247,
        -0.1263246089220047,
        0.08583417534828186,
        -0.031733188778162,
        0.09929097443819046,
        -0.006626388523727655,
        -0.1062132865190506,
        -0.021041134372353554,
        -0.11874925345182419,
        0.0719912126660347,
        0.02613522857427597,
        0.15917226672172546,
        -0.07355152070522308,
        0.00538711016997695,
        -0.0030760488007217646,
        0.07489561289548874,
        -0.05487460643053055,
        -0.01087289396673441,
        0.06204579398036003,
        0.08234983682632446,
        0.10106232017278671,
        -0.08936077356338501,
        0.09972433745861053,
        -0.048185087740421295,
        0.06019207835197449,
        -0.13384367525577545,
        -0.11086313426494598,
        0.10566513985395432,
        -0.06961929053068161,
        0.027021637186408043,
        -0.07291698455810547,
        -0.04756379872560501,
        -0.06185293570160866,
        0.013538926839828491,
        -0.06502863019704819,
        -0.0414835549890995,
        0.033091332763433456,
        0.04712311550974846,
        -0.08427155762910843,
        -0.055570315569639206,
        -0.06581750512123108,
        0.12392052263021469,
        0.10549214482307434,
        -0.015005161054432392,
        -0.04735245555639267,
        -0.07274536043405533,
        -0.03301339969038963,
        -0.046791721135377884,
        -0.2598532438278198,
        -0.0033797197975218296,
        -0.06830145418643951,
        0.018620874732732773,
        -0.026219455525279045,
        -0.00808712001889944,
        -0.005020809359848499,
        -0.017842531204223633,
        -0.022362099960446358,
        0.11831255257129669,
        0.061996083706617355,
        0.03883478045463562,
        -0.0006370690534822643,
        0.03515351936221123,
        -0.06364498287439346,
        -0.09071609377861023,
        0.014866308309137821,
        -0.08194450289011002,
        -0.027862858027219772,
        -0.09638061374425888,
        -0.13094398379325867,
        -0.03289848566055298,
        0.09577672183513641,
        0.03351912647485733,
        0.016336316242814064,
        -0.020348135381937027,
        0.004977673292160034,
        -0.012312645092606544,
        0.13761720061302185,
        -0.0073721096850931644,
        0.14985713362693787,
        0.03451161831617355,
        0.019126571714878082,
        -0.07427790760993958,
        0.05802196264266968,
        -0.15077835321426392,
        0.007786010857671499,
        0.017144721001386642,
        -0.008282315917313099,
        0.05999716743826866,
        0.04725497588515282,
        0.10034706443548203,
        -0.0001453473960282281,
        0.02213665284216404,
        -0.04789973795413971,
        -0.04338999465107918,
        -0.0016737169353291392,
        -0.23302559554576874,
        0.018578747287392616,
        0.10783548653125763,
        0.01892659068107605,
        0.011388910934329033,
        0.018305735662579536,
        0.06912767887115479,
        0.03806285560131073,
        0.045462727546691895,
        0.14353397488594055,
        0.013467437587678432,
        0.017389511689543724,
        0.11078736931085587,
        -0.06589853763580322,
        0.14017590880393982,
        0.08831588178873062,
        0.012833431363105774,
        -0.05823754891753197,
        -0.16645261645317078,
        -0.059300340712070465,
        0.08388232439756393,
        0.012845930643379688,
        0.022814318537712097,
        -0.07776391506195068,
        -0.018844466656446457,
        -0.04479097202420235,
        0.07202218472957611,
        0.03839445114135742,
        0.0766545906662941,
        0.07029120624065399,
        -0.054829034954309464,
        -0.09464577585458755,
        -0.0366395004093647,
        0.06336989998817444,
        -0.08166094869375229,
        -0.03380700200796127,
        0.0005420747329480946,
        -0.0039381724782288074,
        0.08609052002429962,
        -0.1139201894402504,
        -0.06291095912456512,
        -0.10643791407346725,
        -0.13538019359111786,
        -0.13240715861320496,
        0.011932257562875748,
        -0.05274593457579613,
        0.19090121984481812,
        0.007629245053976774,
        -0.10671283304691315,
        0.11624278128147125,
        -0.19834384322166443,
        -0.0947289764881134,
        0.024072322994470596,
        -0.07227639853954315,
        -0.007512258365750313,
        0.031885866075754166,
        -0.0011185372713953257,
        -0.07569857686758041,
        0.17399151623249054,
        0.06287892907857895,
        -0.018032938241958618,
        -0.0976698100566864,
        -0.15245214104652405,
        -0.11779763549566269,
        -0.004933066666126251,
        -0.030237123370170593,
        -0.1124437004327774,
        0.08259162306785583,
        -0.09076006710529327,
        0.06455090641975403,
        -0.209447979927063,
        0.08677773922681808,
        -0.0007705041789449751,
        0.08326058834791183,
        -0.13886193931102753,
        -0.11371823400259018,
        0.06717965751886368,
        -0.12896761298179626,
        0.07555704563856125,
        -0.040498748421669006,
        0.05704369768500328,
        -0.08979900181293488,
        -0.02386457659304142,
        0.009638526476919651,
        -0.06075223907828331,
        -0.07066433876752853,
        0.09624844789505005,
        -0.13593916594982147,
        0.17302659153938293,
        0.0012525004567578435,
        0.0029682558961212635,
        -0.07548452913761139,
        -0.08631166070699692,
        -0.07068110257387161,
        -0.043441858142614365,
        0.10423629730939865,
        0.02028503641486168,
        0.07431749254465103,
        0.1160462349653244,
        -0.026925135403871536,
        -0.007928629405796528,
        0.0869709774851799,
        0.07861793041229248,
        0.067165307700634,
        -0.01799287274479866,
        -0.0217894334346056,
        0.0999017134308815,
        -0.009177910163998604,
        0.030384548008441925,
        -0.09001239389181137,
        0.04938105121254921,
        0.008784428238868713,
        0.08123660832643509,
        0.04289765655994415,
        0.034620095044374466,
        0.07766126841306686,
        0.08228785544633865,
        0.08768792450428009,
        -0.08241049200296402,
        -0.05056014284491539,
        -0.012047716416418552,
        0.08026501536369324,
        -0.056948937475681305,
        -0.010090800002217293,
        -0.04774199053645134,
        -0.012391000986099243,
        0.0046396320685744286,
        -0.06329965591430664,
        0.014570672065019608,
        0.07568016648292542,
        0.11796993017196655,
        -0.08250433206558228,
        0.07433749735355377,
        0.043657682836055756,
        -0.04337448254227638,
        -0.0338553786277771,
        0.02862532064318657,
        -0.038231052458286285,
        0.04568170756101608,
        -0.0567132867872715,
        -0.06125640869140625,
        -0.03641558066010475,
        0.07891789078712463,
        0.1432381421327591,
        0.04644198343157768,
        0.11992572247982025,
        -0.023790786042809486,
        -0.1009107157588005,
        0.01622975431382656,
        0.04758615046739578,
        0.03935398906469345,
        0.058879051357507706,
        0.203932523727417,
        -0.014193045906722546,
        0.04997634142637253,
        -0.16754435002803802,
        0.08366481959819794,
        0.12929454445838928,
        -0.06867843866348267,
        -0.055496517568826675,
        0.1629420965909958,
        0.05086681991815567,
        0.06152931973338127,
        -0.13542410731315613,
        -0.06031489744782448,
        0.11281883716583252,
        0.04729033634066582,
        0.009763436391949654,
        0.21169033646583557,
        -0.00515958433970809
      ]
    },
    {
      "path": "wpe.weight",
      "shape": [
        16,
        16
      ],
      "data": [
        0.04210764914751053,
        0.029175443574786186,
        -0.031026743352413177,
        -0.02496889792382717,
        0.018928376957774162,
        0.040787115693092346,
        0.02081245742738247,
        0.16999056935310364,
        0.07951955497264862,
        -0.018029827624559402,
        -0.06398428976535797,
        -0.020899740979075432,
        0.0873565673828125,
        0.04905044287443161,
        0.16252493858337402,
        -0.09120474010705948,
        -0.13095355033874512,
        0.10530249774456024,
        0.08046863228082657,
        -0.05901069566607475,
        0.08795743435621262,
        -0.0003268396540079266,
        -0.04328196123242378,
        0.032209523022174835,
        0.006367601919919252,
        -0.07329985499382019,
        0.05126090720295906,
        0.11959680914878845,
        0.13563860952854156,
        -0.1280677616596222,
        0.07471488416194916,
        -0.04974176734685898,
        0.1877889186143875,
        -0.14000701904296875,
        -0.08080149441957474,
        0.032618872821331024,
        0.1121787577867508,
        0.05546603724360466,
        0.14752079546451569,
        -0.036300044506788254,
        -0.126630961894989,
        0.02922331541776657,
        0.05855299532413483,
        -0.04364239051938057,
        -0.07326135784387589,
        0.04365831986069679,
        -0.11195133626461029,
        0.17002278566360474,
        -0.13322550058364868,
        0.11886055022478104,
        0.026051977649331093,
        0.0853903666138649,
        0.05937506631016731,
        0.013541002757847309,
        -0.0646146833896637,
        -0.16003023087978363,
        0.11171556264162064,
        0.07426934689283371,
        0.09600879997015,
        -0.04929058998823166,
        0.11748073250055313,
        -0.15296797454357147,
        0.1432064324617386,
        0.09911690652370453,
        0.17820583283901215,
        0.02644830197095871,
        0.02844442054629326,
        -0.15259361267089844,
        0.02777722291648388,
        0.1063087061047554,
        -0.009061903692781925,
        -0.02231253683567047,
        0.11487144976854324,
        0.029559191316366196,
        -0.006209611427038908,
        0.015344933606684208,
        -0.09764281660318375,
        -0.07033341377973557,
        -0.1403268277645111,
        0.06450188905000687,
        0.05249197408556938,
        0.016239330172538757,
        0.1467636078596115,
        -0.06713375449180603,
        -0.0752875953912735,
        0.05868636816740036,
        0.021761683747172356,
        0.0017560548149049282,
        0.19022364914417267,
        0.030821580439805984,
        -0.03626677021384239,
        -0.1063464879989624,
        -0.11376595497131348,
        0.04282864183187485,
        0.08117736876010895,
        -0.012240932323038578,
        -0.021836506202816963,
        0.037927161902189255,
        -0.01435806043446064,
        -0.0434967502951622,
        0.015282907523214817,
        0.03388373181223869,
        0.10495135188102722,
        -0.0344202034175396,
        0.026318691670894623,
        -0.15656131505966187,
        0.18038780987262726,
        -0.12334053963422775,
        -0.2176247090101242,
        0.036944545805454254,
        0.10043665766716003,
        0.00908880028873682,
        0.006427824031561613,
        -0.014790138229727745,
        -0.11671502888202667,
        0.03714863955974579,
        -0.0971209704875946,
        -0.03114951401948929,
        -0.06649298220872879,
        -0.07276900112628937,
        0.12481974810361862,
        0.09945082664489746,
        -0.04712628200650215,
        -0.18978001177310944,
        0.09408928453922272,
        -0.005932421423494816,
        0.07426859438419342,
        0.0750284418463707,
        -0.048310786485672,
        -0.008055613376200199,
        0.019258897751569748,
        0.08086583763360977,
        0.005029741209000349,
        -0.026531510055065155,
        0.06689295172691345,
        -0.024069879204034805,
        -0.03446069359779358,
        -0.020870044827461243,
        0.08367571979761124,
        -0.016982298344373703,
        0.11233446002006531,
        0.16188527643680573,
        -0.1736777424812317,
        0.034332357347011566,
        0.05791569873690605,
        -0.013074341230094433,
        -0.16126352548599243,
        0.11060242354869843,
        0.09322532266378403,
        -0.08885058760643005,
        0.02523561380803585,
        -0.023961737751960754,
        0.02629144862294197,
        -0.019998380914330482,
        0.03751682862639427,
        0.08363038301467896,
        -0.014324378222227097,
        -0.04729244112968445,
        0.02033039554953575,
        0.002084304578602314,
        0.04422987625002861,
        -0.06943628191947937,
        -0.05645844712853432,
        0.021506696939468384,
        0.02893049269914627,
        -0.01319460105150938,
        0.03895234316587448,
        0.08441861718893051,
        -0.010885295458137989,
        0.06607863306999207,
        0.06712209433317184,
        0.171380415558815,
        -0.07244490832090378,
        0.08241356909275055,
        -0.10220185667276382,
        0.001996091566979885,
        0.11058369278907776,
        0.052834488451480865,
        -0.08924395591020584,
        0.07648984342813492,
        0.07984242588281631,
        -0.01732567325234413,
        -0.041306935250759125,
        0.01512159314006567,
        -0.01819389872252941,
        -0.06293370574712753,
        -0.041961949318647385,
        -0.11395447701215744,
        0.006797054782509804,
        -0.011859246529638767,
        0.01575113832950592,
        -0.03380405157804489,
        -0.020653147250413895,
        0.06421249359846115,
        0.01836748979985714,
        -0.12366389483213425,
        -0.07670700550079346,
        0.12947939336299896,
        0.04786088317632675,
        -0.05917719006538391,
        -0.08401551097631454,
        0.06816059350967407,
        -0.17965374886989594,
        0.010718578472733498,
        0.09052906185388565,
        0.03848210349678993,
        0.036382436752319336,
        0.01831490732729435,
        -0.1669577658176422,
        0.11724647879600525,
        0.1383104920387268,
        -0.0041102459654212,
        -0.05124179273843765,
        0.08519626408815384,
        -0.054364077746868134,
        0.1527312695980072,
        0.0016158724902197719,
        -0.04652310907840729,
        -0.03182833641767502,
        -0.026746952906250954,
        -0.011839617975056171,
        0.08793017268180847,
        -0.026105225086212158,
        -0.007323601748794317,
        0.06740523874759674,
        0.14627398550510406,
        -0.062074191868305206,
        0.07629896700382233,
        -0.10352921485900879,
        0.011774132028222084,
        0.027080602943897247,
        0.09246397018432617,
        -0.03302541747689247,
        -0.06360666453838348,
        0.03699740767478943,
        -0.0036019727122038603,
        -0.05197715386748314,
        0.06589290499687195,
        0.18252025544643402,
        -0.07542824745178223,
        -0.03838377073407173,
        -0.015600978396832943,
        0.07838239520788193,
        0.1333778351545334,
        0.024348633363842964,
        0.032239824533462524,
        0.07677075266838074,
        0.034638311713933945,
        -0.009771049953997135,
        -0.04273907095193863,
        -0.11611313372850418,
        0.03217652812600136,
        -0.06820660084486008,
        0.12437368184328079,
        0.043585412204265594,
        0.026654165238142014
      ]
    },
    {
      "path": "blocks[0].attn.wq.weight",
      "shape": [
        16,
        16
      ],
      "data": [
        -0.11031663417816162,
        -0.004048582632094622,
        -0.12702172994613647,
        0.060904670506715775,
        -0.04619928076863289,
        -0.10644185543060303,
        0.09957931190729141,
        -0.12502534687519073,
        -0.02754664421081543,
        0.041888777166604996,
        0.06298195570707321,
        0.022791096940636635,
        -0.0005507364985533059,
        -0.03119775652885437,
        -0.07219693809747696,
        0.06993569433689117,
        0.009674587287008762,
        -0.011189127340912819,
        -0.009967919439077377,
        0.02299032360315323,
        -0.10528858751058578,
        -0.081279456615448,
        -0.056137435138225555,
        -0.08879882842302322,
        0.024452047422528267,
        -0.05909574404358864,
        -0.10753034055233002,
        -0.06002715229988098,
        -0.09494105726480484,
        0.07694406807422638,
        0.10621100664138794,
        -0.052680473774671555,
        0.08913374692201614,
        -0.11022163182497025,
        -0.004996637348085642,
        -0.008841927163302898,
        0.063856340944767,
        0.05103654786944389,
        0.03706306964159012,
        0.03969190642237663,
        -0.07994243502616882,
        -0.08338990807533264,
        -0.07453762739896774,
        -0.02179163508117199,
        -0.03623563423752785,
        0.025900041684508324,
        -0.2077673226594925,
        -0.1473091095685959,
        -0.10626672208309174,
        0.11224832385778427,
        0.04063209518790245,
        -0.09419920295476913,
        0.12979871034622192,
        0.19569407403469086,
        0.06541600078344345,
        -0.15699028968811035,
        0.0688444972038269,
        -0.14058910310268402,
        -0.003620776580646634,
        0.03805479407310486,
        0.12427712976932526,
        0.15321260690689087,
        0.05817060172557831,
        0.031447961926460266,
        0.1623232215642929,
        -0.06825278699398041,
        -0.08088333159685135,
        0.022678369656205177,
        -0.06720851361751556,
        -0.13089244067668915,
        -0.06615093350410461,
        0.06518189609050751,
        0.011855016462504864,
        0.07624152302742004,
        -0.13216382265090942,
        0.009987356141209602,
        0.10018559545278549,
        0.01587655209004879,
        0.029097406193614006,
        -0.08835336565971375,
        -0.011332724243402481,
        0.05747013911604881,
        0.051297180354595184,
        -0.051212649792432785,
        -0.005424624774605036,
        0.04016091674566269,
        -0.0908440425992012,
        -0.04178731516003609,
        -0.014195197261869907,
        0.08076253533363342,
        0.1422906219959259,
        0.03426952287554741,
        0.021990755572915077,
        -0.1593063324689865,
        -0.18942691385746002,
        0.09228167682886124,
        -0.12643510103225708,
        -0.09211988002061844,
        0.0429658517241478,
        -0.029698938131332397,
        -0.002826673211529851,
        -0.007020626217126846,
        -0.05030183866620064,
        0.042134832590818405,
        -0.01816578209400177,
        -0.15217971801757812,
        0.10942897945642471,
        -0.09405797719955444,
        -0.10941994935274124,
        -0.15328553318977356,
        -0.13132315874099731,
        -0.12186101078987122,
        0.037499140948057175,
        0.09567514806985855,
        -0.0879702940583229,
        0.009144822135567665,
        0.10419086366891861,
        0.07946440577507019,
        0.08527186512947083,
        0.014426235109567642,
        0.03429233655333519,
        -0.08068890869617462,
        -0.10494875907897949,
        0.02330721914768219,
        -0.13905780017375946,
        0.007164377253502607,
        0.026389185339212418,
        -0.009293755516409874,
        0.09854321926832199,
        0.10389729589223862,
        0.07613211125135422,
        -0.009615782648324966,
        -0.023207593709230423,
        0.058451805263757706,
        -0.01532621681690216,
        -0.13621824979782104,
        0.11166837811470032,
        -0.08598708361387253,
        -0.08422635495662689,
        0.06835556775331497,
        0.12157104164361954,
        0.0835779532790184,
        -0.02806241437792778,
        0.0046621570363640785,
        -0.03892029821872711,
        -0.21231499314308167,
        0.05586499720811844,
        0.18391504883766174,
        0.20834995806217194,
        -0.1007801815867424,
        -0.044281139969825745,
        0.15135645866394043,
        0.05196066573262215,
        0.014652944169938564,
        0.060867324471473694,
        0.030011223629117012,
        0.04285241663455963,
        -0.04718499630689621,
        0.026710540056228638,
        -0.09979002922773361,
        -0.08977798372507095,
        -0.05343218147754669,
        0.001962509471923113,
        0.004884984344244003,
        0.1521274894475937,
        0.17644311487674713,
        -0.001059974543750286,
        0.0302121601998806,
        0.04499496892094612,
        -0.004202838987112045,
        -0.2888844907283783,
        -0.03234212100505829,
        0.1808026134967804,
        -0.014044556766748428,
        0.085604727268219,
        -0.03314851596951485,
        -0.11795368045568466,
        0.014706858433783054,
        -0.026839569211006165,
        0.023695454001426697,
        0.06172874569892883,
        0.06407225877046585,
        0.1133117824792862,
        0.11668043583631516,
        0.028727121651172638,
        0.08221210539340973,
        0.06299044191837311,
        -0.16373416781425476,
        -0.0036583615001291037,
        -0.05661110207438469,
        0.0843152105808258,
        -0.06794792413711548,
        -0.022244596853852272,
        0.07759381085634232,
        -0.07719720155000687,
        -0.04953066632151604,
        0.09094690531492233,
        -0.0270395427942276,
        0.041169386357069016,
        0.03470705449581146,
        -0.0028737590182572603,
        0.09037340432405472,
        0.07878095656633377,
        -0.11979550123214722,
        0.026399070397019386,
        -0.005232273600995541,
        0.012135094963014126,
        0.024293910712003708,
        0.09107986837625504,
        -0.023325562477111816,
        -0.03697482869029045,
        -0.07596992701292038,
        -0.05083214119076729,
        -0.24538321793079376,
        -0.04860541597008705,
        -0.10312406718730927,
        -0.18429961800575256,
        0.02789645455777645,
        -0.05379393324255943,
        -0.053756967186927795,
        -0.08233073353767395,
        0.11053265631198883,
        -0.059495117515325546,
        0.1641964167356491,
        0.0730368122458458,
        0.05987381190061569,
        0.08888240903615952,
        -0.17314213514328003,
        -0.1230878233909607,
        0.2114437073469162,
        0.0862775593996048,
        0.11653099954128265,
        -0.017635229974985123,
        -0.051024552434682846,
        0.001162520027719438,
        0.1307380348443985,
        -0.0087278438732028,
        0.1293981820344925,
        -0.11799729615449905,
        0.036845266819000244,
        0.09015057235956192,
        -0.022294284775853157,
        -0.050166159868240356,
        0.14901134371757507,
        0.07653501629829407,
        0.02085496112704277,
        0.021684104576706886,
        -0.07923341542482376,
        0.04876426234841347,
        -0.0782480463385582,
        0.16481027007102966,
        -0.13761435449123383,
        0.04300709813833237,
        0.09421316534280777,
        0.12186625599861145,
        -0.0411873422563076
      ]
    },
    {
      "path": "blocks[0].attn.wk.weight",
      "shape": [
        16,
        16
      ],
      "data": [
        0.012559018097817898,
        -0.03879689425230026,
        -0.020021168515086174,
        -0.13093923032283783,
        -0.06070362403988838,
        -0.016905145719647408,
        0.08538199961185455,
        0.10973391681909561,
        0.08425094187259674,
        -0.11688870936632156,
        -0.09765902161598206,
        -0.01249825768172741,
        -0.175315260887146,
        -0.025546163320541382,
        -0.1823817938566208,
        0.12909729778766632,
        0.1165056824684143,
        0.08469825983047485,
        0.0800449326634407,
        -0.12218765169382095,
        0.1356922686100006,
        0.10558400303125381,
        -0.012313892133533955,
        0.13822636008262634,
        -0.04203703626990318,
        0.0035825292579829693,
        -0.027760246768593788,
        -0.018884528428316116,
        0.10599790513515472,
        0.024240421131253242,
        -0.22480356693267822,
        0.024972427636384964,
        -0.007069212384521961,
        0.08609221875667572,
        -0.0473189540207386,
        -0.07320626080036163,
        -0.08305350691080093,
        0.0927109494805336,
        -0.03594221547245979,
        -0.012355769984424114,
        -0.002662417944520712,
        0.05046096071600914,
        -0.09226739406585693,
        -0.08189093321561813,
        -0.09773354977369308,
        0.11681804805994034,
        -0.11876505613327026,
        -0.027530450373888016,
        0.003733129473403096,
        -0.01850760728120804,
        -0.008738234639167786,
        0.04486138001084328,
        -0.09896621108055115,
        0.05987681820988655,
        -0.07329099625349045,
        -0.17873699963092804,
        0.029200349003076553,
        0.04943607747554779,
        -0.005517263896763325,
        -0.07771334052085876,
        -0.1450846642255783,
        -0.24775898456573486,
        0.013303493149578571,
        -0.08948494493961334,
        0.043734025210142136,
        0.1426410675048828,
        0.028980160132050514,
        -0.11406000703573227,
        0.04499249905347824,
        -0.09107805043458939,
        0.008198623545467854,
        0.059140224009752274,
        -0.07090315967798233,
        0.11896102875471115,
        -0.16176626086235046,
        0.17981886863708496,
        0.017032939940690994,
        -0.06583746522665024,
        0.007291919551789761,
        0.017910266295075417,
        -0.18822135031223297,
        0.03563954308629036,
        -0.0528152696788311,
        0.19738896191120148,
        0.04998407140374184,
        0.06128818169236183,
        0.0305580236017704,
        0.1394905000925064,
        -0.11246408522129059,
        0.0688047707080841,
        -0.2618618309497833,
        -0.12518149614334106,
        -0.09356232732534409,
        -0.05750730633735657,
        -0.12519043684005737,
        0.0059586879797279835,
        -0.05287468060851097,
        -0.054652366787195206,
        -0.07525838911533356,
        0.06568935513496399,
        -0.05435028299689293,
        0.07173939794301987,
        0.012205646373331547,
        0.013025658205151558,
        0.1426153928041458,
        -0.05969110503792763,
        -0.3486829698085785,
        0.028006361797451973,
        -0.08925215154886246,
        0.08311516791582108,
        -0.022201307117938995,
        0.060410335659980774,
        0.021141378208994865,
        -0.15059112012386322,
        -0.23179668188095093,
        0.15006880462169647,
        0.04177091270685196,
        0.01622399128973484,
        -0.046748653054237366,
        -0.027675459161400795,
        -0.03224558383226395,
        -0.06735315918922424,
        0.03884642571210861,
        -0.019001226872205734,
        0.17068493366241455,
        -0.12269523739814758,
        0.11457225680351257,
        -0.1180994063615799,
        0.015060304664075375,
        0.052412644028663635,
        -0.06102794408798218,
        0.028912296518683434,
        0.042559415102005005,
        0.02341301366686821,
        0.09668134152889252,
        0.0984361320734024,
        -0.13766734302043915,
        0.09870951622724533,
        0.1945641189813614,
        -0.06173356994986534,
        0.1273745447397232,
        -0.0373549610376358,
        -0.00419085705652833,
        -0.19923731684684753,
        -0.18925070762634277,
        -0.164605975151062,
        -0.04721534252166748,
        -0.11177287995815277,
        0.03303392603993416,
        0.0895562618970871,
        0.0506054051220417,
        -0.00006510328239528462,
        -0.07114579528570175,
        -0.17176727950572968,
        -0.04944029450416565,
        0.06075887382030487,
        0.009232742711901665,
        0.12043273448944092,
        -0.07329368591308594,
        -0.015047036111354828,
        -0.04117933288216591,
        0.13629162311553955,
        0.04638782516121864,
        0.02757604792714119,
        -0.021081412211060524,
        -0.07240845263004303,
        0.14955277740955353,
        0.04009373486042023,
        0.030259978026151657,
        -0.01065660547465086,
        0.016849741339683533,
        -0.07913389056921005,
        0.12670519948005676,
        0.11728382855653763,
        0.04897261783480644,
        0.1948135942220688,
        -0.04020668566226959,
        0.05502365157008171,
        0.04263756051659584,
        -0.025965800508856773,
        -0.0034464672207832336,
        0.05137377604842186,
        -0.07507553696632385,
        0.05626654997467995,
        -0.08080890774726868,
        -0.12089421600103378,
        -0.036971766501665115,
        -0.04030802473425865,
        0.016144858673214912,
        -0.1294184774160385,
        -0.01895047351717949,
        0.038562364876270294,
        -0.021169845014810562,
        0.09988729655742645,
        -0.0033908789046108723,
        -0.15624627470970154,
        -0.14838635921478271,
        -0.023783154785633087,
        -0.00217199488542974,
        -0.04735700041055679,
        0.05697273835539818,
        -0.11943332850933075,
        -0.018146630376577377,
        -0.032487448304891586,
        -0.09254638105630875,
        0.10021867603063583,
        -0.07818252593278885,
        -0.008241592906415462,
        -0.016083108261227608,
        -0.08786135166883469,
        -0.009624279104173183,
        0.2747178375720978,
        -0.09869007766246796,
        -0.20487676560878754,
        -0.04656964913010597,
        0.15290388464927673,
        0.013778320513665676,
        0.023394454270601273,
        0.014562685042619705,
        -0.009178167209029198,
        0.012970098294317722,
        0.0159708634018898,
        -0.034389298409223557,
        -0.11724032461643219,
        0.008366873487830162,
        -0.04428284615278244,
        0.08150219172239304,
        -0.029957249760627747,
        -0.12024734169244766,
        0.02681320160627365,
        -0.05021028220653534,
        -0.07813763618469238,
        0.04499634727835655,
        0.09463194757699966,
        0.13461171090602875,
        -0.02412162907421589,
        0.028667433187365532,
        0.07439190149307251,
        0.0008044617716223001,
        0.004303470719605684,
        -0.11270733922719955,
        -0.23490087687969208,
        0.06362340599298477,
        0.09969067573547363,
        0.024343477562069893,
        -0.09602948278188705,
        -0.005767064169049263,
        0.12244080752134323,
        -0.18407230079174042,
        0.016787709668278694,
        -0.0190799031406641,
        0.08704698085784912,
        -0.06954628229141235,
        0.011419534683227539,
        -0.05423813685774803,
        -0.042457446455955505
      ]
    },
    {
      "path": "blocks[0].attn.wv.weight",
      "shape": [
        16,
        16
      ],
      "data": [
        -0.13637332618236542,
        0.022467363625764847,
        0.00562290009111166,
        0.08848436921834946,
        -0.04922643303871155,
        0.0065179066732525826,
        0.006218015681952238,
        -0.07882491499185562,
        -0.013042841106653214,
        0.06008654087781906,
        0.13923072814941406,
        0.08751853555440903,
        0.054880548268556595,
        -0.0011906394502148032,
        -0.10620707273483276,
        0.09696382284164429,
        0.20079031586647034,
        -0.0286569707095623,
        -0.10460817068815231,
        -0.09822255373001099,
        -0.004502411000430584,
        0.02780110575258732,
        0.16151905059814453,
        -0.04306573420763016,
        0.019795186817646027,
        -0.0009591301204636693,
        0.021810662001371384,
        -0.15730534493923187,
        0.09037268906831741,
        0.0714062824845314,
        0.027180099859833717,
        0.11239208281040192,
        -0.07387620955705643,
        -0.20119090378284454,
        -0.06312992423772812,
        -0.07038824260234833,
        0.15280917286872864,
        0.08669096231460571,
        0.14336955547332764,
        0.002809329656884074,
        -0.12266214191913605,
        -0.009430029429495335,
        0.1155632734298706,
        0.10647675395011902,
        -0.0009486614144407213,
        -0.0734737291932106,
        -0.0056809475645422935,
        0.10142756253480911,
        0.01745244860649109,
        -0.016359470784664154,
        0.09256139397621155,
        -0.10016844421625137,
        0.04218268766999245,
        0.06180150806903839,
        -0.018268097192049026,
        -0.03922070562839508,
        0.0018982222536578774,
        0.009587033651769161,
        0.07074353843927383,
        0.040327221155166626,
        -0.04937320947647095,
        0.08209157735109329,
        0.21470549702644348,
        -0.1255633383989334,
        -0.22244103252887726,
        -0.044065721333026886,
        0.01910736784338951,
        -0.052482787519693375,
        0.1386628895998001,
        0.04972577467560768,
        0.037399858236312866,
        -0.028789160773158073,
        -0.053526055067777634,
        -0.062135960906744,
        0.09169071167707443,
        0.10197897255420685,
        0.12386105954647064,
        0.06201351433992386,
        0.16940586268901825,
        0.03601154312491417,
        -0.07059504836797714,
        -0.009606359526515007,
        -0.029183661565184593,
        0.056085988879203796,
        -0.01752864010632038,
        -0.01726600155234337,
        -0.09762278199195862,
        0.14702163636684418,
        -0.017502641305327415,
        0.09555807709693909,
        -0.08655031770467758,
        -0.007308188360184431,
        0.17018495500087738,
        0.00371237238869071,
        -0.06761197000741959,
        0.07286553084850311,
        -0.19855882227420807,
        -0.04212349280714989,
        -0.06952652335166931,
        -0.010158930905163288,
        0.058040037751197815,
        -0.09062887728214264,
        0.04376745596528053,
        0.027179429307579994,
        0.057862915098667145,
        0.03338761255145073,
        -0.0426199734210968,
        -0.09188251942396164,
        0.20352186262607574,
        -0.11139364540576935,
        -0.04073505103588104,
        0.108026422560215,
        -0.08761291205883026,
        0.09980984032154083,
        0.05936671048402786,
        0.05782308056950569,
        -0.016146741807460785,
        0.040734369307756424,
        -0.04200693964958191,
        0.03931139409542084,
        0.10749033093452454,
        -0.08845697343349457,
        -0.06384946405887604,
        0.09069088846445084,
        -0.08119242638349533,
        -0.11481636017560959,
        0.07220826297998428,
        0.03435845300555229,
        -0.02421073615550995,
        -0.058650124818086624,
        -0.07510806620121002,
        -0.052462752908468246,
        0.1143096312880516,
        0.05496539920568466,
        0.10056444257497787,
        0.031128598377108574,
        0.07893317937850952,
        -0.022841671481728554,
        -0.06633330136537552,
        0.03421199321746826,
        0.1443614661693573,
        -0.0736413523554802,
        0.12586629390716553,
        0.1885584145784378,
        -0.0249515138566494,
        0.09413138777017593,
        -0.05637766048312187,
        0.035297803580760956,
        0.04511181637644768,
        -0.11181771010160446,
        -0.08071843534708023,
        -0.1454526036977768,
        0.0284542515873909,
        0.11262963712215424,
        -0.05251089110970497,
        0.04070154204964638,
        0.09037300199270248,
        0.11782924830913544,
        -0.13435710966587067,
        -0.10252736508846283,
        0.055387139320373535,
        0.0016237517120316625,
        0.0497623011469841,
        0.09214919060468674,
        -0.01021774485707283,
        0.04601742699742317,
        -0.08088179677724838,
        0.04047476872801781,
        -0.09315942227840424,
        0.07395181059837341,
        -0.03212610259652138,
        0.013336696662008762,
        0.1016828790307045,
        -0.07951409369707108,
        0.12720441818237305,
        -0.07338842749595642,
        0.019803039729595184,
        0.03898899257183075,
        -0.0031997784972190857,
        -0.07627978920936584,
        -0.04123787581920624,
        -0.0032082591205835342,
        0.026489662006497383,
        -0.07652007788419724,
        0.02196645364165306,
        0.003152037039399147,
        -0.06637774407863617,
        -0.013618345372378826,
        0.05880039557814598,
        -0.01921585574746132,
        0.09993517398834229,
        0.014633909799158573,
        -0.1450558751821518,
        0.022972766309976578,
        0.0687752217054367,
        -0.20964226126670837,
        -0.04219825193285942,
        0.009183426387608051,
        0.0672573521733284,
        -0.03797951340675354,
        0.01038548443466425,
        -0.03543313220143318,
        -0.03396401181817055,
        -0.051963116973638535,
        -0.16720519959926605,
        -0.01635442115366459,
        0.19634698331356049,
        -0.06954342126846313,
        0.13167999684810638,
        0.09716927260160446,
        0.001084382412955165,
        0.12258927524089813,
        -0.041926462203264236,
        -0.05096900835633278,
        -0.03287810832262039,
        0.17712973058223724,
        -0.0943644717335701,
        0.203837588429451,
        -0.04372641444206238,
        0.08915959298610687,
        0.09073114395141602,
        0.11194195598363876,
        0.020575346425175667,
        0.09803511947393417,
        -0.05862729251384735,
        -0.037380676716566086,
        0.06723979860544205,
        -0.013501783832907677,
        -0.009100861847400665,
        -0.027726346626877785,
        0.14804330468177795,
        -0.18005014955997467,
        -0.06910624355077744,
        -0.03681987151503563,
        -0.030686259269714355,
        -0.05974844470620155,
        -0.08851918578147888,
        -0.10868930071592331,
        0.07603514939546585,
        0.12014424800872803,
        0.02094397321343422,
        0.08263343572616577,
        -0.17627717554569244,
        -0.008496102876961231,
        -0.05861009657382965,
        -0.006911423522979021,
        -0.1874488741159439,
        -0.07747531682252884,
        -0.0861106738448143,
        0.046119339764118195,
        0.019774675369262695,
        0.021164489910006523,
        -0.11505082994699478,
        0.03154168277978897,
        -0.036472246050834656,
        0.0952499732375145
      ]
    },
    {
      "path": "blocks[0].attn.wo.weight",
      "shape": [
        16,
        16
      ],
      "data": [
        -0.04653245210647583,
        -0.055717580020427704,
        0.16970549523830414,
        0.1950780600309372,
        0.055024608969688416,
        0.021161608397960663,
        -0.30768564343452454,
        0.0036000271793454885,
        -0.002745030215010047,
        0.07903435081243515,
        0.002124411752447486,
        -0.06497985869646072,
        0.13031409680843353,
        0.06836574524641037,
        -0.15813061594963074,
        -0.006622293498367071,
        0.013658609241247177,
        -0.023614412173628807,
        0.09986479580402374,
        0.10261139273643494,
        -0.14373552799224854,
        0.033196721225976944,
        0.03368176519870758,
        -0.07339908927679062,
        0.009413396939635277,
        0.08777666091918945,
        0.07900537550449371,
        0.23231633007526398,
        0.08359649032354355,
        -0.11572084575891495,
        -0.03060750849545002,
        -0.014940138906240463,
        0.08611603826284409,
        0.048974402248859406,
        -0.039082590490579605,
        -0.11388473212718964,
        -0.08243407309055328,
        0.024062490090727806,
        0.03094618394970894,
        0.038272518664598465,
        -0.01994163729250431,
        0.08927308022975922,
        -0.0011536842212080956,
        0.08120275288820267,
        0.0887954831123352,
        0.01061196904629469,
        -0.09615682065486908,
        0.06283474713563919,
        0.09372349083423615,
        -0.013716459274291992,
        0.0568959079682827,
        0.0013246986782178283,
        0.000031132141884882,
        -0.02901442162692547,
        0.06523936241865158,
        0.13884221017360687,
        0.14976866543293,
        0.1372583955526352,
        0.015557372011244297,
        -0.09304921329021454,
        0.007235704455524683,
        -0.07468422502279282,
        -0.05131324380636215,
        0.11299298703670502,
        0.02356446161866188,
        0.02523537538945675,
        -0.09284549206495285,
        -0.05910884216427803,
        0.01564602553844452,
        -0.029643988236784935,
        0.07384644448757172,
        -0.01752539351582527,
        -0.13060657680034637,
        -0.023973336443305016,
        -0.004972083028405905,
        -0.1475399136543274,
        -0.02865651249885559,
        0.032714858651161194,
        0.019784705713391304,
        0.07179799675941467,
        -0.07717467099428177,
        -0.06848009675741196,
        0.11058712005615234,
        -0.07056740671396255,
        0.24957898259162903,
        0.01242199819535017,
        0.016836127266287804,
        0.06555694341659546,
        -0.1279844343662262,
        0.0196011234074831,
        0.09142015129327774,
        -0.03107607550919056,
        -0.023034336045384407,
        -0.009777271188795567,
        0.039074722677469254,
        0.0332692451775074,
        -0.07901166379451752,
        0.016854627057909966,
        0.00962887890636921,
        -0.08762981742620468,
        0.09469639509916306,
        -0.0428948737680912,
        0.06124144792556763,
        -0.03589561581611633,
        -0.09067167341709137,
        -0.026301449164748192,
        0.0050579882226884365,
        0.1651512086391449,
        0.06653258949518204,
        0.06009005755186081,
        0.021468915045261383,
        0.046448491513729095,
        0.02363627590239048,
        0.07304892688989639,
        0.1403205692768097,
        0.06694743037223816,
        -0.05548196658492088,
        0.05497279018163681,
        0.012133977375924587,
        0.022193746641278267,
        -0.013787093572318554,
        -0.004648638889193535,
        -0.08162582665681839,
        -0.07294147461652756,
        0.005748321767896414,
        -0.0001609633327461779,
        -0.03444717079401016,
        0.011017789132893085,
        0.0004866714880336076,
        -0.037410296499729156,
        -0.023002183064818382,
        0.04986352473497391,
        -0.055670443922281265,
        0.06906812638044357,
        -0.08586034923791885,
        0.10489388555288315,
        0.031066499650478363,
        -0.051119375973939896,
        0.16915719211101532,
        -0.04793706163764,
        0.07096739858388901,
        0.03488466888666153,
        -0.029369425028562546,
        -0.006649564485996962,
        0.02508559450507164,
        -0.10207396000623703,
        -0.09775733947753906,
        -0.010780083015561104,
        -0.11921931803226471,
        0.04113270714879036,
        -0.04550865292549133,
        -0.0539383590221405,
        -0.15935483574867249,
        0.03905334696173668,
        -0.04073523357510567,
        -0.16209033131599426,
        -0.11465059965848923,
        -0.09279780089855194,
        -0.015820570290088654,
        0.035389527678489685,
        0.052540041506290436,
        -0.0030031672213226557,
        0.04509367793798447,
        -0.014104320667684078,
        0.22747807204723358,
        0.0341595821082592,
        0.038754016160964966,
        0.029430817812681198,
        -0.02994549460709095,
        -0.026389772072434425,
        -0.08153786510229111,
        -0.1132262647151947,
        -0.06370145082473755,
        0.1010042279958725,
        0.18664205074310303,
        0.129214346408844,
        0.03557734936475754,
        -0.04721586033701897,
        -0.12391377985477448,
        0.08846013247966766,
        0.11602824181318283,
        -0.0645865947008133,
        -0.1283525675535202,
        -0.08253888040781021,
        0.09116821736097336,
        0.09551995247602463,
        -0.1251780241727829,
        0.2264968752861023,
        0.022802378982305527,
        0.09063547104597092,
        -0.014369518496096134,
        -0.024077676236629486,
        0.005398578010499477,
        -0.0668228343129158,
        0.04908661171793938,
        -0.024127250537276268,
        0.06857334822416306,
        -0.0238957479596138,
        -0.0006289966404438019,
        0.04952794685959816,
        0.13552673161029816,
        -0.009573719464242458,
        0.05294567346572876,
        -0.14871269464492798,
        -0.17925281822681427,
        0.11140166968107224,
        0.10189935564994812,
        0.02875891886651516,
        0.011693335138261318,
        0.2311488538980484,
        0.06123495474457741,
        0.11369596421718597,
        -0.10599427670240402,
        -0.054599031805992126,
        -0.06383778154850006,
        -0.06728986650705338,
        -0.03001609444618225,
        -0.08339164406061172,
        0.012203305028378963,
        -0.2247992753982544,
        0.07861749082803726,
        -0.20925749838352203,
        0.1903984248638153,
        0.08094903081655502,
        0.01788030005991459,
        0.12119606137275696,
        -0.05811199173331261,
        -0.04911058023571968,
        0.14316879212856293,
        0.06167962774634361,
        0.19097231328487396,
        0.07956652343273163,
        -0.141791433095932,
        -0.04621295630931854,
        -0.09592953324317932,
        0.16353853046894073,
        0.10174739360809326,
        0.02278529480099678,
        -0.08869003504514694,
        0.10406376421451569,
        -0.015382646583020687,
        -0.08533734828233719,
        -0.0785454660654068,
        -0.0026418454945087433,
        0.032845206558704376,
        -0.07818104326725006,
        0.06580056995153427,
        -0.016382139176130295,
        -0.08106411248445511,
        -0.1819705218076706,
        -0.03600692376494408,
        0.015560300089418888,
        -0.14709137380123138,
        0.05124998092651367,
        0.007826726883649826,
        -0.09231285750865936
      ]
    },
    {
      "path": "blocks[0].mlp.fc1.weight",
      "shape": [
        16,
        64
      ],
      "data": [
        -0.008691172115504742,
        0.03410117328166962,
        -0.028645729646086693,
        -0.08835694938898087,
        -0.01531562115997076,
        0.10487143695354462,
        -0.02929685078561306,
        0.1067662239074707,
        -0.024992872029542923,
        -0.009445257484912872,
        -0.10487565398216248,
        -0.07007669657468796,
        0.08403526246547699,
        -0.08720573782920837,
        -0.1401783525943756,
        -0.13904349505901337,
        0.05911058932542801,
        -0.08555228263139725,
        0.013336542062461376,
        0.05112661421298981,
        -0.2992357015609741,
        -0.14692391455173492,
        -0.22886276245117188,
        0.04936987906694412,
        0.007823706604540348,
        -0.08992550522089005,
        0.08006148785352707,
        0.07831203937530518,
        0.07684431225061417,
        -0.14587713778018951,
        0.14603449404239655,
        -0.08722107112407684,
        -0.04664380103349686,
        -0.017262008041143417,
        -0.13072718679904938,
        0.09756733477115631,
        -0.0925695151090622,
        -0.11392510682344437,
        -0.03855140134692192,
        -0.13116322457790375,
        0.16221828758716583,
        0.08941657841205597,
        0.06493468582630157,
        0.0778990387916565,
        0.06796235591173172,
        -0.05655284970998764,
        -0.0025112235452979803,
        0.06653983145952225,
        -0.15134409070014954,
        0.13155630230903625,
        -0.012993874959647655,
        0.014910651370882988,
        0.12623170018196106,
        -0.02839125320315361,
        -0.01351221464574337,
        -0.16881491243839264,
        0.010933252982795238,
        -0.037546560168266296,
        0.1335788518190384,
        -0.13616283237934113,
        -0.014016970060765743,
        -0.021211465820670128,
        0.13791468739509583,
        0.08703821152448654,
        -0.04631788283586502,
        0.15960554778575897,
        0.05816437304019928,
        -0.03652490675449371,
        -0.048194583505392075,
        -0.1508091241121292,
        0.0598524808883667,
        0.04195313900709152,
        0.0006569977849721909,
        -0.06718067079782486,
        -0.06979361176490784,
        -0.023800496011972427,
        -0.07703658193349838,
        -0.06426747143268585,
        0.12221395969390869,
        0.06727883964776993,
        -0.11870330572128296,
        0.0076398397795856,
        -0.07938673347234726,
        -0.037459589540958405,
        0.01149066910147667,
        -0.07780249416828156,
        -0.10383141785860062,
        0.07096181809902191,
        0.09022363275289536,
        -0.08012983947992325,
        -0.04210630804300308,
        -0.13278506696224213,
        -0.019101791083812714,
        0.0016937347827479243,
        -0.10052090138196945,
        -0.07678349316120148,
        0.041435107588768005,
        -0.1444883644580841,
        0.15984146296977997,
        0.015465105883777142,
        -0.07782281190156937,
        0.014242135919630527,
        0.026643533259630203,
        -0.02644372545182705,
        0.0649464800953865,
        -0.17308208346366882,
        -0.026253942400217056,
        0.09398174285888672,
        0.013462583534419537,
        0.0660046637058258,
        0.05557040497660637,
        -0.03686315193772316,
        -0.06628967076539993,
        0.07295379787683487,
        -0.0806674063205719,
        0.11249273270368576,
        -0.07847163826227188,
        0.03720683604478836,
        -0.07010730355978012,
        0.04031219705939293,
        0.098993219435215,
        0.0524149090051651,
        -0.010166322812438011,
        -0.0012492422247305512,
        0.05413144454360008,
        0.02205507457256317,
        0.05842021480202675,
        -0.028670871630311012,
        -0.025525681674480438,
        -0.07120909541845322,
        -0.02725820615887642,
        0.09468764811754227,
        -0.00961543619632721,
        -0.16923348605632782,
        -0.002755281748250127,
        0.037962719798088074,
        -0.10647860914468765,
        -0.014527050778269768,
        0.11595107614994049,
        -0.03529565408825874,
        -0.03009326569736004,
        -0.11257725208997726,
        -0.2503320574760437,
        -0.12270011007785797,
        0.11171331256628036,
        -0.2143777459859848,
        0.10241759568452835,
        -0.09478605538606644,
        0.06095181033015251,
        -0.08473719656467438,
        -0.02284882217645645,
        0.056892383843660355,
        -0.014348957687616348,
        0.054919157177209854,
        0.05101834982633591,
        0.11926764994859695,
        0.014722221530973911,
        0.06246543303132057,
        0.047102998942136765,
        0.005302222445607185,
        -0.03464437276124954,
        0.0010684257140383124,
        0.09985668212175369,
        0.08823978155851364,
        0.15139150619506836,
        0.011945918202400208,
        0.1097191870212555,
        0.11193407326936722,
        0.09955882281064987,
        0.07357417792081833,
        0.16142667829990387,
        0.10922859609127045,
        0.09338407963514328,
        0.10889150947332382,
        0.09694133698940277,
        0.08518694341182709,
        -0.030771462246775627,
        0.08155962079763412,
        -0.23119045794010162,
        0.025542907416820526,
        -0.0469028614461422,
        -0.0853925496339798,
        -0.05314323678612709,
        0.03887179121375084,
        0.04196225106716156,
        -0.029599029570817947,
        -0.014757555909454823,
        0.08075207471847534,
        -0.023741809651255608,
        -0.11102419346570969,
        0.27283525466918945,
        -0.041430819779634476,
        0.18896622955799103,
        -0.01757192052900791,
        0.09651806950569153,
        0.008032076060771942,
        0.017170045524835587,
        -0.029583150520920753,
        -0.02343275584280491,
        -0.06358282268047333,
        -0.06565041095018387,
        0.012237361632287502,
        0.013066016137599945,
        0.0063504246063530445,
        -0.054204050451517105,
        -0.02042202837765217,
        0.024524861946702003,
        -0.07573671638965607,
        0.040813274681568146,
        -0.07828425616025925,
        0.050058551132678986,
        0.06439441442489624,
        -0.046919453889131546,
        0.021325664594769478,
        0.07802660018205643,
        -0.014195460826158524,
        0.061049699783325195,
        -0.036253638565540314,
        0.06823041290044785,
        0.208254873752594,
        0.007203835994005203,
        0.04303324222564697,
        0.0239606611430645,
        -0.017851093783974648,
        0.21076859533786774,
        -0.0597117617726326,
        -0.1675429344177246,
        -0.028190188109874725,
        -0.0039352611638605595,
        0.029192151501774788,
        -0.11144659668207169,
        -0.10503537207841873,
        -0.10222728550434113,
        -0.057854119688272476,
        0.06858827918767929,
        -0.0239102840423584,
        0.11770471930503845,
        0.17702794075012207,
        -0.103984035551548,
        0.15085206925868988,
        0.12369147688150406,
        0.09833744168281555,
        0.0690314769744873,
        -0.06613627076148987,
        0.006450172979384661,
        -0.0703507587313652,
        0.0964907556772232,
        0.004442635457962751,
        0.11634395271539688,
        0.09177379310131073,
        0.12013854086399078,
        0.14274032413959503,
        -0.03366851061582565,
        0.009034407325088978,
        0.06801744550466537,
        -0.03966047987341881,
        0.020595354959368706,
        0.07785956561565399,
        -0.038311123847961426,
        0.15639492869377136,
        -0.027069540694355965,
        0.09327416121959686,
        -0.12484283745288849,
        -0.05720968544483185,
        0.020451005548238754,
        -0.05231528356671333,
        0.030402500182390213,
        0.05904139205813408,
        -0.04569602385163307,
        0.039359986782073975,
        0.1424887478351593,
        0.06593620777130127,
        -0.05479057505726814,
        0.05174897238612175,
        -0.19478987157344818,
        -0.09587318450212479,
        0.2952098846435547,
        -0.07378552854061127,
        -0.04091081768274307,
        0.10854016244411469,
        0.036063142120838165,
        -0.05583830177783966,
        0.175169438123703,
        0.07504510134458542,
        0.005545949563384056,
        -0.06257215887308121,
        0.09216118603944778,
        -0.08072026073932648,
        0.10924820601940155,
        0.10710322111845016,
        0.0565653033554554,
        0.046374738216400146,
        0.015819277614355087,
        -0.09434090554714203,
        -0.129197895526886,
        -0.06600206345319748,
        -0.23111513257026672,
        0.013429148122668266,
        0.2424226701259613,
        0.10545437037944794,
        0.004637771286070347,
        -0.08895164728164673,
        -0.13705314695835114,
        -0.07497227936983109,
        -0.051055602729320526,
        0.18662293255329132,
        0.17607055604457855,
        0.09079374372959137,
        0.030777689069509506,
        0.06483227014541626,
        0.09803805500268936,
        -0.0690564513206482,
        0.14564737677574158,
        0.1420629620552063,
        -0.1234511062502861,
        0.014606176875531673,
        0.029593700543045998,
        0.04181665927171707,
        0.002279398264363408,
        0.011381855234503746,
        0.08030889183282852,
        -0.05832771956920624,
        -0.0706225335597992,
        -0.02988765388727188,
        0.035571884363889694,
        0.1808328926563263,
        -0.03498397767543793,
        0.056526750326156616,
        -0.05006163939833641,
        0.05761931091547012,
        -0.015686873346567154,
        0.06665630638599396,
        -0.17576421797275543,
        0.11730504035949707,
        0.09223498404026031,
        -0.0885850340127945,
        -0.01956435851752758,
        -0.03912215307354927,
        0.11679080128669739,
        0.054273031651973724,
        -0.02925228886306286,
        -0.06984724849462509,
        -0.05470499023795128,
        -0.08975856006145477,
        -0.07153414934873581,
        0.022317564114928246,
        -0.053577590733766556,
        -0.07541704922914505,
        0.062306247651576996,
        -0.04586838185787201,
        0.00980273075401783,
        0.11149431765079498,
        0.1536540538072586,
        -0.1399519145488739,
        -0.003163621760904789,
        -0.04019246995449066,
        -0.03404313698410988,
        -0.017184246331453323,
        0.10832516849040985,
        -0.033510781824588776,
        -0.007702183444052935,
        0.08646126091480255,
        -0.002262308495119214,
        0.04540036991238594,
        -0.04150091111660004,
        0.019012857228517532,
        -0.026004359126091003,
        0.08251816034317017,
        0.046721044927835464,
        0.09822282940149307,
        0.04990268498659134,
        0.1611807942390442,
        0.04976777732372284,
        0.08837969601154327,
        0.10260214656591415,
        -0.035270292311906815,
        0.06694583594799042,
        -0.05215119197964668,
        -0.07428093999624252,
        -0.049576930701732635,
        -0.00856840331107378,
        -0.09235438704490662,
        -0.1074611023068428,
        -0.09859585762023926,
        0.004014657810330391,
        -0.07390398532152176,
        -0.03765793889760971,
        -0.09085886180400848,
        -0.09583133459091187,
        0.05038925260305405,
        0.06528850644826889,
        0.048916514962911606,
        -0.025770585983991623,
        -0.0005297044990584254,
        0.0787930116057396,
        -0.03764041140675545,
        0.0131924943998456,
        0.011947817169129848,
        0.048219047486782074,
        -0.09635179489850998,
        -0.07979682087898254,
        0.09444930404424667,
        0.03393900394439697,
        0.027927670627832413,
        -0.0456385537981987,
        -0.015230236575007439,
        -0.031414009630680084,
        -0.22135023772716522,
        0.032005902379751205,
        -0.048858754336833954,
        -0.02235817164182663,
        -0.021199924871325493,
        -0.09261740744113922,
        0.1633477807044983,
        -0.06408094614744186,
        -0.13246631622314453,
        -0.17699754238128662,
        -0.020099444314837456,
        -0.12689608335494995,
        -0.09691725671291351,
        0.03201765567064285,
        0.014123853296041489,
        -0.11276891082525253,
        -0.040323406457901,
        0.04216815158724785,
        -0.014441254548728466,
        0.11206599324941635,
        -0.04227191209793091,
        -0.2101026475429535,
        0.17612934112548828,
        -0.038037125021219254,
        -0.0028612653259187937,
        -0.0011879804078489542,
        0.038533177226781845,
        0.22623535990715027,
        -0.003225478110834956,
        -0.05360355228185654,
        -0.07831764221191406,
        -0.023459983989596367,
        0.07634372264146805,
        0.08689076453447342,
        -0.14908112585544586,
        -0.1811598241329193,
        -0.11979994177818298,
        0.12880924344062805,
        -0.02997373603284359,
        0.07001720368862152,
        0.05461623892188072,
        0.09046363830566406,
        0.02287825383245945,
        0.04102347046136856,
        -0.15074066817760468,
        0.05721442773938179,
        -0.048021089285612106,
        -0.11833597719669342,
        -0.03525878116488457,
        -0.30844926834106445,
        -0.11474987864494324,
        0.10789487510919571,
        -0.057108331471681595,
        0.0874442607164383,
        0.1804162859916687,
        -0.17290468513965607,
        -0.15149284899234772,
        0.04845632612705231,
        -0.05903351306915283,
        0.012715267017483711,
        0.17043520510196686,
        0.005463596899062395,
        0.11111003160476685,
        -0.05395176634192467,
        0.03910268843173981,
        0.02534749172627926,
        -0.05321609973907471,
        -0.15167026221752167,
        0.08052416145801544,
        -0.04848555475473404,
        0.006772901862859726,
        -0.050594840198755264,
        0.058011144399642944,
        0.17183817923069,
        0.012235882692039013,
        0.013249223120510578,
        0.0407501757144928,
        -0.2267487794160843,
        -0.09307345002889633,
        -0.0011392157757654786,
        0.004439275711774826,
        -0.03557688370347023,
        -0.01445696596056223,
        0.05067992955446243,
        0.023712361231446266,
        0.07996097952127457,
        -0.06799536198377609,
        -0.1091064065694809,
        -0.006301769521087408,
        -0.0028880639001727104,
        0.03859493136405945,
        0.04513389617204666,
        -0.07223492860794067,
        -0.047484081238508224,
        -0.17962105572223663,
        0.10319691896438599,
        -0.07333730906248093,
        -0.021409129723906517,
        -0.019752230495214462,
        -0.018036460503935814,
        0.005460862070322037,
        0.0339210070669651,
        0.08482328057289124,
        -0.1205468699336052,
        0.052021514624357224,
        0.046888530254364014,
        0.07153188437223434,
        -0.07904371619224548,
        0.000438519986346364,
