{
  "version": "1.0.0",
  "model": {
    "version": "1.0.0",
    "type": "nn/gpt",
    "config": {
      "vocab_size": 96,
      "block_size": 16,
      "n_layer": 1,
      "n_embd": 16,
      "n_head": 4
    },
    "weights": [
      {
        "path": "wte.weight",
        "shape": [
          96,
          16
        ],
        "data": [
          -0.34293800592422485,
          0.19700029492378235,
          0.23707236349582672,
          -0.03939813748002052,
          0.25320321321487427,
          -0.08240015059709549,
          -0.14331787824630737,
          -0.15500891208648682,
          0.26416000723838806,
          -0.21939052641391754,
          -0.14822739362716675,
          0.09409626573324203,
          0.16633190214633942,
          0.2136019617319107,
          0.109555184841156,
          0.0638742595911026,
          0.010773603804409504,
          -0.12850184738636017,
          -0.24290549755096436,
          -0.05036773160099983,
          0.04078201204538345,
          0.006457969080656767,
          -0.04306593909859657,
          0.021205326542258263,
          -0.011461667716503143,
          -0.22682927548885345,
          0.1227169930934906,
          0.0016459077596664429,
          -0.09027492254972458,
          -0.05432342737913132,
          -0.0408146008849144,
          0.06635541468858719,
          -0.03622686490416527,
          0.13189254701137543,
          -0.09937474876642227,
          -0.10433478653430939,
          0.33385151624679565,
          0.005499975755810738,
          0.14979499578475952,
          -0.27774184942245483,
          0.034635595977306366,
          0.07479140907526016,
          -0.0009529123781248927,
          0.0936606228351593,
          -0.2732301354408264,
          -0.06404179334640503,
          0.00939972884953022,
          0.09632666409015656,
          -0.15796394646167755,
          0.12877802550792694,
          -0.051644954830408096,
          0.3579274117946625,
          0.21799825131893158,
          0.18204468488693237,
          0.13920235633850098,
          -0.06448382884263992,
          0.05393218621611595,
          0.07286643981933594,
          0.2193690985441208,
          0.042175523936748505,
          0.006530008278787136,
          0.3191320300102234,
          -0.01260009128600359,
          0.06951059401035309,
          -0.23889760673046112,
          -0.09790921211242676,
          -0.14524543285369873,
          0.07832055538892746,
          0.32830697298049927,
          0.17348764836788177,
          0.13409489393234253,
          -0.11980605870485306,
          0.08631584793329239,
          0.14817632734775543,
          0.11961749941110611,
          0.008016067557036877,
          -0.042536843568086624,
          0.1751650720834732,
          0.045646194368600845,
          0.012820458970963955,
          -0.059106890112161636,
          -0.1633458137512207,
          0.043803997337818146,
          -0.009958087466657162,
          0.08294600993394852,
          -0.08881518244743347,
          -0.03306698799133301,
          -0.2288035899400711,
          0.12061624974012375,
          -0.12073030322790146,
          -0.28768792748451233,
          0.3124804198741913,
          -0.16932108998298645,
          0.4165085256099701,
          -0.013192195445299149,
          0.04770077019929886,
          -0.09031838923692703,
          0.10815440118312836,
          -0.07216071337461472,
          -0.11733389645814896,
          -0.10747324675321579,
          -0.03198428452014923,
          -0.05436205863952637,
          -0.014562391676008701,
          0.06351105868816376,
          0.19151075184345245,
          -0.1002066433429718,
          -0.0738341435790062,
          0.017365438863635063,
          0.01936974935233593,
          -0.02319726161658764,
          -0.04593769833445549,
          0.0931364968419075,
          -0.4064480662345886,
          0.143108069896698,
          -0.021558983251452446,
          0.3445316553115845,
          -0.16684167087078094,
          -0.19624453783035278,
          0.07379421591758728,
          -0.10111890733242035,
          0.0032464656978845596,
          0.0059269326739013195,
          -0.37819916009902954,
          0.22540834546089172,
          -0.2387923151254654,
          -0.1881280243396759,
          -0.16668401658535004,
          -0.06574194878339767,
          0.1579308807849884,
          -0.34564995765686035,
          0.021542564034461975,
          -0.07362236082553864,
          -0.12554776668548584,
          -0.04332013055682182,
          -0.1049380749464035,
          -0.12778836488723755,
          -0.00025831148377619684,
          0.20180635154247284,
          -0.07971957325935364,
          -0.027514632791280746,
          -0.010876846499741077,
          -0.17181937396526337,
          -0.17007336020469666,
          -0.016093660145998,
          0.02077290415763855,
          -0.18509280681610107,
          0.09245487302541733,
          0.04924605041742325,
          -0.1318090856075287,
          0.09306600689888,
          -0.17120593786239624,
          -0.23435580730438232,
          -0.02692599408328533,
          0.0008742656791582704,
          -0.12373564392328262,
          0.12467529624700546,
          0.06544686108827591,
          0.048508718609809875,
          -0.13110417127609253,
          -0.10676370561122894,
          0.10614823549985886,
          -0.023465508595108986,
          -0.0061056655831635,
          -0.1527942568063736,
          0.1557728797197342,
          -0.19796355068683624,
          -0.06585904210805893,
          -0.029481887817382812,
          -0.14161862432956696,
          -0.17525556683540344,
          0.050539515912532806,
          0.25278568267822266,
          0.008700864389538765,
          0.023719973862171173,
          -0.2042732983827591,
          -0.15380732715129852,
          0.031056173145771027,
          -0.0836118757724762,
          0.05163470655679703,
          0.2302102893590927,
          0.06559740751981735,
          0.22345806658267975,
          -0.2033187597990036,
          -0.007936488837003708,
          -0.27601489424705505,
          0.15357308089733124,
          0.08381728082895279,
          -0.058539412915706635,
          -0.07072419673204422,
          -0.11683804541826248,
          0.04418865963816643,
          0.008714701049029827,
          0.021455993875861168,
          0.007407911121845245,
          -0.09602610021829605,
          -0.017959486693143845,
          0.0674009844660759,
          0.12210973352193832,
          0.04064903408288956,
          0.06565137207508087,
          0.05475757271051407,
          -0.046292971819639206,
          -0.013318872079253197,
          -0.07332067936658859,
          -0.1880299299955368,
          -0.009395580738782883,
          0.034814685583114624,
          0.02052854560315609,
          -0.2074006348848343,
          0.06171590834856033,
          0.08831267803907394,
          0.1012764424085617,
          -0.07640469819307327,
          -0.1367824226617813,
          0.001008770545013249,
          0.033485736697912216,
          0.12053517997264862,
          0.19626520574092865,
          -0.14158274233341217,
          0.05499513819813728,
          0.0024957777932286263,
          -0.15974465012550354,
          -0.06768590956926346,
          -0.14505325257778168,
          0.08967767655849457,
          0.12396293878555298,
          -0.10704819858074188,
          0.18926005065441132,
          -0.03414347022771835,
          -0.09486237168312073,
          0.053147122263908386,
          -0.009937242604792118,
          0.1033458411693573,
          0.0001038391055772081,
          0.04772103950381279,
          -0.08682994544506073,
          0.09966781735420227,
          0.013250215910375118,
          -0.026381561532616615,
          -0.14112266898155212,
          -0.03112509287893772,
          0.195809006690979,
          0.22178833186626434,
          -0.012964224442839622,
          0.158309668302536,
          0.2204301953315735,
          -0.007338533643633127,
          0.18091492354869843,
          -0.18596181273460388,
          0.04026254639029503,
          0.04793405905365944,
          0.16038577258586884,
          0.17740899324417114,
          -0.02801382541656494,
          0.12033383548259735,
          -0.16122110188007355,
          0.31347033381462097,
          -0.12990830838680267,
          -0.05770605430006981,
          -0.300950825214386,
          0.41377779841423035,
          -0.042111385613679886,
          0.04129384830594063,
          -0.10380299389362335,
          -0.2675994336605072,
          0.039490051567554474,
          0.20765000581741333,
          0.25203394889831543,
          -0.17947205901145935,
          0.23098061978816986,
          -0.21713471412658691,
          0.2846917510032654,
          0.26143842935562134,
          0.055359695106744766,
          0.3346582353115082,
          0.24624459445476532,
          0.23244811594486237,
          -0.0508057102560997,
          -0.07718538492918015,
          0.26428258419036865,
          0.03150686249136925,
          0.02552258037030697,
          -0.05302052199840546,
          -0.24851776659488678,
          -0.20633886754512787,
          0.15328623354434967,
          0.07712788134813309,
          -0.2325386255979538,
          -0.22729113698005676,
          0.09314525127410889,
          -0.3460288345813751,
          -0.3426918089389801,
          -0.050664883106946945,
          0.11656689643859863,
          -0.43921801447868347,
          0.04851191118359566,
          -0.10062333941459656,
          0.16349256038665771,
          0.2671678960323334,
          -0.09110206365585327,
          0.12493851035833359,
          -0.004099783953279257,
          0.1890876293182373,
          -0.00940871424973011,
          -0.08573772758245468,
          -0.008301010355353355,
          -0.034375980496406555,
          0.0794660821557045,
          -0.1680128127336502,
          -0.17750754952430725,
          0.003101782174780965,
          -0.08083120733499527,
          0.17506057024002075,
          0.20459291338920593,
          -0.15054431557655334,
          -0.22605115175247192,
          0.052704375237226486,
          -0.21980004012584686,
          -0.106972835958004,
          -0.08452662825584412,
          0.07590910792350769,
          0.17296546697616577,
          0.44558754563331604,
          -0.06320279836654663,
          0.22951878607273102,
          0.1304406225681305,
          -0.07857726514339447,
          0.1541699320077896,
          -0.2784320116043091,
          0.009097606875002384,
          -0.0850447565317154,
          0.33167165517807007,
          0.2861410975456238,
          0.18671360611915588,
          0.13054506480693817,
          -0.2252044528722763,
          -0.22593741118907928,
          0.1914750039577484,
          -0.06834584474563599,
          -0.09411806613206863,
          0.309310644865036,
          -0.24796220660209656,
          -0.1293702870607376,
          -0.12590919435024261,
          0.05505790188908577,
          -0.1164836660027504,
          0.17226438224315643,
          0.12849849462509155,
          0.4644087553024292,
          0.023228131234645844,
          0.08571667224168777,
          -0.13568782806396484,
          0.1663637012243271,
          0.219007670879364,
          0.010086608119308949,
          0.10995788127183914,
          0.14546848833560944,
          0.1592264324426651,
          0.022501297295093536,
          -0.3537544906139374,
          0.26244422793388367,
          0.016351135447621346,
          -0.42532479763031006,
          -0.19088588654994965,
          -0.4975948929786682,
          0.1420784592628479,
          -0.01857764460146427,
          0.13421839475631714,
          -0.170229971408844,
          -0.17294637858867645,
          0.20725318789482117,
          -0.059947989881038666,
          0.15412035584449768,
          0.16242754459381104,
          0.1885344684123993,
          0.24697208404541016,
          0.08909039944410324,
          -0.3806626498699188,
          0.13640138506889343,
          -0.04138502478599548,
          0.13584750890731812,
          -0.14276710152626038,
          0.20622731745243073,
          -0.11930263787508011,
          -0.1825992465019226,
          0.07405522465705872,
          -0.16593344509601593,
          0.021163029596209526,
          -0.10711986571550369,
          0.03537704423069954,
          0.20606951415538788,
          -0.0848843976855278,
          -0.1225692629814148,
          0.011000014841556549,
          0.348145067691803,
          -0.5482299327850342,
          0.13148772716522217,
          0.25252246856689453,
          -0.39104411005973816,
          0.06984633207321167,
          0.021396860480308533,
          0.11010090261697769,
          -0.32658958435058594,
          0.2118608057498932,
          -0.09190355241298676,
          0.38299626111984253,
          -0.16769449412822723,
          0.43583914637565613,
          -0.284582257270813,
          0.07635337859392166,
          -0.2602657973766327,
          0.1578931212425232,
          0.052754372358322144,
          -0.06867734342813492,
          0.09771861135959625,
          -0.005594288464635611,
          -0.2263469696044922,
          0.1749901920557022,
          -0.18245616555213928,
          -0.05601511895656586,
          -0.0096068000420928,
          0.0768221989274025,
          0.06464152038097382,
          -0.1215445026755333,
          0.09210031479597092,
          0.20598889887332916,
          0.20574355125427246,
          0.13380882143974304,
          -0.09234848618507385,
          0.11923212558031082,
          0.23164638876914978,
          0.08219900727272034,
          0.037817999720573425,
          -0.06220768392086029,
          -0.09154344350099564,
          -0.07929898798465729,
          -0.11612911522388458,
          -0.05064734071493149,
          0.0807851105928421,
          0.15949152410030365,
          0.06419230997562408,
          -0.015714870765805244,
          0.13120315968990326,
          -0.10937338322401047,
          0.04791662469506264,
          -0.01522008515894413,
          -0.24904854595661163,
          0.1447557508945465,
          -0.19468149542808533,
          0.0692865327000618,
          -0.24237047135829926,
          0.19787225127220154,
          -0.09221869707107544,
          -0.13403159379959106,
          -0.1158968061208725,
          -0.049217600375413895,
          0.010568715631961823,
          0.13488662242889404,
          -0.2282353937625885,
          0.18590699136257172,
          -0.11311168223619461,
          -0.34184765815734863,
          -0.15300634503364563,
          -0.05600300803780556,
          0.05576285719871521,
          0.15782074630260468,
          0.17311392724514008,
          0.07251767069101334,
          -0.004507865756750107,
          -0.11180626600980759,
          0.1576642245054245,
          0.04928421974182129,
          0.0788651704788208,
          0.13940469920635223,
          -0.09984520077705383,
          -0.17887362837791443,
          -0.08181215077638626,
          -0.05636348947882652,
          -0.03475416824221611,
          0.1979752629995346,
          -0.04892931506037712,
          -0.28908416628837585,
          0.2061690092086792,
          0.08011406660079956,
          -0.14562228322029114,
          0.05251249298453331,
          0.031652435660362244,
          0.04045768454670906,
          -0.16474249958992004,
          -0.07009543478488922,
          0.15442238748073578,
          -0.019091403111815453,
          0.010223623365163803,
          0.16215544939041138,
          -0.0025987939443439245,
          0.10166116058826447,
          0.07511194795370102,
          -0.0649307370185852,
          -0.16554901003837585,
          -0.10517273843288422,
          0.05675535649061203,
          0.20334872603416443,
          -0.06311943382024765,
          -0.24877464771270752,
          0.26385170221328735,
          -0.08550737798213959,
          0.15244147181510925,
          0.08919478207826614,
          0.06517714262008667,
          0.04898514971137047,
          0.3457181751728058,
          -0.09077924489974976,
          -0.27996939420700073,
          0.21808254718780518,
          0.10475584864616394,
          0.035452701151371,
          0.18704742193222046,
          -0.021688293665647507,
          0.12304482609033585,
          -0.06854591518640518,
          -0.15514491498470306,
          -0.4992954730987549,
          -0.06601493060588837,
          0.2171134352684021,
          0.15393173694610596,
          -0.14901262521743774,
          -0.3215365409851074,
          -0.24972869455814362,
          0.028789149597287178,
          -0.21631750464439392,
          -0.040865421295166016,
          -0.04952395707368851,
          -0.13322779536247253,
          0.15438464283943176,
          -0.22626933455467224,
          -0.13004302978515625,
          -0.3201819062232971,
          0.03811391070485115,
          -0.030699308961629868,
          0.07645874470472336,
          -0.05547863990068436,
          -0.05238752439618111,
          -0.14064782857894897,
          -0.1468527466058731,
          0.04329214617609978,
          -0.18121136724948883,
          -0.1284094750881195,
          0.05937986820936203,
          0.24439261853694916,
          -0.19333574175834656,
          -0.12751443684101105,
          0.1216711699962616,
          -0.47441110014915466,
          -0.04823192581534386,
          0.009117001667618752,
          -0.05235868692398071,
          0.3005409240722656,
          -0.1940106898546219,
          0.15311875939369202,
          -0.012823967263102531,
          0.04258681833744049,
          -0.00246935966424644,
          0.02411455102264881,
          0.0963287204504013,
          -0.02216167561709881,
          -0.04310718551278114,
          0.05926311016082764,
          -0.056452393531799316,
          0.0041006775572896,
          0.09955795109272003,
          -0.007007188629359007,
          0.07200838625431061,
          -0.09997657686471939,
          -0.15045848488807678,
          -0.04730250686407089,
          -0.2858814299106598,
          -0.4458147883415222,
          -0.06645271182060242,
          0.2113993912935257,
          0.29580608010292053,
          -0.05749304220080376,
          0.06510019302368164,
          0.021122096106410027,
          0.025827795267105103,
          -0.34381231665611267,
          -0.06810125708580017,
          0.45016181468963623,
          0.051357947289943695,
          -0.36535194516181946,
          0.10436425358057022,
          -0.03323683515191078,
          -0.18313272297382355,
          0.2276572734117508,
          -0.4720779061317444,
          0.1251465082168579,
          -0.09446500241756439,
          0.1490834653377533,
          0.2696387767791748,
          0.0035015654284507036,
          0.17305196821689606,
          -0.09296262264251709,
          0.1490381509065628,
          -0.030794529244303703,
          0.23831835389137268,
          0.1242775022983551,
          -0.03520079702138901,
          -0.016475167125463486,
          0.047131139785051346,
          -0.0001697990228421986,
          0.023775838315486908,
          0.19751042127609253,
          0.034362517297267914,
          0.002960165962576866,
          0.21082718670368195,
          -0.013630351051688194,
          -0.0537506528198719,
          0.18082520365715027,
          -0.09718488156795502,
          0.06635427474975586,
          0.007540863007307053,
          0.23478107154369354,
          0.0926152840256691,
          0.004150128457695246,
          0.07938334345817566,
          -0.3347085416316986,
          -0.460930734872818,
          0.21505247056484222,
          0.09868074953556061,
          -0.10930230468511581,
          0.11839137226343155,
          -0.2159000039100647,
          -0.1110360249876976,
          -0.302818238735199,
          -0.20282666385173798,
          0.31982672214508057,
          -0.02326953411102295,
          0.09686710685491562,
          0.42148301005363464,
          0.170979306101799,
          0.11696288734674454,
          -0.239255890250206,
          0.2579849064350128,
          -0.355943888425827,
          -0.02041240595281124,
          -0.03462327644228935,
          -0.006465335842221975,
          -0.09545769542455673,
          -0.11766545474529266,
          0.1596267968416214,
          0.19232915341854095,
          0.4404306709766388,
          0.2838948667049408,
          0.03812250867486,
          0.0976002961397171,
          0.35818666219711304,
          -0.1452016830444336,
          -0.13936837017536163,
          0.0014764968072995543,
          0.2716265320777893,
          0.037484604865312576,
          0.26627200841903687,
          -0.07316060364246368,
          0.012446658685803413,
          0.1745089292526245,
          0.0038336392026394606,
          -0.29786089062690735,
          -0.1915304958820343,
          0.31256645917892456,
          -0.03502102941274643,
          -0.15634222328662872,
          0.1040651798248291,
          -0.09561242163181305,
          0.07221576571464539,
          0.02868962101638317,
          0.0037061702460050583,
          0.1900467574596405,
          -0.12254969775676727,
          -0.27914026379585266,
          -0.02988174930214882,
          -0.11599114537239075,
          0.15264685451984406,
          0.21991416811943054,
          -0.0008485668804496527,
          -0.18566671013832092,
          -0.12326251715421677,
          -0.16562053561210632,
          -0.005166579037904739,
          0.020754525437951088,
          0.0011797648621723056,
          0.12384811788797379,
          0.050302911549806595,
          -0.13612540066242218,
          -0.1861281543970108,
          -0.12342377007007599,
          0.03697635978460312,
          -0.0849631205201149,
          -0.025904351845383644,
          0.17298853397369385,
          -0.22823967039585114,
          0.3105764389038086,
          0.24952995777130127,
          0.2013566642999649,
          0.13519488275051117,
          -0.05901530385017395,
          0.03870515152812004,
          -0.1578984260559082,
          0.0005592927918769419,
          0.12305215746164322,
          -0.1835949867963791,
          0.11398386210203171,
          -0.1505487710237503,
          0.13763171434402466,
          0.03782723471522331,
          0.31614023447036743,
          -0.19168110191822052,
          -0.05438429117202759,
          0.018409911543130875,
          0.15700297057628632,
          0.17060522735118866,
          0.05666136369109154,
          0.006285549607127905,
          -0.25200173258781433,
          -0.033594973385334015,
          0.010968160815536976,
          -0.09902102500200272,
          0.10850486904382706,
          -0.09099617600440979,
          -0.3031598925590515,
          -0.056039776653051376,
          0.12765894830226898,
          -0.11789394170045853,
          0.06754183024168015,
          -0.034643955528736115,
          0.03793742135167122,
          -0.12163534760475159,
          -0.13052697479724884,
          -0.13621918857097626,
          0.17778290808200836,
          -0.31094130873680115,
          0.3163948059082031,
          -0.12152915447950363,
          0.06485895812511444,
          -0.0074887871742248535,
          -0.1604522466659546,
          -0.12299518287181854,
          0.46618011593818665,
          0.0374717116355896,
          -0.18405084311962128,
          -0.07513754069805145,
          0.11516439914703369,
          0.10497824102640152,
          0.19655589759349823,
          -0.05795266479253769,
          -0.41799280047416687,
          0.1424022912979126,
          -0.2524638772010803,
          0.1505669504404068,
          -0.13536204397678375,
          -0.1280965954065323,
          -0.09160153567790985,
          0.04406004771590233,
          0.052057135850191116,
          0.02416493184864521,
          -0.19114939868450165,
          0.27193838357925415,
          0.07238616794347763,
          -0.051816895604133606,
          0.17810925841331482,
          -0.37027454376220703,
          0.061308521777391434,
          0.10685925930738449,
          -0.0270532313734293,
          -0.1918330192565918,
          -0.22033825516700745,
          0.02661929279565811,
          -0.006632463540881872,
          0.16541579365730286,
          -0.04440278932452202,
          -0.17188610136508942,
          0.26060789823532104,
          -0.15414032340049744,
          -0.22001177072525024,
          -0.15815968811511993,
          -0.3629722595214844,
          0.2166358381509781,
          0.10951266437768936,
          0.1478712409734726,
          -0.06311091035604477,
          0.09299269318580627,
          0.22013823688030243,
          0.14789076149463654,
          0.09177573770284653,
          -0.45971372723579407,
          0.08306434750556946,
          0.18789583444595337,
          0.37485599517822266,
          -0.1761435568332672,
          0.10702992230653763,
          0.25136256217956543,
          0.13849008083343506,
          -0.2608121633529663,
          0.16800899803638458,
          -0.23086372017860413,
          0.07754002511501312,
          0.1579224020242691,
          0.11549031734466553,
          -0.14780732989311218,
          0.02115730009973049,
          0.03821073845028877,
          0.27134114503860474,
          0.16222931444644928,
          0.1082458421587944,
          -0.013912520371377468,
          -0.02976260706782341,
          0.20255790650844574,
          -0.08036838471889496,
          -0.03249869495630264,
          0.01830809749662876,
          0.02482466958463192,
          0.20042718946933746,
          -0.12576258182525635,
          -0.1447063833475113,
          0.038943346589803696,
          -0.15442892909049988,
          0.15715809166431427,
          0.21128475666046143,
          -0.032077234238386154,
          -0.13084885478019714,
          -0.14687879383563995,
          -0.18450236320495605,
          -0.005587175488471985,
          0.07694791257381439,
          0.0946078896522522,
          0.025505879893898964,
          -0.008500825613737106,
          0.004350127652287483,
          -0.22560162842273712,
          0.06985612213611603,
          -0.29084450006484985,
          0.04148181900382042,
          -0.19569365680217743,
          0.13906316459178925,
          -0.2625422477722168,
          0.12476115673780441,
          0.13202603161334991,
          0.06572717428207397,
          0.08988296985626221,
          0.1954585313796997,
          -0.3280383348464966,
          0.11518418788909912,
          0.17485181987285614,
          -0.26311638951301575,
          0.17427857220172882,
          -0.14733003079891205,
          -0.21111610531806946,
          -0.1513446569442749,
          0.0332738421857357,
          -0.22937019169330597,
          -0.006376116070896387,
          -0.19309265911579132,
          0.1296474039554596,
          -0.2322625070810318,
          -0.3006957471370697,
          0.06578682363033295,
          0.01767260767519474,
          0.30579674243927,
          0.09940345585346222,
          -0.11197284609079361,
          0.2064979374408722,
          -0.19606493413448334,
          -0.021000146865844727,
          -0.12049476057291031,
          0.17578409612178802,
          -0.1306106299161911,
          -0.04269276559352875,
          0.13372235000133514,
          0.05203564465045929,
          0.194876566529274,
          0.1888657659292221,
          -0.08536641299724579,
          0.2509295344352722,
          0.21150165796279907,
          0.251056969165802,
          0.1870013177394867,
          0.30508333444595337,
          0.3780912458896637,
          0.20967194437980652,
          0.32232603430747986,
          0.07910680770874023,
          0.036791615188121796,
          0.16634875535964966,
          0.211208313703537,
          0.37227383255958557,
          -0.21239817142486572,
          -0.11371448636054993,
          0.10322980582714081,
          0.027897968888282776,
          -0.02675662375986576,
          -0.11858722567558289,
          0.05989929661154747,
          -0.1695062816143036,
          0.05016881972551346,
          -0.1715877503156662,
          -0.271692156791687,
          -0.10141148418188095,
          0.44252437353134155,
          -0.011104204691946507,
          0.08402332663536072,
          -0.06327483803033829,
          0.21507106721401215,
          0.08537080138921738,
          -0.19430094957351685,
          -0.17776502668857574,
          0.09308920800685883,
          -0.009758287109434605,
          -0.059733226895332336,
          0.020123442634940147,
          0.04089666157960892,
          -0.1746990978717804,
          0.0710834339261055,
          0.017884954810142517,
          -0.055716436356306076,
          -0.11255477368831635,
          -0.15146660804748535,
          -0.0694575235247612,
          0.00033845633151941,
          0.09169896692037582,
          -0.10323980450630188,
          0.08420644700527191,
          -0.21970616281032562,
          -0.15327587723731995,
          0.026090411469340324,
          -0.057393454015254974,
          -0.04744567349553108,
          -0.18404343724250793,
          -0.03646380454301834,
          0.27402663230895996,
          -0.07931631803512573,
          -0.08750134706497192,
          0.11162153631448746,
          -0.021973155438899994,
          -0.2544480264186859,
          -0.12059538066387177,
          -0.08964584022760391,
          -0.09601142257452011,
          -0.05250673368573189,
          0.030413685366511345,
          0.09760059416294098,
          -0.1296808123588562,
          -0.08055302500724792,
          0.15378199517726898,
          0.08732342720031738,
          0.01805483177304268,
          0.25605538487434387,
          0.06593446433544159,
          -0.0768042802810669,
          -0.05382008105516434,
          -0.1309717297554016,
          -0.10854220390319824,
          0.013352365233004093,
          0.1013740748167038,
          0.054365795105695724,
          -0.12193148583173752,
          -0.14020836353302002,
          0.16445492208003998,
          -0.083656445145607,
          -0.031897466629743576,
          -0.11077599972486496,
          0.2519078850746155,
          0.11228775233030319,
          -0.13184067606925964,
          0.003173417178913951,
          -0.19640877842903137,
          0.030225424095988274,
          -0.11653725057840347,
          -0.02587314508855343,
          0.09876882284879684,
          0.11359056085348129,
          -0.06841395050287247,
          0.16684196889400482,
          -0.08451054245233536,
          -0.15433646738529205,
          0.0801103413105011,
          -0.18015043437480927,
          0.15373647212982178,
          0.0032518268562853336,
          -0.12106866389513016,
          -0.21212908625602722,
          0.04951944202184677,
          -0.18373669683933258,
          0.013895147480070591,
          0.07164411246776581,
          -0.009751574136316776,
          0.04568355530500412,
          0.01133243553340435,
          0.014908583834767342,
          0.0834055095911026,
          0.04569920524954796,
          0.011494622565805912,
          -0.04486221447587013,
          0.03589771315455437,
          0.00894403737038374,
          0.045061275362968445,
          -0.005698197986930609,
          -0.025364162400364876,
          -0.14070825278759003,
          0.07181845605373383,
          0.18829752504825592,
          0.14276960492134094,
          -0.030892616137862206,
          0.21334132552146912,
          -0.04424252733588219,
          -0.1694808155298233,
          -0.18975380063056946,
          0.19468332827091217,
          0.19065631926059723,
          -0.20253942906856537,
          -0.29805588722229004,
          -0.1638704091310501,
          -0.3634430468082428,
          0.08189640194177628,
          -0.3460770547389984,
          0.24118904769420624,
          -0.11340590566396713,
          0.11848599463701248,
          -0.0629279613494873,
          -0.013046776875853539,
          0.055139534175395966,
          0.02514883503317833,
          -0.11290649324655533,
          -0.0247053150087595,
          0.15204118192195892,
          -0.10738236457109451,
          0.015167552046477795,
          0.06290203332901001,
          -0.031098203733563423,
          0.08408854156732559,
          0.14645430445671082,
          0.09747114032506943,
          0.12927836179733276,
          0.03182503208518028,
          0.06645840406417847,
          -0.19307595491409302,
          -0.0469583198428154,
          0.007167561911046505,
          -0.032628804445266724,
          -0.03669629991054535,
          0.3030027747154236,
          0.07651951164007187,
          -0.08911564201116562,
          0.0768284797668457,
          0.12304773181676865,
          -0.0722004845738411,
          0.08560606837272644,
          0.07044843584299088,
          0.15677855908870697,
          -0.33269646763801575,
          0.20346753299236298,
          -0.08986753970384598,
          -0.362628698348999,
          0.022318629547953606,
          -0.07431810349225998,
          -0.23436136543750763,
          -0.3269456923007965,
          -0.16045986115932465,
          -0.2801150381565094,
          -0.2529551684856415,
          -0.14141979813575745,
          0.3255176246166229,
          0.05532899126410484,
          -0.2676682770252228,
          0.007293681614100933,
          0.09579093009233475,
          -0.006780912633985281,
          0.03452221676707268,
          0.16924318671226501,
          -0.024506308138370514,
          -0.1402519941329956,
          0.08661710470914841,
          -0.007489713374525309,
          0.041346002370119095,
          0.15839262306690216,
          0.021585434675216675,
          -0.04269573464989662,
          -0.028244880959391594,
          -0.09993793815374374,
          -0.03615893796086311,
          0.039480060338974,
          0.09475187957286835,
          -0.1171388253569603,
          0.006300064735114574,
          -0.001605115714482963,
          -0.023891646414995193,
          0.020009705796837807,
          0.06200999394059181,
          0.09209352731704712,
          0.05743466317653656,
          0.14406980574131012,
          -0.17222431302070618,
          -0.03581622987985611,
          0.07234726846218109,
          -0.28532135486602783,
          -0.011339576914906502,
          -0.2205982208251953,
          -0.21323448419570923,
          0.05149447172880173,
          0.21056002378463745,
          0.0508899912238121,
          -0.16604694724082947,
          -0.21871031820774078,
          -0.02508174069225788,
          0.22308887541294098,
          -0.31669333577156067,
          -0.16021515429019928,
          0.2015848159790039,
          -0.3543514013290405,
          -0.10569644719362259,
          0.05858265981078148,
          0.2687462568283081,
          0.11493043601512909,
          0.0444299541413784,
          -0.12140708416700363,
          0.3246241509914398,
          0.26055678725242615,
          0.261064350605011,
          0.21077293157577515,
          0.04103507846593857,
          0.08385689556598663,
          0.08369456976652145,
          -0.08782804757356644,
          0.16964459419250488,
          -0.14039753377437592,
          -0.04196903854608536,
          0.2088327258825302,
          -0.25856274366378784,
          0.14714735746383667,
          0.0036003829445689917,
          -0.12860901653766632,
          0.09177910536527634,
          -0.46644145250320435,
          0.2569800615310669,
          0.09152749925851822,
          0.09637108445167542,
          0.12281882762908936,
          -0.3615991473197937,
          -0.33751800656318665,
          0.07352329045534134,
          -0.2976999878883362,
          -0.21118201315402985,
          0.0588529147207737,
          -0.4033743143081665,
          -0.026189906522631645,
          -0.03313209488987923,
          0.04679051414132118,
          0.021161280572414398,
          0.13694952428340912,
          -0.16257654130458832,
          -0.15049530565738678,
          -0.05521087348461151,
          -0.029771769419312477,
          0.05163721367716789,
          -0.025866055861115456,
          -0.17881540954113007,
          0.05139898508787155,
          -0.10505422949790955,
          -0.037213489413261414,
          -0.12295889109373093,
          -0.18002140522003174,
          0.2541472315788269,
          0.0414314903318882,
          -0.11524657905101776,
          0.08564847707748413,
          -0.12465011328458786,
          -0.20430748164653778,
          -0.03875872492790222,
          -0.04809001460671425,
          0.0732724592089653,
          0.1773446798324585,
          -0.04770126938819885,
          -0.11989057809114456,
          -0.02928253635764122,
          -0.033045485615730286,
          -0.08287191390991211,
          -0.04932254180312157,
          0.14522697031497955,
          0.05505400896072388,
          -0.012660722248256207,
          -0.012884090654551983,
          -0.21270018815994263,
          -0.06562677025794983,
          0.02098962478339672,
          -0.05372639372944832,
          0.09149458259344101,
          0.10250627249479294,
          0.019761716946959496,
          -0.11148754507303238,
          -0.054792605340480804,
          -0.134797602891922,
          -0.030159395188093185,
          -0.03376353532075882,
          0.052412889897823334,
          -0.004210139159113169,
          -0.25678521394729614,
          -0.017739079892635345,
          -0.08684325218200684,
          -0.12525337934494019,
          0.20498685538768768,
          -0.028647739440202713,
          0.20763012766838074,
          -0.14322388172149658,
          0.10630211979150772,
          -0.0523548424243927,
          0.11842113733291626,
          -0.13218142092227936,
          -0.15071186423301697,
          -0.10531479865312576,
          -0.06863940507173538,
          -0.07400748878717422,
          -0.17612048983573914,
          -0.06686152517795563,
          -0.12543869018554688,
          -0.048423510044813156,
          0.164754718542099,
          0.12418358027935028,
          0.20470483601093292,
          -0.051508281379938126,
          -0.025757767260074615,
          -0.01636866107583046,
          0.06586062163114548,
          -0.006976913195103407,
          0.13694068789482117,
          -0.18790611624717712,
          0.04752274602651596,
          -0.07540488988161087,
          0.07375336438417435,
          0.06974244862794876,
          -0.09902859479188919,
          0.09751080721616745,
          -0.013847887516021729,
          0.17913664877414703,
          0.16818413138389587,
          0.11137528717517853,
          -0.08444397151470184,
          -0.11937559396028519,
          -0.17716452479362488,
          0.12752246856689453,
          0.11607597023248672,
          0.27593064308166504,
          0.004138225689530373,
          -0.14583814144134521,
          -0.0037187624257057905,
          -0.11343894898891449,
          -0.08485550433397293,
          0.010709443129599094,
          -0.10758373886346817,
          -0.18222206830978394,
          0.03350749984383583,
          0.3196123540401459,
          -0.20087578892707825,
          0.10335876047611237,
          0.21300655603408813,
          0.0810852199792862,
          -0.11953011900186539,
          -0.004443367477506399,
          -0.1286691427230835,
          -0.03997074067592621,
          -0.07647029310464859,
          0.0956580638885498,
          -0.06811991333961487,
          -0.2821405827999115,
          0.060562923550605774,
          -0.14905287325382233,
          0.06778744608163834,
          0.010802526026964188,
          -0.06727391481399536,
          -0.1607879400253296,
          -0.14534685015678406,
          -0.13729935884475708,
          -0.005241706036031246,
          0.04635106027126312,
          -0.008465969003736973,
          -0.29128456115722656,
          -0.045830026268959045,
          -0.1172095537185669,
          -0.028039926663041115,
          0.04648007079958916,
          0.020156415179371834,
          -0.014710699208080769,
          -0.11832407861948013,
          0.18167276680469513,
          0.04685597121715546,
          0.017947884276509285,
          0.07657330483198166,
          -0.09281188994646072,
          -0.011444785632193089,
          -0.04424503073096275,
          -0.085064597427845,
          -0.27416226267814636,
          -0.11000953614711761,
          -0.09513511508703232,
          0.09183965623378754,
          0.15104398131370544,
          -0.2145964354276657,
          0.18329057097434998,
          -0.0703371986746788,
          -0.17330706119537354,
          0.05345787853002548,
          -0.010268203914165497,
          -0.010719425044953823,
          0.06755037605762482,
          0.06048446521162987,
          0.09364400058984756,
          -0.07673447579145432,
          0.1520131528377533,
          -0.10582063347101212,
          0.13423137366771698,
          0.007069557439535856,
          0.05943810194730759,
          -0.15133944153785706,
          -0.15495863556861877,
          0.01747215911746025,
          -0.03032321110367775,
          0.06676209717988968,
          0.21286587417125702,
          0.129960298538208,
          0.09427545964717865,
          0.09581954032182693,
          -0.032388750463724136,
          0.18167385458946228,
          -0.024056648835539818,
          -0.08209624141454697,
          -0.06989332288503647,
          -0.030861401930451393,
          0.06901084631681442,
          -0.129713237285614,
          0.1249149963259697,
          -0.038489870727062225,
          -0.04506169632077217,
          -0.14958645403385162,
          0.011816009879112244,
          0.0679289847612381,
          -0.0411754734814167,
          0.1036488339304924,
          -0.3836120069026947,
          0.3314818739891052,
          -0.04682666063308716,
          0.15586023032665253,
          0.24250242114067078,
          0.08825378119945526,
          0.10988637059926987,
          0.10188108682632446,
          0.36663055419921875,
          0.10735759139060974,
          0.0008390593575313687,
          0.24214152991771698,
          0.3330618143081665,
          -0.1648537963628769,
          -0.19194944202899933,
          -0.35138049721717834,
          0.006049808580428362,
          0.08415047079324722,
          0.0723123699426651,
          -0.21323218941688538,
          -0.09218887984752655,
          0.23138143122196198,
          -0.18508924543857574,
          -0.19586877524852753,
          0.18742355704307556,
          0.07266499102115631,
          -0.1542331576347351,
          -0.19635353982448578,
          0.18742221593856812,
          0.04685451090335846,
          -0.12204377353191376,
          0.026989301666617393,
          0.09345493465662003,
          0.03704474866390228,
          0.27909934520721436,
          -0.25036343932151794,
          -0.2727372646331787,
          0.2774849832057953,
          -0.12836593389511108,
          0.16983962059020996,
          -0.028365889564156532,
          0.222075417637825,
          -0.1663966029882431,
          -0.014730406925082207,
          0.0018835001392289996,
          -0.12937571108341217,
          0.1490543782711029,
          -0.20326654613018036,
          0.10166718065738678,
          0.14677442610263824,
          -0.022609753534197807,
          0.06515844166278839,
          0.07555309683084488,
          0.10694871097803116,
          0.06200912222266197,
          -0.11367619037628174,
          0.03995608910918236,
          0.19659078121185303,
          0.1544823944568634,
          0.0954243540763855,
          -0.03273184224963188,
          -0.15833604335784912,
          0.05302491784095764,
          -0.019367579370737076,
          0.19436979293823242,
          0.21906015276908875,
          -0.0875253677368164,
          -0.02380080334842205,
          -0.18892057240009308,
          0.03645172715187073,
          -0.29096871614456177,
          0.12275508791208267,
          -0.20747710764408112,
          0.011820249259471893,
          -0.10865328460931778,
          0.11604370921850204,
          -0.01403359416872263,
          0.13679851591587067,
          -0.03930174931883812,
          -0.3457082509994507,
          0.21557506918907166,
          -0.08825555443763733,
          -0.13873697817325592,
          -0.03182592988014221,
          -0.13773828744888306,
          0.0497969314455986,
          -0.11163093894720078,
          0.15143929421901703,
          0.2581180930137634,
          0.25025129318237305,
          -0.005074859131127596,
          0.09876617044210434,
          0.04165079444646835,
          0.20589929819107056,
          -0.10342992842197418,
          0.031384360045194626,
          0.01342376321554184,
          0.04842256382107735,
          -0.06075756996870041,
          0.029943134635686874,
          -0.24054878950119019,
          0.07847543060779572,
          -0.05130532383918762,
          -0.02627207338809967,
          0.05939893051981926,
          0.07482627779245377,
          0.05430006608366966,
          -0.07814077287912369,
          -0.1456720530986786,
          0.11610357463359833,
          -0.08127249777317047,
          -0.11308366060256958,
          -0.0042690085247159,
          -0.04270271211862564,
          -0.058264292776584625,
          0.06497684866189957,
          0.04013344645500183,
          -0.07192035019397736,
          -0.19158104062080383,
          -0.038178663700819016,
          -0.029367387294769287,
          0.10012079775333405,
          0.15140751004219055,
          -0.029487859457731247,
          -0.12599752843379974,
          -0.20713861286640167,
          -0.13563939929008484,
          0.02743624523282051,
          -0.09236834943294525,
          0.025450868532061577,
          0.0013759360881522298,
          0.012022953480482101,
          0.10084936022758484,
          -0.040877122431993484,
          -0.0019791454542428255,
          0.02868509851396084,
          -0.009165549650788307,
          -0.07106461375951767,
          0.1259361356496811,
          0.021331144496798515,
          0.02072356455028057,
          0.049522288143634796,
          -0.05785835534334183,
          -0.06587054580450058,
          -0.030275970697402954,
          0.11727199703454971,
          -0.1359570175409317,
          0.07326718419790268,
          0.08610443025827408,
          -0.15741237998008728,
          -0.057805486023426056,
          -0.026677101850509644,
          0.015837427228689194,
          0.13105224072933197,
          0.20220154523849487,
          -0.13616542518138885,
          -0.01909625716507435,
          0.0022624065168201923,
          0.026063237339258194,
          -0.10635765641927719,
          0.0662941262125969,
          0.2586992084980011,
          -0.23903094232082367,
          0.1523812860250473,
          -0.18669350445270538,
          -0.12079917639493942,
          -0.09318717569112778,
          0.18424366414546967,
          -0.05285750702023506,
          0.14622609317302704,
          0.0854339599609375,
          -0.03253639489412308,
          -0.0037814269308000803,
          0.1318773776292801,
          -0.10697244852781296,
          0.03428775444626808,
          0.19025416672229767,
          0.09399137645959854,
          0.19909052550792694,
          -0.04130988568067551,
          -0.03453042358160019,
          0.0018310643499717116,
          -0.12097571790218353,
          0.3407730162143707,
          0.21685346961021423,
          0.17205549776554108,
          -0.188338041305542,
          -0.03829760104417801,
          -0.1348605751991272,
          -0.3474123775959015,
          0.25219395756721497,
          -0.011467508971691132
        ]
      },
      {
        "path": "wpe.weight",
        "shape": [
          16,
          16
        ],
        "data": [
          0.11773476749658585,
          0.09921428561210632,
          0.14090421795845032,
          -0.012781254015862942,
          0.000682867772411555,
          0.21988269686698914,
          0.07780415564775467,
          0.42511823773384094,
          0.07390497624874115,
          0.19824586808681488,
          -0.09257867187261581,
          -0.0736323669552803,
          -0.1265120655298233,
          -0.39483213424682617,
          0.1322120726108551,
          -0.003266646759584546,
          -0.043229129165410995,
          -0.03406891971826553,
          -0.01232642401009798,
          0.06859846413135529,
          0.028021875768899918,
          -0.07252374291419983,
          0.03930387273430824,
          0.01838664710521698,
          -0.16574913263320923,
          -0.3426850140094757,
          -0.03810982033610344,
          0.013507643714547157,
          0.155021533370018,
          0.24314720928668976,
          -0.0944349616765976,
          -0.030385509133338928,
          0.2072855830192566,
          0.015956351533532143,
          -0.13895340263843536,
          0.034924209117889404,
          -0.10293547064065933,
          0.11965981870889664,
          -0.06248749420046806,
          -0.08051503449678421,
          0.1270267814397812,
          0.08052195608615875,
          0.06467198580503464,
          0.03574291244149208,
          -0.008748674765229225,
          0.3201430141925812,
          0.018431298434734344,
          -0.09994056820869446,
          -0.08338183909654617,
          -0.08720345795154572,
          -0.027106544002890587,
          -0.09597169607877731,
          -0.1021125316619873,
          0.10268905758857727,
          -0.08713625371456146,
          -0.14601436257362366,
          0.009960663504898548,
          -0.09929131716489792,
          -0.16514526307582855,
          0.1057053953409195,
          0.0877719298005104,
          -0.1775369495153427,
          -0.14449357986450195,
          -0.05402783304452896,
          -0.045625098049640656,
          -0.052455004304647446,
          -0.006153685040771961,
          0.1215277686715126,
          -0.11959229409694672,
          -0.1851821392774582,
          -0.09286080300807953,
          -0.19168433547019958,
          0.07108256965875626,
          0.07058434933423996,
          -0.11608937382698059,
          -0.05378805845975876,
          0.04356225207448006,
          0.10287470370531082,
          0.015265594236552715,
          0.2434426099061966,
          -0.11256040632724762,
          0.008308393880724907,
          0.20792780816555023,
          0.06245402991771698,
          -0.05647909268736839,
          -0.05761077627539635,
          -0.13478034734725952,
          -0.07108213007450104,
          -0.006850902456790209,
          -0.07618461549282074,
          0.05992946773767471,
          0.03750200569629669,
          0.008241476491093636,
          0.024854261428117752,
          -0.2167055904865265,
          0.05821412801742554,
          -0.041775189340114594,
          -0.06659286469221115,
          -0.023380693048238754,
          0.06260965764522552,
          0.020294537767767906,
          -0.023134326562285423,
          -0.06508668512105942,
          -0.005046752281486988,
          -0.025242676958441734,
          0.04291956499218941,
          0.0545436255633831,
          -0.0018411270575597882,
          0.1133672446012497,
          0.10769867897033691,
          -0.053241610527038574,
          0.08210169523954391,
          -0.17226029932498932,
          -0.09622027724981308,
          0.13286516070365906,
          -0.06503895670175552,
          0.027139538899064064,
          -0.004300566855818033,
          -0.08821820467710495,
          -0.011667749844491482,
          0.03408237174153328,
          0.0184908639639616,
          0.019310643896460533,
          0.0024877393152564764,
          -0.09235642850399017,
          0.07844505459070206,
          -0.1982448399066925,
          0.14708757400512695,
          -0.24059410393238068,
          -0.049206264317035675,
          0.19353480637073517,
          0.013390135951340199,
          0.06796135008335114,
          -0.095196932554245,
          -0.0949752926826477,
          -0.07844474166631699,
          -0.14922268688678741,
          0.13603389263153076,
          0.0940747782588005,
          0.040989432483911514,
          -0.15985159575939178,
          0.1257009506225586,
          -0.19051092863082886,
          -0.04174475371837616,
          -0.16069671511650085,
          -0.001900821807794273,
          0.06680978089570999,
          0.04748338460922241,
          0.056102413684129715,
          -0.1517668217420578,
          -0.0655919760465622,
          0.041784971952438354,
          -0.05292583629488945,
          0.11876022815704346,
          -0.034540656954050064,
          0.029355620965361595,
          -0.028360411524772644,
          -0.012118312530219555,
          -0.056462667882442474,
          0.13896217942237854,
          -0.061367642134428024,
          -0.0048685804940760136,
          -0.010865041054785252,
          0.04380398988723755,
          0.04590888321399689,
          -0.11165282130241394,
          0.06117217615246773,
          -0.0651044100522995,
          -0.039251066744327545,
          0.09373351186513901,
          0.007134770508855581,
          0.09778483211994171,
          -0.07331724464893341,
          -0.16527780890464783,
          0.041107479482889175,
          -0.01809169352054596,
          -0.11402411013841629,
          0.03147245571017265,
          0.013805119320750237,
          0.19357764720916748,
          0.011254044249653816,
          0.009769110940396786,
          0.07574310153722763,
          0.041960544884204865,
          0.015721969306468964,
          -0.018016071990132332,
          -0.045058004558086395,
          -0.06966476887464523,
          0.009644463658332825,
          -0.18012961745262146,
          -0.001634070766158402,
          -0.01399124413728714,
          0.09535495936870575,
          -0.060690511018037796,
          0.09242933988571167,
          0.024625934660434723,
          0.03022492490708828,
          0.020113160833716393,
          0.0013255099765956402,
          -0.11817296594381332,
          -0.036406129598617554,
          -0.017594242468476295,
          -0.037567611783742905,
          -0.10140343755483627,
          0.01601223461329937,
          0.1059425100684166,
          0.06182590499520302,
          0.03330947458744049,
          -0.08777736872434616,
          0.01274164579808712,
          0.018181154504418373,
          0.14386434853076935,
          0.01786184310913086,
          -0.09806972742080688,
          0.013746311888098717,
          -0.05775263160467148,
          -0.06826426088809967,
          0.015488820150494576,
          0.07337871193885803,
          -0.07373395562171936,
          0.0599193312227726,
          -0.11964726448059082,
          0.09508232772350311,
          0.050784964114427567,
          0.061065129935741425,
          0.08134350180625916,
          -0.03085913322865963,
          0.09585873037576675,
          0.06424573808908463,
          -0.09359864890575409,
          -0.027606304734945297,
          -0.031116575002670288,
          0.06256022304296494,
          0.07188699394464493,
          -0.07149668782949448,
          -0.051787082105875015,
          0.01623576693236828,
          0.06197567656636238,
          -0.04738810285925865,
          0.06323546916246414,
          -0.017454039305448532,
          -0.006672736722975969,
          0.1497986912727356,
          0.1329210251569748,
          0.009733864106237888,
          -0.006186057813465595,
          -0.02657364495098591,
          0.02167566306889057,
          -0.03606541082262993,
          0.02542758174240589,
          -0.017556073144078255,
          0.047081492841243744,
          -0.0678534060716629,
          0.0627746433019638,
          -0.05633729696273804,
          0.025788046419620514
        ]
      },
      {
        "path": "blocks[0].attn.wq.weight",
        "shape": [
          16,
          16
        ],
        "data": [
          0.12387524545192719,
          -0.1184421107172966,
          0.31673464179039,
          -0.01651143468916416,
          0.02340826578438282,
          0.023313404992222786,
          -0.07675735652446747,
          -0.013999653980135918,
          0.25303515791893005,
          0.19118721783161163,
          -0.012570223771035671,
          0.03788222745060921,
          0.08275379985570908,
          -0.034793101251125336,
          0.016858313232660294,
          -0.08525628596544266,
          -0.061260949820280075,
          -0.06897713243961334,
          0.03211598098278046,
          -0.12870943546295166,
          0.0878034308552742,
          0.28138428926467896,
          -0.11143986135721207,
          0.12285207957029343,
          0.06836900115013123,
          0.07764308154582977,
          0.05429123714566231,
          0.06615132838487625,
          0.09533552825450897,
          -0.2972663938999176,
          -0.1260354220867157,
          0.23843345046043396,
          0.16960665583610535,
          0.20015832781791687,
          -0.17586646974086761,
          -0.07623136043548584,
          0.2164442539215088,
          0.04143061861395836,
          -0.039768800139427185,
          0.02964063361287117,
          0.04198784381151199,
          -0.26429498195648193,
          -0.03217741474509239,
          0.004648362752050161,
          -0.23253674805164337,
          0.020723823457956314,
          0.012023959308862686,
          -0.18887247145175934,
          -0.24624137580394745,
          -0.1025092676281929,
          -0.0684434324502945,
          -0.03145340457558632,
          0.1881788671016693,
          0.002344296080991626,
          -0.22037887573242188,
          -0.0028767266776412725,
          0.27889519929885864,
          -0.3496992290019989,
          -0.04144769534468651,
          -0.0011912848567590117,
          -0.05791928246617317,
          0.02966899611055851,
          0.17188705503940582,
          0.03670301288366318,
          0.10389722138643265,
          -0.015180717222392559,
          -0.03194930776953697,
          -0.10822894424200058,
          -0.18724049627780914,
          -0.1386885792016983,
          -0.13552208244800568,
          0.009156471118330956,
          -0.15168361365795135,
          -0.008501500822603703,
          -0.23301909863948822,
          0.20273971557617188,
          0.07669028639793396,
          -0.03631975129246712,
          0.18500381708145142,
          -0.023062927648425102,
          0.39612823724746704,
          0.3549262285232544,
          -0.15137295424938202,
          -0.15841683745384216,
          0.08394144475460052,
          0.02084209769964218,
          0.008147576823830605,
          -0.08798765391111374,
          -0.010844726115465164,
          0.07977370172739029,
          0.021154409274458885,
          -0.1036282479763031,
          0.04011920094490051,
          -0.07741445302963257,
          0.11426138877868652,
          0.07931773364543915,
          0.08426638692617416,
          0.038866471499204636,
          0.0993645191192627,
          -0.0560554675757885,
          -0.11521971970796585,
          0.13541662693023682,
          0.02437581494450569,
          -0.34509432315826416,
          -0.15821948647499084,
          0.05121539533138275,
          -0.1558247208595276,
          -0.07998132705688477,
          0.10924302786588669,
          -0.04973478987812996,
          0.05730845779180527,
          0.09830612689256668,
          -0.15011271834373474,
          0.07811987400054932,
          -0.3437165915966034,
          0.34950488805770874,
          -0.14919359982013702,
          0.051247451454401016,
          -0.11327742040157318,
          -0.004206631798297167,
          0.08327952772378922,
          -0.11649656295776367,
          0.09834777563810349,
          0.08104658871889114,
          0.12404981255531311,
          0.1198141872882843,
          -0.12276416271924973,
          -0.17457936704158783,
          -0.01619807444512844,
          -0.09274730831384659,
          0.13511376082897186,
          -0.21255891025066376,
          0.0765964463353157,
          -0.2510378956794739,
          -0.13836003839969635,
          -0.12901464104652405,
          0.10153483599424362,
          -0.00037361629074439406,
          0.12124880403280258,
          -0.02052599936723709,
          0.10754603147506714,
          0.2517411410808563,
          0.13519440591335297,
          0.13128861784934998,
          0.060423437505960464,
          0.10320113599300385,
          -0.04335780814290047,
          0.04683751240372658,
          0.03344219550490379,
          -0.11093173176050186,
          -0.20889876782894135,
          -0.20934949815273285,
          0.01644134894013405,
          0.12868811190128326,
          0.036590661853551865,
          -0.04404865577816963,
          0.31669482588768005,
          0.012432172894477844,
          0.056763600558042526,
          0.19182740151882172,
          -0.24260127544403076,
          -0.3102134168148041,
          0.05201352760195732,
          0.3025801479816437,
          0.21642640233039856,
          0.1773938685655594,
          -0.16647487878799438,
          0.3872372806072235,
          0.16479530930519104,
          0.09667237848043442,
          0.11714421212673187,
          0.006051415111869574,
          0.19754698872566223,
          -0.08400949090719223,
          -0.14853334426879883,
          0.06396342813968658,
          0.16770535707473755,
          -0.23468424379825592,
          0.00749242352321744,
          -0.13087964057922363,
          0.03198906406760216,
          0.11034537851810455,
          0.13721035420894623,
          0.014993059448897839,
          -0.21013355255126953,
          0.021618172526359558,
          0.0370962992310524,
          0.20127300918102264,
          -0.09795095026493073,
          0.1442989557981491,
          -0.2568778991699219,
          -0.07766235619783401,
          -0.1207142323255539,
          0.02412397228181362,
          0.02067330665886402,
          0.05453095957636833,
          0.1474079191684723,
          0.12517181038856506,
          0.03518570214509964,
          -0.17314839363098145,
          0.03924363851547241,
          0.13622935116291046,
          0.09669989347457886,
          -0.12446853518486023,
          -0.029385918751358986,
          0.35379427671432495,
          -0.08545950055122375,
          -0.14542639255523682,
          0.11648283153772354,
          -0.05562290549278259,
          0.11144861578941345,
          -0.12745921313762665,
          0.13129745423793793,
          0.22487226128578186,
          -0.0877063199877739,
          -0.07105296850204468,
          0.3234425187110901,
          0.06883492320775986,
          -0.007075173780322075,
          0.08843155950307846,
          -0.15385541319847107,
          0.03086322732269764,
          -0.01850143074989319,
          0.008636829443275928,
          -0.10828728973865509,
          0.0010966976406052709,
          0.15099740028381348,
          0.03417664393782616,
          0.05139503628015518,
          0.13692989945411682,
          0.025602249428629875,
          0.017109228298068047,
          -0.03910822793841362,
          0.22035399079322815,
          0.07692699879407883,
          -0.03882869333028793,
          -0.1946280300617218,
          0.09641599655151367,
          0.10501652956008911,
          0.19383302330970764,
          0.17996758222579956,
          0.0009012132068164647,
          0.16328008472919464,
          0.031360432505607605,
          -0.2853822112083435,
          0.007037394680082798,
          0.018005840480327606,
          -0.14765389263629913,
          0.01885436847805977,
          0.05956229940056801,
          -0.06397877633571625,
          -0.18960218131542206,
          -0.004985176492482424,
          0.007652305066585541,
          0.0764608234167099,
          0.1135103777050972
        ]
      },
      {
        "path": "blocks[0].attn.wk.weight",
        "shape": [
          16,
          16
        ],
        "data": [
          0.03853296861052513,
          0.0718018114566803,
          -0.2792097330093384,
          -0.047887660562992096,
          -0.01885274611413479,
          0.030615070834755898,
          0.006475063506513834,
          0.03748075291514397,
          -0.16556747257709503,
          0.05439036712050438,
          -0.12007703632116318,
          0.03789874538779259,
          0.00538107194006443,
          0.09365112334489822,
          0.0009524416527710855,
          -0.0893401950597763,
          0.40650561451911926,
          0.1477878987789154,
          -0.16254118084907532,
          -0.34022238850593567,
          -0.12936027348041534,
          -0.21044853329658508,
          0.0827527791261673,
          0.14097347855567932,
          -0.14044751226902008,
          -0.2314823418855667,
          -0.1471170037984848,
          0.025977207347750664,
          0.007054036483168602,
          0.009932641871273518,
          0.027662869542837143,
          0.003301643766462803,
          -0.0037408373318612576,
          0.17822742462158203,
          -0.13071578741073608,
          0.17512790858745575,
          0.025920528918504715,
          -0.17195092141628265,
          0.12096869200468063,
          -0.05672886222600937,
          0.14557375013828278,
          -0.04829036816954613,
          0.03733014687895775,
          -0.12614600360393524,
          0.027796529233455658,
          -0.08608430624008179,
          0.1177656501531601,
          0.17770226299762726,
          0.036433130502700806,
          -0.01361900381743908,
          0.09754722565412521,
          0.04361026734113693,
          -0.028266923502087593,
          -0.008052371442317963,
          0.0815783217549324,
          0.045144371688365936,
          -0.23054878413677216,
          -0.11069761961698532,
          -0.08506503701210022,
          0.37060803174972534,
          -0.1380440890789032,
          0.027485398575663567,
          -0.1866127848625183,
          -0.2901952564716339,
          -0.11571911722421646,
          0.08981137722730637,
          -0.16107690334320068,
          0.12042807787656784,
          -0.13742989301681519,
          -0.2952248156070709,
          0.00038663888699375093,
          -0.3352262079715729,
          -0.15845325589179993,
          0.019944194704294205,
          0.007454668637365103,
          -0.06178087741136551,
          0.04823853448033333,
          -0.11475960165262222,
          0.029723362997174263,
          -0.09462913125753403,
          -0.14839936792850494,
          -0.25203993916511536,
          0.013028726913034916,
          0.10834735631942749,
          0.04469643160700798,
          -0.07256235182285309,
          0.057079482823610306,
          -0.09741427004337311,
          -0.04321868717670441,
          -0.2288271188735962,
          0.10240646451711655,
          0.07270126789808273,
          -0.10685154795646667,
          0.1363462507724762,
          -0.16395029425621033,
          -0.011393795721232891,
          -0.022225411608815193,
          0.11463333666324615,
          0.0785687118768692,
          -0.07199516892433167,
          -0.021892664954066277,
          0.26086559891700745,
          -0.27234140038490295,
          -0.05625835433602333,
          0.10974625498056412,
          0.06136314198374748,
          0.049676455557346344,
          0.06255704909563065,
          -0.2834138870239258,
          0.17799165844917297,
          0.014738601632416248,
          0.0018697533523663878,
          0.11726061254739761,
          0.07218936085700989,
          0.008803029544651508,
          -0.028684372082352638,
          0.09704410284757614,
          -0.04348709061741829,
          -0.11297167092561722,
          -0.2111724466085434,
          -0.0929642841219902,
          0.032131750136613846,
          0.012546263635158539,
          -0.0075734807178378105,
          -0.15368840098381042,
          -0.0034599124919623137,
          0.14562106132507324,
          0.06226235255599022,
          -0.14149931073188782,
          -0.07274571061134338,
          -0.14149236679077148,
          -0.051745153963565826,
          -0.0225723497569561,
          -0.011052100919187069,
          -0.0624789297580719,
          -0.03378339111804962,
          -0.13394670188426971,
          -0.0989149957895279,
          0.12308846414089203,
          -0.024723393842577934,
          0.0725506991147995,
          -0.0999116599559784,
          -0.032835084944963455,
          0.15758715569972992,
          -0.09004043787717819,
          -0.05210820958018303,
          -0.1318075954914093,
          0.14612683653831482,
          0.07475496828556061,
          -0.048061978071928024,
          -0.07203402370214462,
          0.018193913623690605,
          -0.13932518661022186,
          -0.13633964955806732,
          -0.16072070598602295,
          0.03155740723013878,
          0.1858043074607849,
          -0.16259144246578217,
          -0.06148536503314972,
          0.07313966006040573,
          0.24350802600383759,
          0.227590411901474,
          0.043845608830451965,
          -0.07889498025178909,
          -0.29961755871772766,
          -0.11742633581161499,
          0.11824481189250946,
          -0.13725531101226807,
          -0.1522025763988495,
          0.2072761207818985,
          -0.021262329071760178,
          -0.23636868596076965,
          -0.07325910031795502,
          0.03414122760295868,
          0.030872775241732597,
          -0.19115470349788666,
          -0.20765765011310577,
          -0.0718858540058136,
          0.10998053103685379,
          0.1930696815252304,
          0.3456741273403168,
          0.3313141465187073,
          -0.1381780207157135,
          0.33181703090667725,
          0.1418170928955078,
          0.040120672434568405,
          0.26628732681274414,
          -0.0377984419465065,
          0.2787300944328308,
          0.12111268192529678,
          -0.07091635465621948,
          0.17980505526065826,
          -0.06390714645385742,
          -0.4182374179363251,
          0.2399207502603531,
          -0.09251904487609863,
          -0.04771191254258156,
          0.27576977014541626,
          -0.20851537585258484,
          -0.2674804925918579,
          0.0863167941570282,
          0.18112953007221222,
          -0.03313592076301575,
          0.08456342667341232,
          -0.05096239596605301,
          -0.3562176823616028,
          -0.2409716099500656,
          -0.0529138445854187,
          0.2262033224105835,
          0.15254996716976166,
          -0.09305999428033829,
          -0.20469820499420166,
          0.06311570852994919,
          -0.015454350039362907,
          0.13401290774345398,
          0.059905294328927994,
          -0.2532632350921631,
          0.13782191276550293,
          -0.07149533182382584,
          -0.07879792153835297,
          0.07645753771066666,
          0.03475503623485565,
          -0.03599289432168007,
          0.034584078937768936,
          0.042794015258550644,
          0.10520874708890915,
          -0.12945011258125305,
          0.07232922315597534,
          0.3313407897949219,
          -0.0871129259467125,
          -0.08133377134799957,
          0.20196124911308289,
          0.030395710840821266,
          0.17332908511161804,
          0.030811365693807602,
          -0.05223001912236214,
          0.15028470754623413,
          0.04531623795628548,
          -0.02381092496216297,
          0.09731657803058624,
          -0.06794325262308121,
          0.11788732558488846,
          -0.19356057047843933,
          0.07428400218486786,
          -0.19148705899715424,
          -0.1824565827846527,
          -0.26086094975471497,
          0.14323385059833527,
          -0.13228492438793182,
          0.2334935963153839,
          0.04892544820904732,
          -0.02543802745640278,
          0.327646404504776,
          -0.22788012027740479,
          0.04554217681288719,
          0.2837029695510864
        ]
      },
      {
        "path": "blocks[0].attn.wv.weight",
        "shape": [
          16,
          16
        ],
        "data": [
          0.04912800341844559,
          -0.08462991565465927,
          -0.09129327535629272,
          -0.045392073690891266,
          0.04054519161581993,
          -0.02572159841656685,
          -0.16396869719028473,
          -0.028458211570978165,
          -0.033868249505758286,
          -0.02489120326936245,
          -0.15144667029380798,
          0.12825244665145874,
          -0.042738161981105804,
          0.01542191207408905,
          -0.10787319391965866,
          -0.11189570277929306,
          -0.12531481683254242,
          0.07613182812929153,
          -0.07302490621805191,
          0.0946679338812828,
          0.08654209226369858,
          0.023764098063111305,
          -0.11809825897216797,
          -0.002547849901020527,
          -0.088036447763443,
          0.08950052410364151,
          0.16991034150123596,
          -0.10293056815862656,
          -0.03154713660478592,
          -0.1302601844072342,
          -0.13768257200717926,
          0.014994148164987564,
          0.11914756894111633,
          0.04762137308716774,
          0.0943119078874588,
          0.01166998315602541,
          0.08056675642728806,
          -0.05890906602144241,
          0.07004743814468384,
          0.12547171115875244,
          -0.13290217518806458,
          0.026805195957422256,
          0.002103604609146714,
          0.10821141302585602,
          -0.0643342137336731,
          -0.020046869292855263,
          0.02730981633067131,
          0.14862503111362457,
          -0.026483822613954544,
          -0.06777364760637283,
          0.10930117219686508,
          -0.013809053227305412,
          0.001074133557267487,
          -0.05719877779483795,
          -0.1675955355167389,
          -0.01812228374183178,
          0.12836575508117676,
          -0.09562867134809494,
          -0.06279444694519043,
          0.058723922818899155,
          -0.0548919253051281,
          -0.07548361271619797,
          -0.041439637541770935,
          -0.021180620416998863,
          0.04227161034941673,
          0.009916978888213634,
          -0.002236116910353303,
          0.08747682720422745,
          -0.18707454204559326,
          0.05799160897731781,
          -0.08021914958953857,
          -0.0636381208896637,
          0.1824728101491928,
          0.24518682062625885,
          -0.24828726053237915,
          -0.10980327427387238,
          -0.013699258677661419,
          0.04081093892455101,
          0.041853390634059906,
          -0.03065096028149128,
          0.22594808042049408,
          0.03186222165822983,
          0.018014369532465935,
          -0.05489496514201164,
          0.09268368035554886,
          0.12134549766778946,
          0.033522363752126694,
          0.08743564039468765,
          0.007984290830790997,
          -0.00683229323476553,
          0.008404375053942204,
          0.15191692113876343,
          -0.09176624566316605,
          0.14524079859256744,
          -0.21477621793746948,
          -0.01742975413799286,
          -0.15292729437351227,
          0.07630731165409088,
          -0.19004303216934204,
          0.0054107545875012875,
          -0.006796183064579964,
          0.01430716086179018,
          0.13475079834461212,
          0.06339973211288452,
          0.2737659811973572,
          0.3807747960090637,
          0.10687275230884552,
          -0.12757191061973572,
          -0.0844452977180481,
          -0.010290474630892277,
          -0.0866534635424614,
          -0.06713242828845978,
          0.08907480537891388,
          0.027184991165995598,
          0.08856232464313507,
          -0.03749075159430504,
          -0.010656987316906452,
          -0.017164625227451324,
          0.019289258867502213,
          0.10085200518369675,
          -0.09892750531435013,
          -0.042801376432180405,
          -0.04765697941184044,
          0.002906454959884286,
          0.07410124689340591,
          0.17382855713367462,
          -0.15442325174808502,
          0.11817971616983414,
          0.26432305574417114,
          -0.03449079394340515,
          0.12369603663682938,
          0.01577330380678177,
          0.009555400349199772,
          -0.05004342272877693,
          0.1350204348564148,
          -0.012601211667060852,
          -0.11042869836091995,
          -0.018399247899651527,
          -0.08741563558578491,
          -0.006395024713128805,
          0.014517294242978096,
          -0.0020956730004400015,
          -0.08065471053123474,
          -0.03295654058456421,
          0.09386646747589111,
          -0.06513220816850662,
          -0.01168883964419365,
          -0.2414347231388092,
          0.10163549333810806,
          -0.10191317647695541,
          -0.08131091296672821,
          -0.03966196998953819,
          -0.034921787679195404,
          -0.010177688673138618,
          -0.03367473930120468,
          -0.058716364204883575,
          -0.0012149603571742773,
          -0.021072136238217354,
          -0.016188060864806175,
          -0.023922206833958626,
          -0.08246692270040512,
          0.026879271492362022,
          -0.16111350059509277,
          0.15340116620063782,
          0.06396502256393433,
          0.03173418343067169,
          0.008233255706727505,
          -0.08795250952243805,
          0.13499854505062103,
          0.12804818153381348,
          -0.025764361023902893,
          -0.046236760914325714,
          -0.012986240908503532,
          -0.03106098808348179,
          -0.1210281029343605,
          0.006982071790844202,
          0.019258299842476845,
          0.024407314136624336,
          -0.09923048317432404,
          0.0018478075508028269,
          0.16163215041160583,
          0.16618135571479797,
          0.0652119517326355,
          0.0769454687833786,
          -0.07625824213027954,
          -0.029128117486834526,
          -0.08995219320058823,
          0.23726586997509003,
          0.05617388337850571,
          0.01736912503838539,
          -0.1982542723417282,
          -0.015271026641130447,
          0.06088907644152641,
          -0.04858019948005676,
          0.014504319056868553,
          -0.14858365058898926,
          -0.03862116113305092,
          -0.009260175749659538,
          0.046992864459753036,
          -0.10099946707487106,
          0.11153271794319153,
          -0.13883353769779205,
          -0.0011567791225388646,
          -0.009223605506122112,
          0.02251138910651207,
          -0.1340394765138626,
          0.18419595062732697,
          0.02630327083170414,
          0.08368415385484695,
          0.05578262358903885,
          0.06233994662761688,
          -0.05517257750034332,
          0.1364116668701172,
          0.04198184236884117,
          0.04663404822349548,
          -0.10799821466207504,
          -0.13318464159965515,
          -0.12730520963668823,
          -0.013072466477751732,
          0.055280424654483795,
          0.12507577240467072,
          0.03943712264299393,
          -0.0025427008513361216,
          -0.057880353182554245,
          -0.12827591598033905,
          0.05436944589018822,
          -0.17781725525856018,
          -0.14146748185157776,
          -0.11070616543292999,
          -0.10156076401472092,
          0.23786544799804688,
          -0.018693117424845695,
          -0.16078153252601624,
          0.08793717622756958,
          0.03580779954791069,
          0.025275398045778275,
          0.1126934066414833,
          0.013416017405688763,
          -0.1627451479434967,
          -0.0749928280711174,
          0.018781529739499092,
          -0.018331408500671387,
          0.011653168126940727,
          0.037897512316703796,
          0.18392115831375122,
          0.03423691168427467,
          0.1405247300863266,
          -0.17347881197929382,
          0.029484126716852188,
          -0.08377093076705933,
          0.2090299278497696,
          -0.02688601426780224,
          -0.024523615837097168,
          -0.026790892705321312,
          0.11964370310306549,
          -0.16544994711875916
        ]
      },
      {
        "path": "blocks[0].attn.wo.weight",
        "shape": [
          16,
          16
        ],
        "data": [
          -0.033587466925382614,
          0.06941844522953033,
          0.04192386940121651,
          -0.020513951778411865,
          0.10282477736473083,
          -0.006560130510479212,
          -0.013567178510129452,
          -0.004954170435667038,
          -0.2520265281200409,
          0.182294562458992,
          -0.050196029245853424,
          -0.05312379449605942,
          -0.09000258892774582,
          -0.1272917538881302,
          0.011164304800331593,
          -0.10558900237083435,
          0.013679354451596737,
          -0.02239110879600048,
          0.03331492096185684,
          -0.005438709165900946,
          0.025167396292090416,
          -0.030275627970695496,
          0.017778264358639717,
          -0.06851580739021301,
          0.09313515573740005,
          0.005137449596077204,
          0.015222379937767982,
          -0.00659402459859848,
          0.055143654346466064,
          -0.052192382514476776,
          0.08624269813299179,
          -0.04484705626964569,
          -0.06310605257749557,
          0.006096359807997942,
          0.0868266224861145,
          -0.0029073588084429502,
          0.017798636108636856,
          -0.06876907497644424,
          -0.15559972822666168,
          0.0044378964230418205,
          0.027876242995262146,
          0.05567239969968796,
          0.07849470525979996,
          -0.0657595545053482,
          -0.030795319005846977,
          -0.08034900575876236,
          -0.07514064013957977,
          -0.03415640816092491,
          -0.02793300524353981,
          0.049845289438962936,
          -0.004726315848529339,
          -0.10587719827890396,
          0.08573853224515915,
          0.08109022676944733,
          0.0754319578409195,
          0.06601882725954056,
          0.16132351756095886,
          -0.013707784004509449,
          -0.007388932630419731,
          -0.062693290412426,
          -0.019706644117832184,
          -0.06358417868614197,
          0.05576835200190544,
          0.061085741966962814,
          -0.12238305807113647,
          0.019762542098760605,
          0.02817791886627674,
          -0.17108578979969025,
          0.19733259081840515,
          0.05255600064992905,
          0.08410579711198807,
          -0.08503024280071259,
          -0.016033824533224106,
          0.009337474592030048,
          0.06792484223842621,
          0.0389275848865509,
          -0.19213800132274628,
          -0.19491511583328247,
          -0.027040861546993256,
          -0.13686634600162506,
          -0.1269501894712448,
          0.04742974787950516,
          0.033713020384311676,
          -0.039912763983011246,
          -0.0646357461810112,
          -0.007919477298855782,
          -0.02666090428829193,
          -0.07191549241542816,
          -0.044576458632946014,
          0.03724505007266998,
          0.09590336680412292,
          0.12647627294063568,
          0.034738875925540924,
          0.06005627289414406,
          0.06619128584861755,
          -0.0036182436160743237,
          0.13093523681163788,
          -0.1074017584323883,
          -0.001154155470430851,
          0.11412961781024933,
          0.1657210886478424,
          -0.015012996271252632,
          -0.0609905906021595,
          -0.005919802468270063,
          0.025518430396914482,
          -0.009258726611733437,
          0.1353144645690918,
          0.10905545949935913,
          0.1084228903055191,
          -0.21853803098201752,
          0.1071816235780716,
          0.16391083598136902,
          0.04305809736251831,
          -0.03388606756925583,
          -0.009904911741614342,
          -0.06268885731697083,
          0.033914171159267426,
          0.08585252612829208,
          -0.05900783836841583,
          -0.07154286652803421,
          -0.10582713782787323,
          -0.012220046482980251,
          -0.16800259053707123,
          -0.08139465749263763,
          0.1808602511882782,
          -0.04883753880858421,
          0.19490714371204376,
          -0.0012809188337996602,
          -0.14515723288059235,
          0.10776660591363907,
          0.024709466844797134,
          0.019525542855262756,
          -0.22473081946372986,
          0.13873711228370667,
          0.015274074859917164,
          0.1597122848033905,
          0.15989631414413452,
          0.026975728571414948,
          0.2352677434682846,
          0.0433693453669548,
          0.01825403980910778,
          0.12164995819330215,
          0.022127794101834297,
          0.029115397483110428,
          0.09747142344713211,
          0.1622336208820343,
          0.11228074133396149,
          0.11518465727567673,
          -0.037625376135110855,
          0.11503179371356964,
          0.18321214616298676,
          0.12549230456352234,
          0.1970103234052658,
          -0.04656681790947914,
          -0.026184501126408577,
          0.01950768381357193,
          0.12695790827274323,
          -0.04480105638504028,
          0.14035135507583618,
          -0.055434759706258774,
          -0.099721759557724,
          0.004978629294782877,
          0.09516524523496628,
          0.08622196316719055,
          0.1280011236667633,
          0.016916299238801003,
          -0.08732019364833832,
          0.016136717051267624,
          -0.002294135047122836,
          -0.25471508502960205,
          0.14282068610191345,
          0.09182291477918625,
          -0.002510308986529708,
          -0.06409287452697754,
          -0.027190817520022392,
          0.08070144057273865,
          0.025539705529808998,
          -0.12904776632785797,
          -0.22687295079231262,
          -0.21694998443126678,
          0.006941080093383789,
          0.08136704564094543,
          -0.1320679634809494,
          -0.027196381241083145,
          -0.12616285681724548,
          0.08645186573266983,
          -0.09737120568752289,
          0.08891239017248154,
          -0.0517161525785923,
          -0.043453607708215714,
          0.060163456946611404,
          0.08756411075592041,
          -0.00006347290036501363,
          -0.027573654428124428,
          -0.10290908813476562,
          0.07152914255857468,
          -0.0034493268467485905,
          -0.0627875030040741,
          0.049826450645923615,
          0.024739114567637444,
          -0.12389309704303741,
          -0.006517309695482254,
          -0.04540513828396797,
          0.006228952668607235,
          -0.0002911794581450522,
          -0.02644394338130951,
          -0.021723700687289238,
          0.009639138355851173,
          0.02317519672214985,
          -0.007483346853405237,
          -0.03044111840426922,
          -0.023309996351599693,
          0.063243567943573,
          0.03277083486318588,
          0.046135276556015015,
          -0.1716771274805069,
          0.06640779227018356,
          0.1386200189590454,
          -0.19315102696418762,
          -0.026656143367290497,
          -0.022155260667204857,
          0.019735751673579216,
          0.1071377843618393,
          0.03079480305314064,
          -0.14759308099746704,
          -0.24118037521839142,
          -0.061601124703884125,
          0.10101185739040375,
          -0.02842290885746479,
          -0.15617695450782776,
          0.024319224059581757,
          0.11345498263835907,
          0.05903703346848488,
          0.0602579340338707,
          0.26222437620162964,
          -0.08701800554990768,
          -0.11761839687824249,
          -0.01020003017038107,
          -0.21422179043293,
          -0.014362591318786144,
          0.014293184503912926,
          -0.004677779972553253,
          0.053294915705919266,
          0.04609324038028717,
          0.04696518927812576,
          -0.12312778830528259,
          -0.06422527879476547,
          -0.057231605052948,
          0.007482989691197872,
          -0.041433271020650864,
          -0.0010247003519907594,
          -0.18699058890342712,
          0.08864441514015198,
          -0.11840387433767319,
          0.1034792810678482,
          -0.05651715770363808
        ]
      },
      {
        "path": "blocks[0].mlp.fc1.weight",
        "shape": [
          16,
          64
        ],
        "data": [
          -0.13014985620975494,
          -0.16245979070663452,
          -0.1202576756477356,
          0.17749987542629242,
          -0.0011273744748905301,
          0.21457439661026,
          0.18381793797016144,
          -0.3228200078010559,
          0.10188136249780655,
          0.024613086134195328,
          0.14117583632469177,
          -0.053972747176885605,
          -0.08084163814783096,
          0.13489972054958344,
          -0.06976665556430817,
          0.18449431657791138,
          0.005236459895968437,
          -0.12861569225788116,
          0.16635096073150635,
          -0.03221670910716057,
          0.22951455414295197,
          0.044706955552101135,
          -0.2317342311143875,
          -0.11711809039115906,
          0.08454031497240067,
          -0.07454834133386612,
          -0.18903706967830658,
          -0.10837066918611526,
          -0.007218463812023401,
          -0.023504801094532013,
          0.01739702932536602,
          0.0743599534034729,
          0.05126546695828438,
          -0.04989168047904968,
          0.0062866671942174435,
          0.06159237027168274,
          0.18487221002578735,
          -0.2235293835401535,
          -0.07805600762367249,
          -0.12256306409835815,
          0.14609545469284058,
          -0.21187083423137665,
          0.23403550684452057,
          0.16813777387142181,
          -0.14687642455101013,
          -0.4403395354747772,
          -0.23024767637252808,
          0.024862799793481827,
          -0.30284228920936584,
          -0.1845717579126358,
          0.1739588975906372,
          -0.01327994279563427,
          0.0917043685913086,
          0.05841734632849693,
          -0.12657077610492706,
          0.08023249357938766,
          0.11018086969852448,
          -0.2387181967496872,
          -0.11825968325138092,
          0.09626983106136322,
          0.08131735771894455,
          0.14534932374954224,
          -0.02322106808423996,
          -0.16967922449111938,
          -0.27857527136802673,
          -0.02717522904276848,
          0.026157716289162636,
          0.3052282929420471,
          0.270929753780365,
          -0.0044168648310005665,
          0.23493334650993347,
          0.19044490158557892,
          -0.06462178379297256,
          0.09865416586399078,
          -0.1425151228904724,
          -0.03349052742123604,
          0.10955911129713058,
          -0.008860161527991295,
          -0.2103588581085205,
          0.030001334846019745,
          -0.12897056341171265,
          -0.03522113338112831,
          0.16172440350055695,
          -0.20766814053058624,
          0.01758272387087345,
          -0.05821367725729942,
          0.30152323842048645,
          -0.04094761610031128,
          -0.11095400154590607,
          -0.10392392426729202,
          0.0067968168295919895,
          -0.08925289660692215,
          0.1957983374595642,
          -0.23166027665138245,
          -0.11850480735301971,
          -0.2823652923107147,
          0.14706245064735413,
          0.1204412654042244,
          0.13027414679527283,
          -0.006144201382994652,
          -0.19397179782390594,
          0.205577090382576,
          -0.08236773312091827,
          0.14822909235954285,
          -0.03823614493012428,
          0.03876053914427757,
          -0.06004412844777107,
          0.18503962457180023,
          -0.12766489386558533,
          0.02693951688706875,
          -0.11243920773267746,
          -0.10131873190402985,
          0.15469574928283691,
          0.022235700860619545,
          0.2062799036502838,
          0.033742938190698624,
          0.07403144985437393,
          0.007715313695371151,
          0.015226932242512703,
          0.31701239943504333,
          -0.011923986487090588,
          -0.02104996331036091,
          0.03665563464164734,
          -0.08042304962873459,
          -0.000052835934184258804,
          0.2168833464384079,
          -0.02668146602809429,
          0.008769645355641842,
          0.03323505446314812,
          -0.08917216211557388,
          -0.10108469426631927,
          -0.08056429028511047,
          -0.08100961148738861,
          0.042029011994600296,
          0.11546549946069717,
          -0.17975540459156036,
          0.17141637206077576,
          0.1371312141418457,
          0.2027612328529358,
          0.049786441028118134,
          0.045641880482435226,
          0.0450013242661953,
          -0.13762232661247253,
          0.3082578778266907,
          0.06868892908096313,
          0.00019013913697563112,
          0.13117781281471252,
          0.09856460243463516,
          0.20038099586963654,
          0.05974257364869118,
          -0.1773756891489029,
          0.09768425673246384,
          -0.04278849437832832,
          0.11007683724164963,
          0.2418392449617386,
          0.16359800100326538,
          -0.08064940571784973,
          0.0892973244190216,
          -0.06316828727722168,
          0.01984945684671402,
          0.06071387231349945,
          0.06834763288497925,
          -0.04238668456673622,
          -0.06827589124441147,
          0.138145312666893,
          0.11897623538970947,
          0.2958012819290161,
          0.35049009323120117,
          -0.11381260305643082,
          0.056467875838279724,
          -0.09779031574726105,
          0.3352293074131012,
          0.16757984459400177,
          0.18641319870948792,
          -0.059883713722229004,
          -0.045989446341991425,
          0.050174567848443985,
          -0.1108103096485138,
          0.22628089785575867,
          -0.013341574929654598,
          0.09484555572271347,
          -0.08132359385490417,
          -0.2983851134777069,
          -0.12412744015455246,
          0.2048404961824417,
          -0.00993262603878975,
          0.15540146827697754,
          -0.06342844665050507,
          -0.20906248688697815,
          0.017911918461322784,
          0.07307158410549164,
          0.047461897134780884,
          0.08406373113393784,
          0.0014583556912839413,
          0.03173387795686722,
          0.16681130230426788,
          -0.08423031866550446,
          -0.028786886483430862,
          0.1545538455247879,
          0.07377183437347412,
          -0.03805455565452576,
          -0.3838154077529907,
          -0.16450582444667816,
          -0.26619336009025574,
          -0.0678873360157013,
          0.058945588767528534,
          0.0007195809739641845,
          -0.03897882252931595,
          -0.09553804993629456,
          -0.0030343933030962944,
          -0.08712881058454514,
          0.2344009280204773,
          -0.17140798270702362,
          -0.006061816122382879,
          0.14695875346660614,
          0.41617169976234436,
          -0.061466116458177567,
          -0.21113240718841553,
          -0.12111733108758926,
          -0.0072697363793849945,
          0.17164169251918793,
          -0.011920308694243431,
          0.2531294524669647,
          -0.23360328376293182,
          0.02446821704506874,
          -0.04038199782371521,
          0.03810630366206169,
          0.21192511916160583,
          0.07554145157337189,
          0.007219874765723944,
          -0.12627360224723816,
          0.13250641524791718,
          -0.20863187313079834,
          0.022447019815444946,
          0.0016004913486540318,
          0.0753769651055336,
          -0.018236812204122543,
          -0.05656624212861061,
          -0.029884623363614082,
          -0.12336252629756927,
          0.16060324013233185,
          0.2922828793525696,
          -0.02023826353251934,
          -0.0011801986256614327,
          -0.009155613370239735,
          0.07240558415651321,
          -0.06101435050368309,
          -0.2939556837081909,
          -0.0595901682972908,
          0.09967542439699173,
          -0.13212867081165314,
          0.20946863293647766,
          -0.023328177630901337,
          0.2191338986158371,
          0.27885356545448303,
          0.09526945650577545,
          -0.02732865698635578,
          0.13262861967086792,
          0.18775279819965363,
          0.0034978671465069056,
          0.05344646796584129,
          -0.16825354099273682,
          0.1463826596736908,
          0.023582536727190018,
          -0.1447572261095047,
          0.16882015764713287,
          0.1348879039287567,
          0.06416527181863785,
          0.1594519466161728,
          -0.0031330413185060024,
          0.047398824244737625,
          0.11499149352312088,
          0.11807462573051453,
          -0.08784325420856476,
          0.05874353647232056,
          -0.010743512772023678,
          0.16523519158363342,
          -0.20024114847183228,
          -0.040192313492298126,
          0.10986388474702835,
          -0.10450815409421921,
          -0.012428856454789639,
          -0.11484763026237488,
          0.11991101503372192,
          0.32814592123031616,
          0.25954994559288025,
          0.11830700188875198,
          0.07975414395332336,
          -0.13550209999084473,
          0.23641888797283173,
          0.09098919481039047,
          -0.1395222693681717,
          0.02288654074072838,
          -0.011092920787632465,
          0.010665463283658028,
          0.12526991963386536,
          -0.19934946298599243,
          -0.07432814687490463,
          0.09354528039693832,
          0.0731760561466217,
          -0.0007979218498803675,
          0.08924262225627899,
          0.06862177699804306,
          -0.12228574603796005,
          0.0136949447914958,
          -0.17483200132846832,
          -0.12078598141670227,
          0.19433829188346863,
          0.3828166425228119,
          -0.35006779432296753,
          0.13662435114383698,
          -0.13823747634887695,
          0.08931268751621246,
          0.2738379240036011,
          0.022309381514787674,
          0.06062176823616028,
