{
  "version": "1.0.0",
  "type": "nn/gpt",
  "config": {
    "vocab_size": 96,
    "block_size": 16,
    "n_layer": 1,
    "n_embd": 16,
    "n_head": 4
  },
  "weights": [
    {
      "path": "wte.weight",
      "shape": [
        96,
        16
      ],
      "data": [
        -0.25922125577926636,
        0.09836181998252869,
        0.11800529807806015,
        0.007221936248242855,
        0.033815547823905945,
        0.004947773180902004,
        -0.15026670694351196,
        -0.07039174437522888,
        0.2776087522506714,
        -0.09462465345859528,
        -0.04967967048287392,
        0.1669987291097641,
        0.2238559126853943,
        0.2004765272140503,
        0.006572718732059002,
        0.11234214901924133,
        0.010773603804409504,
        -0.12850184738636017,
        -0.24290549755096436,
        -0.05036773160099983,
        0.04078201204538345,
        0.006457969080656767,
        -0.04306593909859657,
        0.021205326542258263,
        -0.011461667716503143,
        -0.22682927548885345,
        0.1227169930934906,
        0.0016459077596664429,
        -0.09027492254972458,
        -0.05432342737913132,
        -0.0408146008849144,
        0.06635541468858719,
        -0.004100964404642582,
        0.06195082142949104,
        -0.02966959774494171,
        -0.08453468978404999,
        0.23582758009433746,
        -0.0585988387465477,
        0.11343646794557571,
        -0.16075603663921356,
        0.04149998724460602,
        0.13485850393772125,
        0.09551692008972168,
        0.023804372176527977,
        -0.20313900709152222,
        -0.0013809555675834417,
        -0.0181281715631485,
        0.16429965198040009,
        -0.1806340515613556,
        0.11903580278158188,
        -0.12211471796035767,
        0.15325328707695007,
        0.046503182500600815,
        0.19004270434379578,
        0.08623505383729935,
        -0.12940683960914612,
        0.06527100503444672,
        0.049507275223731995,
        0.16906531155109406,
        0.10329563170671463,
        -0.0000762368508731015,
        0.1796790510416031,
        -0.03326523303985596,
        0.06215682998299599,
        -0.11200089752674103,
        -0.009489974938333035,
        0.032466158270835876,
        0.039170969277620316,
        0.27324914932250977,
        0.14516013860702515,
        0.08141591399908066,
        -0.07782626152038574,
        0.0723685696721077,
        0.2200452983379364,
        0.10779819637537003,
        -0.06994568556547165,
        -0.07661983370780945,
        0.04945819079875946,
        0.042544711381196976,
        0.05874782055616379,
        -0.07955636084079742,
        -0.11288071423768997,
        0.03702552989125252,
        -0.024082167074084282,
        0.13357117772102356,
        -0.14169292151927948,
        -0.029883552342653275,
        -0.23540283739566803,
        0.06829588860273361,
        -0.09810305386781693,
        -0.21261808276176453,
        0.15341702103614807,
        -0.08042144775390625,
        0.35384854674339294,
        0.02581002004444599,
        0.14836645126342773,
        -0.048185113817453384,
        0.08988313376903534,
        -0.034939561039209366,
        -0.09939045459032059,
        -0.01797531731426716,
        -0.07494398951530457,
        -0.0748712420463562,
        -0.004576990846544504,
        0.0814935714006424,
        0.217605322599411,
        -0.04550405219197273,
        -0.002565760398283601,
        -0.00181690719909966,
        0.057721368968486786,
        -0.04100415110588074,
        -0.06529499590396881,
        0.022420154884457588,
        -0.18583588302135468,
        -0.06842286884784698,
        0.19995130598545074,
        0.12622128427028656,
        -0.10112522542476654,
        -0.13765230774879456,
        0.030818115919828415,
        -0.14768487215042114,
        -0.004913249984383583,
        -0.0015780653338879347,
        -0.2230261266231537,
        0.06231566146016121,
        -0.0981782004237175,
        -0.16081523895263672,
        -0.10121171176433563,
        -0.011443856172263622,
        0.02405322901904583,
        -0.27920520305633545,
        -0.0432315319776535,
        -0.09585881978273392,
        -0.04678759351372719,
        -0.03737563639879227,
        -0.10170947760343552,
        0.08554865419864655,
        -0.05402606725692749,
        0.1250704824924469,
        -0.038960497826337814,
        -0.04832262545824051,
        0.0918121263384819,
        -0.06275583058595657,
        -0.11159762740135193,
        -0.031481217592954636,
        0.010029257275164127,
        -0.08004029840230942,
        0.12598398327827454,
        0.13222354650497437,
        -0.002596121048554778,
        0.0007680633570998907,
        -0.05015929043292999,
        -0.1813882440328598,
        0.03655971586704254,
        0.007730674929916859,
        -0.06522411853075027,
        0.0993005558848381,
        0.02350110001862049,
        0.07849621772766113,
        -0.02938157133758068,
        -0.0994144007563591,
        0.12332417070865631,
        -0.04536603018641472,
        -0.08825758844614029,
        -0.05241310968995094,
        0.03526962548494339,
        -0.1546618938446045,
        0.044047243893146515,
        -0.016159702092409134,
        -0.11498565226793289,
        -0.07394664734601974,
        0.0836438462138176,
        0.20323576033115387,
        -0.0915922001004219,
        0.04540599510073662,
        -0.16366195678710938,
        -0.055976200848817825,
        0.10577999800443649,
        -0.051783133298158646,
        0.0353335477411747,
        0.12750506401062012,
        0.036151040345430374,
        0.22846834361553192,
        -0.12810420989990234,
        -0.04406006261706352,
        -0.16636021435260773,
        0.14602303504943848,
        0.10727572441101074,
        -0.036131102591753006,
        -0.0043708086013793945,
        -0.08131095767021179,
        0.0390612855553627,
        0.0441734604537487,
        -0.017788592725992203,
        0.02106570079922676,
        -0.09660764783620834,
        -0.07044651359319687,
        0.026412546634674072,
        0.0836082324385643,
        0.010784376412630081,
        0.040029365569353104,
        0.09174635261297226,
        -0.012822440825402737,
        -0.03860371187329292,
        -0.06590715795755386,
        -0.14842166006565094,
        -0.052602414041757584,
        0.006381084211170673,
        -0.023105641826987267,
        -0.14997774362564087,
        0.042956430464982986,
        0.15609776973724365,
        0.0112304063513875,
        0.004077570512890816,
        -0.1001650020480156,
        0.030543169006705284,
        -0.06401876360177994,
        0.0573282316327095,
        0.09142955392599106,
        -0.06571418046951294,
        -0.06080285832285881,
        0.10393600165843964,
        -0.07754762470722198,
        0.005496252793818712,
        -0.1299680471420288,
        0.09433688223361969,
        0.14570002257823944,
        -0.11435679346323013,
        0.1713106781244278,
        -0.008865490555763245,
        -0.1258031278848648,
        0.10780112445354462,
        0.03261805698275566,
        0.14401598274707794,
        -0.035941075533628464,
        0.05970367044210434,
        -0.08965329825878143,
        0.1120033785700798,
        0.025980910286307335,
        -0.012576143257319927,
        -0.09867408871650696,
        -0.05602016672492027,
        0.07773646712303162,
        0.18252027034759521,
        0.0036820012610405684,
        0.020349610596895218,
        0.14121608436107635,
        0.03174711763858795,
        0.06724904477596283,
        -0.09422265738248825,
        0.13412830233573914,
        0.01897715963423252,
        0.09650395810604095,
        0.09283005446195602,
        -0.021187053993344307,
        0.059413619339466095,
        -0.09224732220172882,
        0.3133660852909088,
        -0.10088472068309784,
        -0.01902850903570652,
        -0.22255602478981018,
        0.23165027797222137,
        0.021518899127840996,
        0.13330727815628052,
        -0.05200045555830002,
        -0.17860350012779236,
        0.10437963157892227,
        0.11810468882322311,
        0.12121541798114777,
        -0.07768426835536957,
        0.007251462433487177,
        -0.18408699333667755,
        0.15453630685806274,
        0.1436019241809845,
        -0.059689100831747055,
        0.16328127682209015,
        0.03549422323703766,
        0.016405683010816574,
        -0.09703103452920914,
        -0.09274113178253174,
        0.09359804540872574,
        -0.019398469477891922,
        0.12190762907266617,
        -0.09628430753946304,
        -0.04964425414800644,
        -0.08890439569950104,
        -0.03502684459090233,
        -0.02557211183011532,
        -0.1257062703371048,
        -0.1597900390625,
        -0.011461911723017693,
        -0.07213448733091354,
        -0.13679485023021698,
        -0.036410342901945114,
        0.01822645775973797,
        -0.21980071067810059,
        -0.1060524433851242,
        0.10193302482366562,
        0.09274457395076752,
        0.16528847813606262,
        0.032127171754837036,
        0.11975525319576263,
        0.06915568560361862,
        -0.03243052214384079,
        -0.006099343299865723,
        -0.06800258904695511,
        -0.0005240513710305095,
        -0.03817825764417648,
        0.15053896605968475,
        -0.10148985683917999,
        -0.11252832412719727,
        0.06591059267520905,
        0.009978015907108784,
        0.0898229330778122,
        0.12019725888967514,
        -0.15781213343143463,
        -0.13374459743499756,
        -0.030396785587072372,
        -0.07919056713581085,
        -0.04068618267774582,
        -0.08197386562824249,
        0.08690166473388672,
        0.2336982935667038,
        0.1307438611984253,
        -0.09198340773582458,
        0.2506345212459564,
        0.04078880324959755,
        -0.14119216799736023,
        0.12411574274301529,
        -0.09021155536174774,
        -0.11628501117229462,
        0.06539365649223328,
        0.08131833374500275,
        0.12323394417762756,
        0.08731342107057571,
        -0.024019427597522736,
        -0.13790899515151978,
        -0.21924105286598206,
        0.18244832754135132,
        -0.1034657284617424,
        -0.0032095941714942455,
        0.23795117437839508,
        -0.11151959747076035,
        -0.21168731153011322,
        -0.1515876054763794,
        0.09874729812145233,
        -0.09144584834575653,
        0.08577582985162735,
        0.19641950726509094,
        0.36995354294776917,
        -0.05101582407951355,
        0.03970015421509743,
        -0.05474841222167015,
        0.24181655049324036,
        0.09390319883823395,
        -0.09602280706167221,
        0.03673600032925606,
        0.11121855676174164,
        0.18210704624652863,
        -0.04290714114904404,
        -0.15836939215660095,
        0.20295347273349762,
        -0.017580296844244003,
        -0.21305491030216217,
        -0.1712590456008911,
        -0.37738651037216187,
        0.057592108845710754,
        -0.009725351817905903,
        0.05015460401773453,
        -0.12245127558708191,
        0.01887526921927929,
        0.08566050231456757,
        -0.09608127921819687,
        0.14106401801109314,
        0.09691479802131653,
        0.18621346354484558,
        0.21838483214378357,
        -0.03928816691040993,
        -0.11910326778888702,
        -0.004226085264235735,
        0.01612095721065998,
        0.15355858206748962,
        -0.1502128392457962,
        0.10492359846830368,
        -0.001800989848561585,
        -0.05037901923060417,
        -0.024075528606772423,
        -0.16657359898090363,
        -0.0475662536919117,
        -0.15071244537830353,
        0.02590913325548172,
        0.11170835793018341,
        -0.09326715022325516,
        -0.11988991498947144,
        -0.0294193048030138,
        0.25422918796539307,
        -0.40304145216941833,
        0.03975437954068184,
        0.17330588400363922,
        -0.15825669467449188,
        0.03309614956378937,
        0.02495301142334938,
        0.05037344992160797,
        -0.19560416042804718,
        0.1322241574525833,
        0.10304456949234009,
        0.26517605781555176,
        -0.08281005173921585,
        0.2726479768753052,
        -0.034668754786252975,
        0.0985584557056427,
        -0.05211375281214714,
        0.011488521471619606,
        0.03496074676513672,
        -0.015253623947501183,
        0.13624632358551025,
        -0.06569498032331467,
        -0.2277432531118393,
        0.13109928369522095,
        -0.053053583949804306,
        -0.12428237497806549,
        -0.013972344808280468,
        -0.00965793151408434,
        0.08858178555965424,
        -0.0641024261713028,
        0.12353037297725677,
        0.17915794253349304,
        0.1506221741437912,
        0.03572934493422508,
        -0.08429215103387833,
        0.08316587656736374,
        0.22322385013103485,
        0.09669718891382217,
        0.01567203924059868,
        0.006907444912940264,
        -0.01007746160030365,
        0.00459041865542531,
        -0.102073073387146,
        -0.00503738597035408,
        0.14134113490581512,
        0.1851232647895813,
        0.05422248691320419,
        0.02883431315422058,
        0.130588099360466,
        -0.1309160590171814,
        0.0818198174238205,
        0.015003941021859646,
        -0.16745182871818542,
        0.18174238502979279,
        -0.19639241695404053,
        -0.056387633085250854,
        -0.15399877727031708,
        0.1499398648738861,
        -0.031141135841608047,
        -0.028263641521334648,
        -0.10201191157102585,
        -0.14541111886501312,
        -0.08678692579269409,
        0.1064426526427269,
        -0.10306983441114426,
        0.06392765045166016,
        0.011243739165365696,
        -0.20109494030475616,
        -0.11834565550088882,
        -0.02676176279783249,
        0.019946854561567307,
        0.08981597423553467,
        0.08308543264865875,
        0.034771423786878586,
        0.0497860349714756,
        -0.0925402119755745,
        0.09506025910377502,
        0.14453469216823578,
        0.19103068113327026,
        0.047462157905101776,
        -0.08199462294578552,
        -0.05510450154542923,
        0.012993041425943375,
        -0.11013127863407135,
        -0.10789982229471207,
        0.20238609611988068,
        -0.029704833403229713,
        -0.21459275484085083,
        0.15285663306713104,
        0.11809998005628586,
        -0.2020215392112732,
        0.044361479580402374,
        0.013536995276808739,
        -0.02862033247947693,
        -0.18221087753772736,
        -0.08160199970006943,
        0.02099665254354477,
        -0.012421593070030212,
        -0.015779994428157806,
        0.10386770963668823,
        -0.02833831124007702,
        0.11129777133464813,
        0.03121633641421795,
        -0.056460026651620865,
        -0.13140268623828888,
        -0.07028842717409134,
        -0.008411460556089878,
        0.24634814262390137,
        -0.17907409369945526,
        -0.25144222378730774,
        0.24320849776268005,
        -0.07135030627250671,
        -0.022851750254631042,
        0.07913020253181458,
        -0.03593164682388306,
        0.12072425335645676,
        0.2437327802181244,
        -0.1179749146103859,
        -0.12072952836751938,
        0.14243479073047638,
        -0.022103603929281235,
        0.07467850297689438,
        0.16193562746047974,
        0.01907128281891346,
        0.09653259068727493,
        -0.10812784731388092,
        -0.08814415335655212,
        -0.26031967997550964,
        -0.050082992762327194,
        0.15540260076522827,
        0.06410716474056244,
        -0.018570097163319588,
        -0.15153050422668457,
        -0.18186722695827484,
        -0.12876570224761963,
        -0.030853895470499992,
        -0.04832803085446358,
        0.1331881880760193,
        -0.06344209611415863,
        0.06423456966876984,
        -0.1876916140317917,
        -0.05024881288409233,
        -0.10354219377040863,
        -0.005775993224233389,
        0.08900347352027893,
        0.02243213914334774,
        -0.07275673002004623,
        -0.11064577847719193,
        -0.081918865442276,
        -0.17651602625846863,
        -0.001519327866844833,
        -0.05508929118514061,
        -0.012484215199947357,
        0.048008885234594345,
        0.06515435129404068,
        0.021377548575401306,
        -0.14322881400585175,
        0.030640915036201477,
        -0.24988965690135956,
        0.0792040303349495,
        -0.0075996979139745235,
        0.12017782032489777,
        0.107956163585186,
        -0.13519908487796783,
        0.1760673224925995,
        0.010634115897119045,
        0.06448448449373245,
        -0.024585893377661705,
        0.02149246260523796,
        0.08904232084751129,
        -0.0006127398228272796,
        -0.017328176647424698,
        0.03028745763003826,
        -0.02872876636683941,
        -0.003525468287989497,
        0.10322883725166321,
        -0.05026886612176895,
        0.1075700968503952,
        -0.07016722112894058,
        -0.13843467831611633,
        -0.026917794719338417,
        -0.1717056781053543,
        -0.26598578691482544,
        -0.05850652977824211,
        0.1936824917793274,
        0.20875243842601776,
        -0.051624491810798645,
        0.05970138683915138,
        0.04541125148534775,
        0.07567104697227478,
        -0.23927634954452515,
        -0.17570064961910248,
        0.13857248425483704,
        0.14053556323051453,
        -0.10008477419614792,
        -0.02350468747317791,
        0.04942028969526291,
        -0.2110450118780136,
        0.13174301385879517,
        -0.31177642941474915,
        0.0766962394118309,
        0.027988415211439133,
        0.05018400400876999,
        0.23794634640216827,
        -0.0034099831245839596,
        0.12026404589414597,
        -0.11994794756174088,
        0.05999687686562538,
        -0.028051286935806274,
        0.13193292915821075,
        -0.03237031027674675,
        -0.02948746457695961,
        -0.040259335190057755,
        0.037874434143304825,
        0.052111055701971054,
        0.0016517332987859845,
        0.15748338401317596,
        0.007150545250624418,
        -0.06698321551084518,
        0.21358096599578857,
        -0.02489665523171425,
        -0.09605883061885834,
        0.16014792025089264,
        -0.0547061488032341,
        0.04600585252046585,
        0.022592296823859215,
        0.18308918178081512,
        0.07155586034059525,
        -0.035131748765707016,
        0.06442033499479294,
        -0.3222329914569855,
        -0.3893628418445587,
        0.13478492200374603,
        0.09272652864456177,
        -0.09599193185567856,
        0.11012682318687439,
        -0.1484251767396927,
        -0.1947382539510727,
        -0.2579299807548523,
        -0.10121555626392365,
        0.20676788687705994,
        0.06118105724453926,
        0.09972622990608215,
        0.30028465390205383,
        0.03258279711008072,
        0.12480513751506805,
        -0.15365955233573914,
        0.08862243592739105,
        -0.2713063359260559,
        0.0976785346865654,
        -0.07499047368764877,
        0.023213591426610947,
        -0.01802017353475094,
        -0.05599585548043251,
        0.030908122658729553,
        0.07361224293708801,
        0.12423066049814224,
        0.24536007642745972,
        0.016442257910966873,
        0.12640325725078583,
        0.148614764213562,
        -0.14663715660572052,
        -0.10663577169179916,
        0.02194203808903694,
        0.2192012518644333,
        0.020421702414751053,
        0.16725219786167145,
        -0.0027426399756222963,
        -0.1447524130344391,
        0.15554408729076385,
        -0.05312337353825569,
        -0.1711205095052719,
        -0.06722494214773178,
        0.2055482566356659,
        -0.10899947583675385,
        -0.16740882396697998,
        0.11808636784553528,
        -0.06509144604206085,
        0.11564938724040985,
        -0.017437729984521866,
        0.12463252991437912,
        0.1573455035686493,
        -0.06473629176616669,
        -0.3091525137424469,
        -0.034883614629507065,
        -0.10121668130159378,
        0.15757031738758087,
        0.11452469974756241,
        0.014155839569866657,
        -0.1954827457666397,
        -0.07922737300395966,
        -0.08801154792308807,
        -0.09977429360151291,
        0.14008241891860962,
        0.04064282402396202,
        0.12584881484508514,
        0.030948806554079056,
        -0.057752158492803574,
        -0.04618985205888748,
        -0.19294513761997223,
        0.03178270906209946,
        -0.1227327361702919,
        0.027774032205343246,
        0.08094143122434616,
        -0.06925295293331146,
        0.17013119161128998,
        0.06601616740226746,
        0.24562741816043854,
        0.04878848418593407,
        0.018212631344795227,
        -0.013948554173111916,
        -0.05718180537223816,
        -0.022863594815135002,
        0.02440476603806019,
        -0.014320394024252892,
        0.005428295582532883,
        -0.0897270068526268,
        0.056228168308734894,
        0.023377900943160057,
        0.13517653942108154,
        -0.09756474196910858,
        -0.0630311593413353,
        0.009523142129182816,
        0.16711415350437164,
        0.060478053987026215,
        0.20934511721134186,
        -0.06703659892082214,
        -0.11139161139726639,
        -0.07449142634868622,
        0.047292813658714294,
        -0.0058806962333619595,
        0.088326595723629,
        -0.01922704093158245,
        -0.13170592486858368,
        0.06318405270576477,
        0.19579719007015228,
        -0.08295629918575287,
        -0.041728951036930084,
        -0.10917172580957413,
        0.10780729353427887,
        -0.04002692922949791,
        -0.022945478558540344,
        -0.007883843965828419,
        0.05397111549973488,
        -0.21092942357063293,
        0.22873340547084808,
        -0.16333946585655212,
        0.02998920902609825,
        -0.08306294679641724,
        -0.07974527776241302,
        -0.11921530216932297,
        0.2856367826461792,
        -0.025783147662878036,
        -0.05012155696749687,
        -0.002591140568256378,
        -0.040158964693546295,
        0.06928866356611252,
        0.14693935215473175,
        -0.1109548956155777,
        -0.2115187793970108,
        -0.05792226269841194,
        -0.1179778054356575,
        -0.029845967888832092,
        -0.13174057006835938,
        -0.1369483768939972,
        -0.0774778351187706,
        -0.02154700644314289,
        0.08334767073392868,
        -0.13672129809856415,
        -0.024958821013569832,
        0.24166391789913177,
        -0.026091022416949272,
        0.016979673877358437,
        0.048860568553209305,
        -0.20311817526817322,
        0.06005045771598816,
        0.06956233829259872,
        -0.14292946457862854,
        -0.09710913151502609,
        -0.0702243223786354,
        0.04188000410795212,
        -0.04458200931549072,
        0.11994438618421555,
        -0.08885640650987625,
        -0.09827999770641327,
        0.05600140988826752,
        -0.06704732775688171,
        -0.04430759325623512,
        -0.15530353784561157,
        -0.2315869778394699,
        0.16800092160701752,
        -0.01616832986474037,
        0.07738377153873444,
        0.040363915264606476,
        0.19932051002979279,
        0.24158775806427002,
        0.04739876836538315,
        0.07874762266874313,
        -0.3080195188522339,
        0.15684951841831207,
        0.07429984211921692,
        0.305691123008728,
        -0.17124691605567932,
        -0.02636181376874447,
        0.05403538793325424,
        0.09339766204357147,
        -0.17240527272224426,
        -0.009801961481571198,
        -0.028268754482269287,
        0.12436561286449432,
        0.0775170549750328,
        0.08764075487852097,
        -0.11563356965780258,
        -0.027682485058903694,
        0.050859905779361725,
        0.11837852001190186,
        0.021602779626846313,
        -0.10908900946378708,
        -0.01700964756309986,
        0.04793943837285042,
        0.16006101667881012,
        0.0008076764643192291,
        -0.0006687621935270727,
        0.0582582987844944,
        0.11188685148954391,
        0.11746177077293396,
        -0.08485278487205505,
        -0.06939023733139038,
        0.023243485018610954,
        -0.1393086016178131,
        0.07568860054016113,
        0.16014525294303894,
        -0.11875408887863159,
        -0.1118130087852478,
        -0.07952123880386353,
        -0.1472003012895584,
        0.01867802068591118,
        0.0355847030878067,
        0.011781138367950916,
        0.03392936289310455,
        -0.08646456897258759,
        0.028572609648108482,
        -0.2663683593273163,
        0.036040451377630234,
        -0.21902194619178772,
        0.05810084566473961,
        -0.008541969582438469,
        0.0839681327342987,
        -0.06108426675200462,
        0.10989128053188324,
        0.06710406392812729,
        -0.013045979663729668,
        0.15319766104221344,
        0.08158178627490997,
        -0.20299963653087616,
        0.06250500679016113,
        0.08161652088165283,
        -0.13387905061244965,
        0.06778749823570251,
        -0.12058530747890472,
        -0.0738644003868103,
        -0.1109299436211586,
        0.02152159996330738,
        -0.06955815106630325,
        0.016463525593280792,
        0.012614937499165535,
        -0.03062836453318596,
        -0.2422979474067688,
        -0.20087826251983643,
        0.11439552158117294,
        0.00713469460606575,
        0.20539739727973938,
        0.1381276696920395,
        0.03915678709745407,
        0.15737111866474152,
        -0.13152983784675598,
        -0.049665823578834534,
        -0.13231278955936432,
        0.19978219270706177,
        -0.09562820941209793,
        -0.045722752809524536,
        -0.004326461348682642,
        0.08961626142263412,
        0.15808357298374176,
        0.09182490408420563,
        -0.11134270578622818,
        0.1447480022907257,
        -0.06464742124080658,
        0.15295371413230896,
        0.1230253279209137,
        0.1707466095685959,
        0.3027511239051819,
        0.040347278118133545,
        0.2802117168903351,
        -0.07970176637172699,
        0.007866473868489265,
        0.10583896189928055,
        0.10432182252407074,
        0.12114450335502625,
        -0.16756106913089752,
        -0.0748828873038292,
        0.11842374503612518,
        -0.02901391312479973,
        -0.055664945393800735,
        -0.002159293508157134,
        0.032551199197769165,
        -0.0865936204791069,
        -0.037707116454839706,
        -0.15595465898513794,
        -0.2238263636827469,
        -0.13206231594085693,
        0.16060905158519745,
        -0.04434613510966301,
        0.09799010306596756,
        0.0801691859960556,
        0.21422292292118073,
        0.09102931618690491,
        -0.19430094957351685,
        -0.17776502668857574,
        0.09308920800685883,
        -0.009758287109434605,
        -0.059733226895332336,
        0.020123442634940147,
        0.04089666157960892,
        -0.1746990978717804,
        0.0710834339261055,
        0.017884954810142517,
        -0.055716436356306076,
        -0.11255477368831635,
        -0.15146660804748535,
        -0.0694575235247612,
        0.00033845633151941,
        0.09169896692037582,
        0.028727199882268906,
        0.050121285021305084,
        -0.15114609897136688,
        0.03642013669013977,
        -0.028163043782114983,
        -0.034460123628377914,
        0.03342211991548538,
        -0.04415018483996391,
        0.009786805137991905,
        0.1310126632452011,
        -0.005520154256373644,
        -0.11397262662649155,
        0.016495956107974052,
        0.16797535121440887,
        -0.125105619430542,
        -0.025173604488372803,
        0.03712369501590729,
        -0.17282173037528992,
        0.0053288075141608715,
        0.04841873049736023,
        -0.0585906021296978,
        -0.07023035734891891,
        -0.08647114783525467,
        0.05847128853201866,
        0.11045961081981659,
        -0.012763856910169125,
        0.13482318818569183,
        0.03512636199593544,
        0.0560862235724926,
        0.07437000423669815,
        -0.058076754212379456,
        -0.17180472612380981,
        -0.00239203916862607,
        0.03298909589648247,
        0.032222576439380646,
        -0.08658373355865479,
        -0.08200743794441223,
        0.131107896566391,
        -0.06555960327386856,
        -0.03618438541889191,
        -0.07169835269451141,
        0.21359862387180328,
        0.039202481508255005,
        -0.13190416991710663,
        0.08711232244968414,
        -0.1024324893951416,
        0.06748156994581223,
        -0.039511676877737045,
        0.05111299455165863,
        0.19332769513130188,
        0.11976135522127151,
        -0.06317058205604553,
        0.10974130034446716,
        0.06291453540325165,
        -0.08769150823354721,
        0.025293592363595963,
        -0.10260694473981857,
        0.044611912220716476,
        -0.03814004361629486,
        -0.061057645827531815,
        -0.07568363845348358,
        0.037676259875297546,
        -0.09975701570510864,
        0.025608370080590248,
        0.07164411246776581,
        -0.009751574136316776,
        0.04568355530500412,
        0.01133243553340435,
        0.014908583834767342,
        0.0834055095911026,
        0.04569920524954796,
        0.011494622565805912,
        -0.04486221447587013,
        0.03589771315455437,
        0.00894403737038374,
        0.045061275362968445,
        -0.005698197986930609,
        -0.025364162400364876,
        -0.14070825278759003,
        0.07181845605373383,
        0.11568007618188858,
        0.006793684791773558,
        -0.04016510397195816,
        0.11054955422878265,
        -0.06614077091217041,
        -0.0836411863565445,
        -0.17265596985816956,
        0.04465658962726593,
        0.14890669286251068,
        -0.11266110837459564,
        -0.20104165375232697,
        -0.0815437063574791,
        -0.16551536321640015,
        0.03346028923988342,
        -0.3269564211368561,
        0.10207794606685638,
        -0.11340590566396713,
        0.11848599463701248,
        -0.0629279613494873,
        -0.013046776875853539,
        0.055139534175395966,
        0.02514883503317833,
        -0.11290649324655533,
        -0.0247053150087595,
        0.15204118192195892,
        -0.10738236457109451,
        0.015167552046477795,
        0.06290203332901001,
        -0.031098203733563423,
        0.08408854156732559,
        0.14645430445671082,
        0.09747114032506943,
        0.0808543711900711,
        -0.07184956967830658,
        0.0047582476399838924,
        -0.13717660307884216,
        -0.07845163345336914,
        0.07086251676082611,
        -0.08427295833826065,
        0.037467677146196365,
        0.2136247456073761,
        0.11362594366073608,
        -0.005796818062663078,
        0.08092678338289261,
        0.026792213320732117,
        -0.05579805001616478,
        0.10394524782896042,
        -0.019807057455182076,
        0.17202924191951752,
        -0.1010642722249031,
        -0.009287446737289429,
        -0.023549498990178108,
        -0.12433404475450516,
        -0.045026738196611404,
        -0.022170159965753555,
        -0.1542646884918213,
        -0.2946670949459076,
        -0.07661613821983337,
        -0.14109641313552856,
        0.07794833928346634,
        -0.14087042212486267,
        0.23771944642066956,
        0.044425856322050095,
        0.008739693090319633,
        0.0995723158121109,
        -0.07546937465667725,
        -0.029650386422872543,
        0.02942183054983616,
        0.04212699085474014,
        -0.0607241690158844,
        -0.14023089408874512,
        0.11493481695652008,
        -0.07999622076749802,
        0.10349077731370926,
        0.14248710870742798,
        -0.038238152861595154,
        0.05631798505783081,
        0.053152624517679214,
        0.0253610722720623,
        -0.05875298008322716,
        0.07416543364524841,
        0.10683175921440125,
        -0.12424967437982559,
        0.0391189306974411,
        -0.04029504209756851,
        0.08587908744812012,
        0.03925734758377075,
        0.014819402247667313,
        -0.06376703828573227,
        0.03300108388066292,
        0.05046754330396652,
        -0.15585766732692719,
        0.04920284450054169,
        0.15670248866081238,
        -0.20005908608436584,
        0.0005002177786082029,
        -0.05375390127301216,
        -0.09845766425132751,
        0.1225227415561676,
        0.07587580382823944,
        0.028723429888486862,
        -0.14990365505218506,
        -0.20596876740455627,
        0.0025758245028555393,
        0.08383126556873322,
        -0.11241106688976288,
        -0.013397198170423508,
        -0.022573404014110565,
        -0.08158610016107559,
        -0.09508860856294632,
        -0.03014216013252735,
        0.1742287278175354,
        0.12397053092718124,
        0.1048867478966713,
        0.0024301179219037294,
        0.11114558577537537,
        -0.0027800642419606447,
        0.10950948297977448,
        0.10975482314825058,
        0.12536320090293884,
        -0.0373784601688385,
        0.16429540514945984,
        -0.034060560166835785,
        0.03593737632036209,
        -0.05036664009094238,
        -0.1492488980293274,
        0.19802045822143555,
        -0.11995998024940491,
        0.12180157005786896,
        0.04117552936077118,
        -0.0502358078956604,
        0.07889977842569351,
        -0.3734155595302582,
        0.0398990735411644,
        0.03999266400933266,
        0.10913662612438202,
        0.09328744560480118,
        -0.19054056704044342,
        -0.23078234493732452,
        0.02917318604886532,
        -0.0795484110713005,
        -0.14286820590496063,
        0.05764937773346901,
        -0.26834988594055176,
        -0.04665391147136688,
        0.08398958295583725,
        -0.05957741662859917,
        0.07239309698343277,
        0.052108034491539,
        -0.09560094773769379,
        -0.10231824219226837,
        -0.07511463761329651,
        -0.06490407884120941,
        0.07246200740337372,
        -0.058221280574798584,
        -0.14496229588985443,
        0.06848371773958206,
        -0.048612479120492935,
        -0.004202522337436676,
        -0.06455616652965546,
        -0.09527243673801422,
        0.2582239508628845,
        0.026015162467956543,
        -0.11319295316934586,
        0.031214380636811256,
        -0.17743568122386932,
        -0.17539812624454498,
        -0.07927004247903824,
        0.006196313071995974,
        0.0968550443649292,
        0.1571347564458847,
        0.035228829830884933,
        -0.12645350396633148,
        -0.013744453899562359,
        0.02163485623896122,
        -0.07915908843278885,
        -0.008692188188433647,
        0.11405246704816818,
        -0.06871538609266281,
        -0.12737837433815002,
        0.0829833373427391,
        -0.23724351823329926,
        0.033420417457818985,
        -0.06873898208141327,
        0.08183242380619049,
        0.028425103053450584,
        0.1350625902414322,
        0.025572530925273895,
        -0.07827693223953247,
        -0.01132101658731699,
        -0.11544492840766907,
        0.04197473078966141,
        -0.12194859981536865,
        0.027486484497785568,
        0.06310399621725082,
        -0.15103082358837128,
        0.08652027696371078,
        -0.09668605029582977,
        -0.008282093331217766,
        0.153233140707016,
        0.03802218288183212,
        0.17056392133235931,
        -0.03291637822985649,
        0.01826407201588154,
        -0.11439824849367142,
        0.1072290763258934,
        -0.1260099560022354,
        -0.12334109097719193,
        -0.1114869937300682,
        -0.013127431273460388,
        -0.11627808958292007,
        -0.1218862310051918,
        -0.05389852821826935,
        -0.06454598903656006,
        -0.0662100613117218,
        0.162300705909729,
        0.023771971464157104,
        0.19488643109798431,
        -0.12176165729761124,
        -0.05124153196811676,
        -0.09581391513347626,
        -0.1078968420624733,
        -0.04816073551774025,
        -0.0006586081581190228,
        -0.1308712363243103,
        -0.07477592676877975,
        -0.10644174367189407,
        0.002976348390802741,
        0.017174117267131805,
        -0.046453654766082764,
        0.0008172123925760388,
        -0.14280448853969574,
        0.10019653290510178,
        0.15779386460781097,
        0.03537866473197937,
        -0.03990167751908302,
        -0.028879018500447273,
        -0.028062179684638977,
        0.01858081854879856,
        -0.06427663564682007,
        0.25592756271362305,
        0.0003168177208863199,
        -0.07678718864917755,
        -0.09541412442922592,
        -0.1264992505311966,
        -0.032425716519355774,
        0.04240354523062706,
        -0.08155625313520432,
        -0.04860638082027435,
        0.08571813255548477,
        0.26067614555358887,
        -0.14485129714012146,
        0.13459038734436035,
        0.0809347853064537,
        0.06306259334087372,
        -0.16855992376804352,
        0.030453035607933998,
        -0.0469934456050396,
        -0.017253359779715538,
        -0.15542654693126678,
        0.04790305346250534,
        -0.07499567419290543,
        -0.13078533113002777,
        0.021775562316179276,
        0.036923814564943314,
        0.030610209330916405,
        0.12179876118898392,
        -0.16612963378429413,
        -0.15920065343379974,
        -0.10790418833494186,
        -0.1829545646905899,
        0.061795640736818314,
        0.005678972229361534,
        0.05384393408894539,
        -0.25897684693336487,
        -0.15296229720115662,
        -0.16647984087467194,
        0.02900034375488758,
        0.018421880900859833,
        0.029668670147657394,
        0.039594866335392,
        -0.11778216809034348,
        0.10458607971668243,
        0.1139087975025177,
        0.106473907828331,
        -0.043656233698129654,
        -0.14074254035949707,
        -0.05775804445147514,
        -0.164210245013237,
        0.023054247722029686,
        -0.2177303582429886,
        0.0402282290160656,
        0.03457126393914223,
        0.024918396025896072,
        0.2029358595609665,
        -0.20266231894493103,
        0.19130302965641022,
        -0.059728264808654785,
        -0.04332658275961876,
        -0.04375135526061058,
        -0.08603525906801224,
        0.08948290348052979,
        0.02955176867544651,
        0.0462200753390789,
        0.05628013238310814,
        0.0005418930668383837,
        0.054922375828027725,
        0.0019739435520023108,
        0.1609930396080017,
        0.03304066136479378,
        0.050838641822338104,
        -0.14487102627754211,
        -0.09218636900186539,
        0.020330967381596565,
        -0.011601476930081844,
        -0.05838705599308014,
        0.11083614826202393,
        0.11827576905488968,
        -0.016038356348872185,
        -0.004721763543784618,
        -0.028699293732643127,
        0.1201806589961052,
        0.08515030145645142,
        -0.04071308672428131,
        -0.008246599696576595,
        0.061757054179906845,
        -0.010530290193855762,
        -0.08692432940006256,
        0.08435153216123581,
        -0.061766739934682846,
        -0.1580553501844406,
        -0.09318716078996658,
        -0.033394280821084976,
        0.029766745865345,
        0.011336250230669975,
        0.024502724409103394,
        -0.21992385387420654,
        0.11719600856304169,
        -0.04820839315652847,
        0.15239514410495758,
        0.07790812104940414,
        0.0829579159617424,
        0.1632966697216034,
        -0.043412089347839355,
        0.29389822483062744,
        -0.11325281113386154,
        -0.0012629770208150148,
        0.15622490644454956,
        0.20318104326725006,
        -0.001732325297780335,
        -0.08824768662452698,
        -0.13083694875240326,
        0.13264067471027374,
        0.03688495233654976,
        0.02992219664156437,
        -0.19895711541175842,
        0.0014158107805997133,
        0.21744440495967865,
        -0.11437448859214783,
        -0.17847469449043274,
        0.2049081027507782,
        -0.0046429564245045185,
        0.025886215269565582,
        0.050776656717061996,
        0.0655711442232132,
        0.06640447676181793,
        -0.0540391281247139,
        0.07972784340381622,
        0.055820684880018234,
        -0.02187131531536579,
        0.294020414352417,
        -0.27947333455085754,
        -0.2773488759994507,
        0.10847782343626022,
        -0.13596707582473755,
        0.16706335544586182,
        -0.08267131447792053,
        0.161542147397995,
        -0.04623321071267128,
        -0.038811225444078445,
        0.09047903120517731,
        -0.08317048102617264,
        0.08163443207740784,
        -0.1031867191195488,
        0.10166718065738678,
        0.14677442610263824,
        -0.022609753534197807,
        0.06515844166278839,
        0.07555309683084488,
        0.10694871097803116,
        0.06200912222266197,
        -0.11367619037628174,
        0.03995608910918236,
        0.19659078121185303,
        0.1544823944568634,
        0.0954243540763855,
        -0.03273184224963188,
        -0.15833604335784912,
        0.05302491784095764,
        -0.019367579370737076,
        0.16967526078224182,
        0.08065681159496307,
        0.08039999008178711,
        0.03507215157151222,
        -0.07398799806833267,
        0.0865640938282013,
        -0.2128390222787857,
        0.08237745612859726,
        -0.08008452504873276,
        -0.0013917582109570503,
        -0.12368429452180862,
        -0.01668463461101055,
        -0.04099671170115471,
        -0.07513920962810516,
        0.03461664170026779,
        -0.23049062490463257,
        0.16482695937156677,
        -0.014844829216599464,
        -0.12843991816043854,
        -0.06284262239933014,
        -0.08447764068841934,
        0.020421726629137993,
        -0.060764823108911514,
        0.05982702225446701,
        0.1281195431947708,
        0.11145182698965073,
        0.049036476761102676,
        0.060848258435726166,
        -0.005401073023676872,
        0.008334235288202763,
        -0.1542937308549881,
        -0.014761306345462799,
        -0.10186916589736938,
        -0.009922630153596401,
        -0.04021965339779854,
        0.14034715294837952,
        -0.1359793245792389,
        0.048102617263793945,
        -0.0459166057407856,
        -0.14733710885047913,
        0.03709474578499794,
        0.018751857802271843,
        0.08704397082328796,
        -0.1152593120932579,
        -0.2590264081954956,
        0.06796819716691971,
        -0.09258709847927094,
        -0.0017891230527311563,
        0.01914815977215767,
        -0.05285975709557533,
        -0.057318314909935,
        0.057231903076171875,
        0.019836097955703735,
        -0.0809871181845665,
        -0.20706497132778168,
        -0.026711490005254745,
        -0.09139521420001984,
        0.21202875673770905,
        0.08119257539510727,
        -0.08363804221153259,
        -0.13766410946846008,
        -0.17418742179870605,
        -0.17628000676631927,
        -0.007184809073805809,
        -0.059236593544483185,
        0.03544119745492935,
        0.02045201137661934,
        0.009957894682884216,
        0.0641687661409378,
        -0.035455990582704544,
        -0.017619047313928604,
        0.01281492318958044,
        -0.013411326333880424,
        -0.042491473257541656,
        0.10698239505290985,
        -0.00720253586769104,
        0.025651125237345695,
        0.09616255015134811,
        -0.05789339914917946,
        -0.07712898403406143,
        -0.028376150876283646,
        0.10453309118747711,
        -0.05034054070711136,
        0.0022633594926446676,
        0.11029800772666931,
        -0.07210591435432434,
        -0.05829300358891487,
        -0.014507289044559002,
        0.0766981989145279,
        0.10026854276657104,
        0.16802313923835754,
        -0.03166245296597481,
        -0.01939179189503193,
        0.03762196749448776,
        -0.019872432574629784,
        -0.11613091081380844,
        0.022649850696325302,
        0.1621171236038208,
        -0.10304717719554901,
        0.05628045275807381,
        -0.03655529022216797,
        -0.07716970145702362,
        -0.07204309850931168,
        0.10356684029102325,
        0.045900970697402954,
        0.05350277200341225,
        0.04584960266947746,
        0.07126037776470184,
        -0.08745680749416351,
        0.025860397145152092,
        -0.08102089166641235,
        -0.006491284817457199,
        0.19063784182071686,
        0.08222466707229614,
        0.1579095423221588,
        -0.054167307913303375,
        -0.008791512809693813,
        -0.013772963546216488,
        -0.1411653310060501,
        0.22560904920101166,
        0.2268020063638687,
        0.11277158558368683,
        -0.21355262398719788,
        0.03825734928250313,
        -0.10245752334594727,
        -0.26952940225601196,
        0.24505575001239777,
        -0.004389116074889898
      ]
    },
    {
      "path": "wpe.weight",
      "shape": [
        16,
        16
      ],
      "data": [
        0.11811850219964981,
        0.08744757622480392,
        0.099723219871521,
        -0.025638608261942863,
        0.026421813294291496,
        0.20427864789962769,
        0.05761447548866272,
        0.30995413661003113,
        0.08385355025529861,
        0.13896195590496063,
        -0.1177934855222702,
        0.0029225642792880535,
        -0.09410899877548218,
        -0.31694915890693665,
        0.12507393956184387,
        0.0038117270451039076,
        0.03640465810894966,
        -0.05197954922914505,
        -0.07359110563993454,
        0.05252281203866005,
        0.08608417212963104,
        -0.1609400361776352,
        0.0358738899230957,
        0.04098742827773094,
        -0.1562069058418274,
        -0.24908755719661713,
        -0.02561151422560215,
        -0.023857396095991135,
        0.07363703846931458,
        0.18594539165496826,
        -0.05856136977672577,
        -0.010527905076742172,
        0.2089412808418274,
        0.0349872000515461,
        -0.1427430361509323,
        0.13136699795722961,
        -0.09294358640909195,
        0.1035829484462738,
        -0.05589882284402847,
        -0.07599469274282455,
        0.09211298823356628,
        0.1447206735610962,
        0.12629397213459015,
        0.025828775018453598,
        -0.03446019068360329,
        0.3128107190132141,
        -0.01517617516219616,
        -0.0803762897849083,
        -0.03229040279984474,
        -0.07802371680736542,
        0.040181715041399,
        -0.11609392613172531,
        -0.06718501448631287,
        0.15494339168071747,
        -0.09557756781578064,
        -0.09670615941286087,
        -0.024438057094812393,
        -0.024343589320778847,
        -0.09724617004394531,
        0.12287334352731705,
        0.05501469597220421,
        -0.13375243544578552,
        -0.15290534496307373,
        -0.009805871173739433,
        -0.05451710522174835,
        -0.06939762830734253,
        0.02394707314670086,
        0.01236593909561634,
        -0.09904853254556656,
        -0.2756345570087433,
        -0.03820504993200302,
        -0.20750074088573456,
        0.1020587757229805,
        0.09127603471279144,
        -0.034889593720436096,
        -0.0225822776556015,
        0.02069801837205887,
        0.03568907827138901,
        -0.005908384919166565,
        0.2474975883960724,
        -0.14982199668884277,
        0.006020145490765572,
        0.2560292184352875,
        0.0434897243976593,
        0.025835944339632988,
        -0.06795621663331985,
        -0.142295703291893,
        -0.01557974610477686,
        0.002304352819919586,
        -0.017888957634568214,
        0.06581282615661621,
        -0.0004966758424416184,
        0.021608324721455574,
        -0.05825725942850113,
        -0.19826845824718475,
        0.046935610473155975,
        0.03973934426903725,
        -0.16316913068294525,
        0.05727013945579529,
        0.046582937240600586,
        -0.003716986160725355,
        -0.051522813737392426,
        -0.07903681695461273,
        0.0297420471906662,
        -0.016521427780389786,
        0.026110684499144554,
        0.0316108837723732,
        -0.021445242688059807,
        0.12499163299798965,
        0.012804459780454636,
        -0.040450338274240494,
        0.05132497847080231,
        -0.07396500557661057,
        0.0017983901780098677,
        0.10149344801902771,
        0.06987026333808899,
        0.009290150366723537,
        -0.0031322494614869356,
        -0.096104197204113,
        0.029828310012817383,
        0.07839352637529373,
        0.045237455517053604,
        0.04033826291561127,
        0.017846958711743355,
        -0.02101977728307247,
        0.08603449910879135,
        -0.1701980084180832,
        0.11011764407157898,
        -0.1882614940404892,
        0.02792837657034397,
        0.16995373368263245,
        0.017447693273425102,
        0.00018814066424965858,
        -0.06333789974451065,
        -0.04406322166323662,
        0.04374147579073906,
        -0.053374335169792175,
        0.054065097123384476,
        0.03025820665061474,
        -0.006361052859574556,
        -0.09734821319580078,
        -0.017603978514671326,
        -0.14191046357154846,
        -0.007919186726212502,
        -0.05633046478033066,
        -0.0860002189874649,
        -0.08848453313112259,
        -0.06392884999513626,
        -0.010059603489935398,
        -0.05520577356219292,
        0.007663058117032051,
        0.06431251019239426,
        -0.09295112639665604,
        0.1410021334886551,
        -0.031419623643159866,
        0.046367328613996506,
        -0.013707534410059452,
        0.07744289934635162,
        -0.03046845644712448,
        0.0398273840546608,
        -0.061367642134428024,
        -0.0048685804940760136,
        -0.010865041054785252,
        0.04380398988723755,
        0.04590888321399689,
        -0.11165282130241394,
        0.06117217615246773,
        -0.0651044100522995,
        -0.039251066744327545,
        0.09373351186513901,
        0.007134770508855581,
        0.09778483211994171,
        -0.07331724464893341,
        -0.16527780890464783,
        0.041107479482889175,
        -0.01809169352054596,
        -0.11402411013841629,
        0.03147245571017265,
        0.013805119320750237,
        0.19357764720916748,
        0.011254044249653816,
        0.009769110940396786,
        0.07574310153722763,
        0.041960544884204865,
        0.015721969306468964,
        -0.018016071990132332,
        -0.045058004558086395,
        -0.06966476887464523,
        0.009644463658332825,
        -0.18012961745262146,
        -0.001634070766158402,
        -0.01399124413728714,
        0.09535495936870575,
        -0.060690511018037796,
        0.09242933988571167,
        0.024625934660434723,
        0.03022492490708828,
        0.020113160833716393,
        0.0013255099765956402,
        -0.11817296594381332,
        -0.036406129598617554,
        -0.017594242468476295,
        -0.037567611783742905,
        -0.10140343755483627,
        0.01601223461329937,
        0.1059425100684166,
        0.06182590499520302,
        0.03330947458744049,
        -0.08777736872434616,
        0.01274164579808712,
        0.018181154504418373,
        0.14386434853076935,
        0.01786184310913086,
        -0.09806972742080688,
        0.013746311888098717,
        -0.05775263160467148,
        -0.06826426088809967,
        0.015488820150494576,
        0.07337871193885803,
        -0.07373395562171936,
        0.0599193312227726,
        -0.11964726448059082,
        0.09508232772350311,
        0.050784964114427567,
        0.061065129935741425,
        0.08134350180625916,
        -0.03085913322865963,
        0.09585873037576675,
        0.06424573808908463,
        -0.09359864890575409,
        -0.027606304734945297,
        -0.031116575002670288,
        0.06256022304296494,
        0.07188699394464493,
        -0.07149668782949448,
        -0.051787082105875015,
        0.01623576693236828,
        0.06197567656636238,
        -0.04738810285925865,
        0.06323546916246414,
        -0.017454039305448532,
        -0.006672736722975969,
        0.1497986912727356,
        0.1329210251569748,
        0.009733864106237888,
        -0.006186057813465595,
        -0.02657364495098591,
        0.02167566306889057,
        -0.03606541082262993,
        0.02542758174240589,
        -0.017556073144078255,
        0.047081492841243744,
        -0.0678534060716629,
        0.0627746433019638,
        -0.05633729696273804,
        0.025788046419620514
      ]
    },
    {
      "path": "blocks[0].attn.wq.weight",
      "shape": [
        16,
        16
      ],
      "data": [
        0.1084781289100647,
        -0.10394427180290222,
        0.20541267096996307,
        0.06391876935958862,
        0.06553130596876144,
        -0.08233650028705597,
        -0.05840355157852173,
        -0.05852247774600983,
        0.1340353637933731,
        0.054022084921598434,
        0.013386017642915249,
        -0.061333999037742615,
        -0.033549755811691284,
        -0.01448334101587534,
        0.13974805176258087,
        -0.02648749202489853,
        -0.08455166220664978,
        -0.06561147421598434,
        0.05532379820942879,
        -0.19113998115062714,
        -0.02368767559528351,
        0.12726278603076935,
        0.0473783016204834,
        0.22639310359954834,
        -0.0719459131360054,
        0.05581765994429588,
        0.16711021959781647,
        0.15685820579528809,
        0.08995629847049713,
        -0.17628389596939087,
        -0.18049612641334534,
        0.08251189440488815,
        0.14941394329071045,
        0.15220750868320465,
        -0.16284969449043274,
        -0.022650744765996933,
        0.12288037687540054,
        -0.013846245594322681,
        -0.05477038398385048,
        -0.07595255225896835,
        -0.017907924950122833,
        -0.058461908251047134,
        -0.1730935275554657,
        0.0296324472874403,
        -0.02404983714222908,
        0.05053392052650452,
        -0.06362920999526978,
        -0.14853492379188538,
        -0.15554437041282654,
        0.01676943339407444,
        -0.1314525008201599,
        -0.08528268337249756,
        0.1267618089914322,
        0.11707515269517899,
        -0.04492104426026344,
        0.026828637346625328,
        0.17290784418582916,
        -0.16560713946819305,
        0.16024722158908844,
        -0.030836790800094604,
        0.016367048025131226,
        0.015325854532420635,
        0.17507769167423248,
        0.038854390382766724,
        0.13020242750644684,
        0.20324358344078064,
        -0.06892994791269302,
        -0.09804331511259079,
        -0.23767873644828796,
        -0.19483919441699982,
        -0.1846599131822586,
        -0.0007774124969728291,
        -0.07469425350427628,
        0.08085811883211136,
        -0.13406196236610413,
        0.08197356015443802,
        0.09635113924741745,
        -0.005903640296310186,
        0.1219242662191391,
        -0.02531430684030056,
        0.35034459829330444,
        0.2732076048851013,
        -0.11801016330718994,
        -0.11855717748403549,
        0.04583856835961342,
        0.13409997522830963,
        0.029405582696199417,
        -0.02904670126736164,
        0.10436055809259415,
        0.03172820061445236,
        -0.15632152557373047,
        0.04199337214231491,
        -0.11006468534469604,
        -0.11757540702819824,
        0.10496990382671356,
        -0.0034267848823219538,
        0.07159819453954697,
        0.004219810478389263,
        0.12287504225969315,
        -0.09870307892560959,
        -0.060555584728717804,
        -0.01766945794224739,
        -0.05908439680933952,
        -0.30488327145576477,
        -0.21353764832019806,
        -0.032797157764434814,
        -0.08144132792949677,
        -0.14384451508522034,
        0.02202928625047207,
        -0.0384647361934185,
        -0.10594069212675095,
        0.0829802080988884,
        -0.10011894255876541,
        0.037907689809799194,
        -0.3264256715774536,
        0.2930457890033722,
        -0.0499134287238121,
        0.10066734999418259,
        -0.08369556069374084,
        0.012371072545647621,
        0.10402705520391464,
        0.025084376335144043,
        0.2224554717540741,
        0.02204219438135624,
        0.24043144285678864,
        0.18836532533168793,
        -0.2069152444601059,
        -0.043794896453619,
        0.026601579040288925,
        0.004243918694555759,
        0.1316671073436737,
        -0.18407650291919708,
        0.11155029386281967,
        -0.0491752028465271,
        0.037103552371263504,
        0.06037117913365364,
        -0.0174963790923357,
        -0.04600750654935837,
        0.010706475004553795,
        0.0959441065788269,
        -0.0019065133528783917,
        0.21904103457927704,
        0.08746404200792313,
        0.019044088199734688,
        -0.03598388656973839,
        0.08955752849578857,
        -0.05381810665130615,
        0.13508708775043488,
        -0.0765366479754448,
        -0.11437380313873291,
        -0.07924876362085342,
        -0.026546206325292587,
        0.007737356703728437,
        0.016037270426750183,
        -0.0125599205493927,
        -0.02513507381081581,
        0.12119539082050323,
        0.02994256280362606,
        0.015492702834308147,
        0.16151638329029083,
        -0.15846839547157288,
        -0.18753141164779663,
        0.0060367705300450325,
        0.22018185257911682,
        0.09745623916387558,
        0.09691528975963593,
        -0.05661138519644737,
        0.12379574775695801,
        0.11585815250873566,
        0.030824869871139526,
        0.13449686765670776,
        0.001305550104007125,
        0.15767987072467804,
        -0.04613010957837105,
        -0.1777014583349228,
        0.14551226794719696,
        0.15490777790546417,
        -0.15990085899829865,
        0.11227234452962875,
        -0.12264348566532135,
        0.09828005731105804,
        0.04227178171277046,
        0.13642053306102753,
        0.060734689235687256,
        -0.040103062987327576,
        0.06752550601959229,
        0.2137819528579712,
        -0.007890147157013416,
        -0.06210678443312645,
        0.04277169331908226,
        -0.1458444595336914,
        -0.10739897191524506,
        -0.08711022138595581,
        -0.10287073999643326,
        0.017992937937378883,
        0.012607194483280182,
        0.12917962670326233,
        0.08745726943016052,
        -0.011712880805134773,
        -0.16114851832389832,
        0.05638480558991432,
        0.058092813938856125,
        -0.05437666177749634,
        -0.020877676084637642,
        0.08075098693370819,
        0.27608704566955566,
        0.023343876004219055,
        -0.05832874774932861,
        0.05098627135157585,
        -0.11204327642917633,
        0.11457711458206177,
        -0.10385144501924515,
        0.1698845475912094,
        0.13782073557376862,
        0.04472864046692848,
        -0.03495283052325249,
        0.16677160561084747,
        -0.024684997275471687,
        0.06130469962954521,
        0.12730269134044647,
        -0.200474351644516,
        -0.08774583041667938,
        0.0764758363366127,
        0.0937240794301033,
        -0.06773138791322708,
        -0.02252316288650036,
        0.12450836598873138,
        0.03824535384774208,
        0.07578590512275696,
        0.025981543585658073,
        0.033239688724279404,
        -0.03121190331876278,
        0.007786141242831945,
        0.19731369614601135,
        0.08514855057001114,
        -0.21572072803974152,
        -0.1706646829843521,
        0.0514751560986042,
        0.0020078797824680805,
        0.2850072383880615,
        0.16178195178508759,
        -0.00911470502614975,
        0.1264282613992691,
        0.10894259810447693,
        -0.3057290017604828,
        -0.160162091255188,
        0.002423014957457781,
        -0.1373855471611023,
        -0.05306435003876686,
        0.039244357496500015,
        -0.12819236516952515,
        -0.1202569305896759,
        -0.07588165253400803,
        -0.019405419006943703,
        -0.019919199869036674,
        -0.015254411846399307
      ]
    },
    {
      "path": "blocks[0].attn.wk.weight",
      "shape": [
        16,
        16
      ],
      "data": [
        0.11835486441850662,
        0.1337658166885376,
        -0.23679497838020325,
        -0.004382914863526821,
        -0.11515696346759796,
        -0.030649570748209953,
        0.01798657886683941,
        -0.028449220582842827,
        -0.06432352215051651,
        0.09751448035240173,
        -0.17389555275440216,
        -0.07590709626674652,
        -0.0364285409450531,
        0.006784054450690746,
        0.011442543007433414,
        -0.06623324006795883,
        0.14174915850162506,
        0.03528667241334915,
        -0.13842831552028656,
        -0.22520026564598083,
        -0.1631360948085785,
        -0.18780453503131866,
        0.04948250576853752,
        0.02783329412341118,
        -0.01808183081448078,
        -0.18203599750995636,
        -0.17674991488456726,
        0.05304418504238129,
        -0.04656679928302765,
        -0.015903696417808533,
        0.10563895851373672,
        0.03265988454222679,
        0.03182747960090637,
        0.14845038950443268,
        0.008352832868695259,
        0.12407694011926651,
        -0.08550252765417099,
        -0.145735502243042,
        0.07621366530656815,
        -0.06732918322086334,
        0.09212694317102432,
        -0.03936900198459625,
        0.1257750540971756,
        -0.06940823048353195,
        -0.05195926874876022,
        0.055735308676958084,
        0.08560682833194733,
        0.17485244572162628,
        0.002404651837423444,
        -0.020573096349835396,
        0.14452174305915833,
        0.0391412153840065,
        0.03913889825344086,
        0.15434035658836365,
        -0.031505804508924484,
        0.021513234823942184,
        -0.04275158420205116,
        0.03231479972600937,
        -0.17641015350818634,
        0.1709582656621933,
        0.040727075189352036,
        -0.09636495262384415,
        -0.22551704943180084,
        -0.16489633917808533,
        0.020753825083374977,
        -0.011219139210879803,
        -0.006062852218747139,
        0.07402246445417404,
        0.011770544573664665,
        -0.13303764164447784,
        0.05854509398341179,
        -0.2664651572704315,
        -0.09482019394636154,
        -0.10495854169130325,
        0.07457142323255539,
        0.017020180821418762,
        0.027885327115654945,
        -0.029058311134576797,
        0.02455879934132099,
        -0.07298164069652557,
        -0.09107959270477295,
        -0.1539991796016693,
        -0.029012475162744522,
        0.1755301058292389,
        0.01990531012415886,
        -0.06465399265289307,
        -0.03713146224617958,
        -0.1799752563238144,
        0.06482631713151932,
        -0.08756066113710403,
        0.10021214187145233,
        0.005142014008015394,
        -0.09085036814212799,
        0.04181452468037605,
        -0.10037054866552353,
        0.14609968662261963,
        -0.027598241344094276,
        0.01993892714381218,
        0.12463277578353882,
        -0.04915260523557663,
        0.0003248698776587844,
        0.19758731126785278,
        -0.07901003956794739,
        -0.0144423246383667,
        0.0025809232611209154,
        -0.18916000425815582,
        -0.059665530920028687,
        0.28260210156440735,
        -0.13598006963729858,
        0.10023940354585648,
        -0.044523850083351135,
        -0.1325445920228958,
        0.18251101672649384,
        0.06598325073719025,
        0.10266827046871185,
        -0.021459437906742096,
        0.08241342008113861,
        0.05146045237779617,
        -0.0526011660695076,
        -0.17546428740024567,
        -0.061320457607507706,
        -0.015979113057255745,
        0.06917557120323181,
        -0.10128413885831833,
        -0.15956419706344604,
        -0.04192842170596123,
        0.14993923902511597,
        0.11676239222288132,
        -0.18895888328552246,
        -0.06838887929916382,
        -0.13937672972679138,
        -0.016617244109511375,
        -0.12685967981815338,
        0.027684004977345467,
        -0.15421919524669647,
        -0.15382680296897888,
        -0.10513299703598022,
        -0.06369347870349884,
        0.06289490312337875,
        -0.08158880472183228,
        0.080073282122612,
        -0.13218122720718384,
        -0.012891453690826893,
        0.12327829003334045,
        -0.08270249515771866,
        0.04834791645407677,
        -0.1962095946073532,
        0.2664286494255066,
        -0.006096306722611189,
        -0.04018533229827881,
        -0.2030680626630783,
        -0.08421875536441803,
        -0.1070762351155281,
        -0.04243018105626106,
        -0.2250940501689911,
        -0.04831117391586304,
        0.052014756947755814,
        -0.15912576019763947,
        -0.03520376980304718,
        0.07100162655115128,
        0.06848921626806259,
        0.08738555014133453,
        -0.0044985683634877205,
        0.0033685110975056887,
        -0.25565579533576965,
        -0.09742507338523865,
        -0.05848656967282295,
        -0.22162726521492004,
        -0.09752026945352554,
        0.11974887549877167,
        -0.009183313697576523,
        -0.21616286039352417,
        -0.15164713561534882,
        -0.10961940884590149,
        0.07084173709154129,
        -0.17593052983283997,
        -0.1549871563911438,
        -0.17088475823402405,
        0.17708808183670044,
        0.05838644877076149,
        0.22968272864818573,
        0.15478624403476715,
        0.0036951638758182526,
        0.19643041491508484,
        0.0771048292517662,
        -0.044595494866371155,
        0.20547397434711456,
        0.10859433561563492,
        0.24119585752487183,
        0.2140549123287201,
        -0.03844078630208969,
        0.06311226636171341,
        -0.06373564898967743,
        -0.41741758584976196,
        0.18622949719429016,
        0.0315726175904274,
        0.035764824599027634,
        0.19335488975048065,
        -0.08959897607564926,
        -0.14764773845672607,
        0.01962081715464592,
        0.05227707698941231,
        0.03998588025569916,
        -0.0860612764954567,
        0.04547746479511261,
        -0.2602626383304596,
        -0.2818481922149658,
        -0.024422090500593185,
        0.2177095115184784,
        0.12176206707954407,
        -0.09544647485017776,
        -0.19166168570518494,
        0.08181321620941162,
        -0.03869197517633438,
        0.012303181923925877,
        -0.02338959462940693,
        -0.12639829516410828,
        0.06426209211349487,
        -0.006922360509634018,
        -0.14820365607738495,
        0.041779760271310806,
        0.054966021329164505,
        -0.017702139914035797,
        0.0008016152423806489,
        0.11314383894205093,
        0.15721189975738525,
        -0.07557300478219986,
        0.024841276928782463,
        0.2632601857185364,
        -0.0317796915769577,
        0.03197779133915901,
        0.12730132043361664,
        0.028238283470273018,
        0.0983654260635376,
        -0.03399888053536415,
        -0.03544161096215248,
        0.051713474094867706,
        0.015658194199204445,
        -0.0801679715514183,
        0.034139484167099,
        -0.07410911470651627,
        -0.08443658798933029,
        -0.014039391651749611,
        0.09337814152240753,
        -0.2277790904045105,
        -0.1745082587003708,
        -0.04700446501374245,
        0.05327753722667694,
        -0.1936112493276596,
        0.04189068078994751,
        0.014035976491868496,
        0.044754546135663986,
        0.20254738628864288,
        -0.10233961790800095,
        0.02718561887741089,
        0.1004369780421257
      ]
    },
    {
      "path": "blocks[0].attn.wv.weight",
      "shape": [
        16,
        16
      ],
      "data": [
        0.019988980144262314,
        -0.023186709731817245,
        -0.11998581141233444,
        -0.05095042660832405,
        0.035517510026693344,
        -0.04469546303153038,
        -0.13087467849254608,
        -0.00873524323105812,
        -0.04616105929017067,
        -0.024874012917280197,
        -0.12414947152137756,
        0.09318199008703232,
        -0.01139297429472208,
        -0.016116289421916008,
        -0.08818317949771881,
        -0.13806812465190887,
        -0.10363830626010895,
        0.005126472096890211,
        -0.09865013509988785,
        0.08142303675413132,
        0.08460783213376999,
        0.1448625922203064,
        -0.01319857593625784,
        0.011763607151806355,
        -0.08023212850093842,
        0.13157546520233154,
        0.08126582950353622,
        -0.05849764496088028,
        -0.033141251653432846,
        0.02952677384018898,
        -0.24536779522895813,
        0.05864127725362778,
        0.13223953545093536,
        -0.00117527786642313,
        0.14581914246082306,
        0.006845084950327873,
        0.10266570001840591,
        -0.04798554256558418,
        0.11419527977705002,
        0.10817300528287888,
        -0.07836876809597015,
        0.04836073890328407,
        0.0011048843152821064,
        0.10348176211118698,
        -0.08149556815624237,
        -0.08581490069627762,
        0.06294775009155273,
        0.15749318897724152,
        -0.02613559179008007,
        -0.09009163826704025,
        0.08600703626871109,
        0.04700285568833351,
        -0.008014903403818607,
        -0.03263315185904503,
        -0.24065576493740082,
        -0.0019109826534986496,
        0.10168040543794632,
        -0.12207971513271332,
        -0.09212788939476013,
        0.03610865771770477,
        -0.07437403500080109,
        -0.04532604292035103,
        -0.07449992001056671,
        -0.09763610363006592,
        0.007742846384644508,
        0.1343902349472046,
        -0.011151136830449104,
        0.078351229429245,
        -0.07859311997890472,
        0.02333837002515793,
        -0.01056208461523056,
        -0.09755575656890869,
        0.05399341508746147,
        0.17289403080940247,
        -0.10129904747009277,
        -0.13288524746894836,
        0.038805149495601654,
        -0.040547825396060944,
        0.10517574101686478,
        -0.05467075854539871,
        0.044606778770685196,
        -0.04992985352873802,
        -0.04358286038041115,
        -0.021489469334483147,
        -0.024308817461133003,
        0.1402370035648346,
        0.07804636657238007,
        0.0761139988899231,
        0.031968824565410614,
        0.09748483449220657,
        0.05793995037674904,
        0.08782853186130524,
        -0.047345712780952454,
        0.1707705855369568,
        -0.15991750359535217,
        -0.06907565891742706,
        -0.19132910668849945,
        0.10827959328889847,
        -0.2440159022808075,
        -0.06395111232995987,
        -0.08707115054130554,
        0.03511514142155647,
        0.06372077763080597,
        0.07762894034385681,
        0.1627068966627121,
        0.35319769382476807,
        0.1806221306324005,
        -0.12401233613491058,
        -0.12252139300107956,
        0.051123056560754776,
        -0.065071702003479,
        -0.059579163789749146,
        0.14663326740264893,
        0.05188628286123276,
        0.07160717993974686,
        -0.046683914959430695,
        0.04581182450056076,
        -0.021934883669018745,
        0.09380284696817398,
        0.12877093255519867,
        -0.14933086931705475,
        -0.08366544544696808,
        0.019172048196196556,
        0.004844007082283497,
        0.11898777633905411,
        0.15471667051315308,
        -0.14882075786590576,
        0.13671666383743286,
        0.2075144499540329,
        -0.12886472046375275,
        0.09774430841207504,
        0.0871906727552414,
        0.05311333015561104,
        -0.018436387181282043,
        0.14972202479839325,
        0.003558132331818342,
        -0.09226670861244202,
        0.04382357746362686,
        -0.13545840978622437,
        -0.02351517416536808,
        0.0851370096206665,
        0.02919013798236847,
        -0.14256753027439117,
        -0.03746264427900314,
        0.06887272745370865,
        -0.1111840158700943,
        -0.05524100735783577,
        -0.17345578968524933,
        0.1724855601787567,
        -0.06345643848180771,
        -0.014458400197327137,
        0.001025449950248003,
        0.04181327298283577,
        0.06891638785600662,
        0.04912620037794113,
        -0.08719530701637268,
        -0.046081408858299255,
        -0.008613365702331066,
        -0.07181522250175476,
        0.04828134551644325,
        -0.16122515499591827,
        -0.015682047232985497,
        -0.17767484486103058,
        0.04102136939764023,
        0.05368724465370178,
        0.05409406125545502,
        -0.03574910759925842,
        -0.1023150086402893,
        0.17468437552452087,
        0.13194341957569122,
        -0.05356672406196594,
        -0.026842204853892326,
        0.016875969246029854,
        -0.03720620647072792,
        -0.09113328158855438,
        -0.07354190945625305,
        0.010076439939439297,
        0.09633403271436691,
        -0.020505297929048538,
        -0.023883935064077377,
        0.14285138249397278,
        -0.017272833734750748,
        0.06340613961219788,
        0.029135890305042267,
        -0.045680172741413116,
        -0.09121868014335632,
        -0.029720518738031387,
        0.19111967086791992,
        0.044121772050857544,
        -0.16430982947349548,
        -0.09526894241571426,
        0.021446043625473976,
        0.07307731360197067,
        -0.010523893870413303,
        0.0050798035226762295,
        -0.12497533112764359,
        -0.04201355203986168,
        0.0588202066719532,
        0.09860061854124069,
        -0.04079797491431236,
        0.09292740374803543,
        -0.0779532939195633,
        0.00855595339089632,
        -0.016150200739502907,
        -0.10045194625854492,
        -0.02697381004691124,
        0.10483397543430328,
        0.02005857042968273,
        0.011075700633227825,
        0.09396356344223022,
        0.01035533007234335,
        -0.14411519467830658,
        0.059150587767362595,
        -0.0278277937322855,
        0.043591007590293884,
        -0.1375417411327362,
        -0.09630653262138367,
        -0.08940057456493378,
        -0.0449819453060627,
        0.042617686092853546,
        0.1765473335981369,
        0.007593519985675812,
        0.004915156401693821,
        -0.06370815634727478,
        -0.06001861393451691,
        0.10791587829589844,
        -0.19680160284042358,
        -0.1113487258553505,
        -0.068186916410923,
        -0.09451358020305634,
        0.1279868185520172,
        -0.028492094948887825,
        -0.14517086744308472,
        0.04746892675757408,
        0.05763034522533417,
        0.04487735778093338,
        0.1088850349187851,
        0.0027669412083923817,
        -0.11654123663902283,
        -0.11467739939689636,
        0.07180805504322052,
        0.032785024493932724,
        0.06553921103477478,
        0.11553189158439636,
        0.1461086869239807,
        -0.008981641381978989,
        0.05474745109677315,
        -0.15374131500720978,
        0.03690922260284424,
        -0.08995223045349121,
        0.1309398114681244,
        -0.0792183205485344,
        -0.03770001232624054,
        -0.0004709541972260922,
        0.08684799820184708,
        -0.15989843010902405
      ]
    },
    {
      "path": "blocks[0].attn.wo.weight",
      "shape": [
        16,
        16
      ],
      "data": [
        -0.01114768534898758,
        0.0180379506200552,
        0.13118621706962585,
        -0.06331199407577515,
        0.11669555306434631,
        -0.0330837108194828,
        0.03345296159386635,
        -0.0016041210619732738,
        -0.2699328660964966,
        0.11981147527694702,
        -0.0448010191321373,
        -0.1285058706998825,
        -0.015836117789149284,
        -0.15313047170639038,
        0.03778132051229477,
        -0.048825059086084366,
        0.035203345119953156,
        -0.13352452218532562,
        -0.08963564038276672,
        0.00718696229159832,
        0.04559699818491936,
        -0.05715019255876541,
        0.05302469804883003,
        -0.0904420018196106,
        0.13354168832302094,
        -0.028960462659597397,
        0.06836435943841934,
        0.025410907343029976,
        0.030476542189717293,
        0.004028789699077606,
        0.09797358512878418,
        -0.022178111597895622,
        -0.0015251428121700883,
        0.030854763463139534,
        0.09440598636865616,
        -0.0719221830368042,
        -0.026675861328840256,
        -0.08273909240961075,
        -0.07369738072156906,
        0.002897112863138318,
        -0.07541762292385101,
        0.13766546547412872,
        0.136809840798378,
        -0.09424823522567749,
        0.07043521106243134,
        -0.093199223279953,
        -0.04704485461115837,
        0.02390676736831665,
        0.006409124005585909,
        0.04122219234704971,
        0.028135064989328384,
        -0.10247852653265,
        -0.009066115133464336,
        -0.007895627990365028,
        0.012712636962532997,
        0.093233123421669,
        0.11965233087539673,
        -0.011091599240899086,
        0.046562548726797104,
        -0.0974687710404396,
        -0.033019598573446274,
        -0.048044536262750626,
        -0.009107272140681744,
        0.05039834976196289,
        -0.11122998595237732,
        0.010970661416649818,
        0.07588087767362595,
        -0.10560976713895798,
        0.2422647476196289,
        0.00006215740722836927,
        0.07931677997112274,
        -0.06317378580570221,
        0.08168751746416092,
        0.09380518645048141,
        0.026048505678772926,
        0.02686995454132557,
        -0.13580255210399628,
        -0.1472877860069275,
        0.06283189356327057,
        -0.08656875789165497,
        -0.05067525431513786,
        0.07408807426691055,
        -0.04289880394935608,
        0.023090776056051254,
        -0.1664479672908783,
        0.016738979145884514,
        -0.04059002548456192,
        -0.025564750656485558,
        0.06760482490062714,
        0.03933614119887352,
        -0.00958300568163395,
        0.12886585295200348,
        0.15013085305690765,
        0.05594243109226227,
        0.0023638487327843904,
        0.1015409454703331,
        0.09071468561887741,
        -0.16090895235538483,
        0.057374026626348495,
        0.1963086724281311,
        0.1074678972363472,
        0.03831925243139267,
        -0.11714320629835129,
        0.03289587423205376,
        0.06632343679666519,
        -0.008252019993960857,
        0.05160275846719742,
        0.08747179061174393,
        0.14647527039051056,
        -0.19390863180160522,
        0.12518556416034698,
        0.21605733036994934,
        0.02581609971821308,
        -0.028803488239645958,
        0.004258515313267708,
        -0.0367986299097538,
        0.021623488515615463,
        0.06646035611629486,
        -0.09283965080976486,
        -0.0072010536678135395,
        -0.2347199022769928,
        -0.028247449547052383,
        -0.1368779093027115,
        -0.1914314478635788,
        0.21391580998897552,
        -0.030888108536601067,
        0.15568558871746063,
        0.03898375481367111,
        -0.10703196376562119,
        0.07218959182500839,
        -0.019094932824373245,
        0.07159578800201416,
        -0.19891032576560974,
        0.03842996805906296,
        0.009885036386549473,
        0.058293238282203674,
        0.21633371710777283,
        0.0007766365306451917,
        0.19078794121742249,
        0.036919157952070236,
        0.04609755426645279,
        0.1487129181623459,
        0.051039718091487885,
        0.05590435490012169,
        0.02775201015174389,
        0.05664718523621559,
        0.1401904672384262,
        0.07180488854646683,
        -0.0334073044359684,
        0.049524351954460144,
        0.08008575439453125,
        0.13530218601226807,
        0.2173163890838623,
        -0.07228510826826096,
        -0.055708665400743484,
        0.05405600741505623,
        0.12932415306568146,
        -0.04109891876578331,
        0.0563688762485981,
        -0.009149699471890926,
        -0.0638856291770935,
        -0.02386384643614292,
        0.014871092513203621,
        0.1303630769252777,
        0.07905607670545578,
        0.126271590590477,
        -0.14496241509914398,
        0.01503054890781641,
        0.005979020614176989,
        -0.12472179532051086,
        -0.07552137225866318,
        0.024854015558958054,
        0.08480939269065857,
        -0.046391427516937256,
        0.01948212832212448,
        -0.013812177814543247,
        -0.0333477184176445,
        -0.11944959312677383,
        -0.2357018142938614,
        -0.1283659189939499,
        0.042523592710494995,
        0.056207772344350815,
        -0.10017330199480057,
        0.05996209755539894,
        -0.15129311382770538,
        0.06740570068359375,
        -0.02025475539267063,
        0.08210587501525879,
        -0.12786979973316193,
        0.025811269879341125,
        0.04205742105841637,
        0.040308743715286255,
        0.04826189577579498,
        -0.09915345162153244,
        -0.07530664652585983,
        0.03436446189880371,
        0.06304210424423218,
        -0.08870798349380493,
        0.1311366856098175,
        0.043695658445358276,
        -0.11519311368465424,
        0.011948296800255775,
        -0.042482055723667145,
        0.01451842114329338,
        -0.05302328243851662,
        -0.04869586601853371,
        0.04346737265586853,
        -0.101579450070858,
        -0.0019068990368396044,
        0.0012984671629965305,
        -0.03056102991104126,
        0.02647593431174755,
        -0.005907396785914898,
        0.048607729375362396,
        -0.002160627394914627,
        -0.10721708834171295,
        0.06178811937570572,
        0.059391360729932785,
        -0.20723856985569,
        -0.12128467112779617,
        0.04925905913114548,
        -0.005970011930912733,
        0.032017916440963745,
        0.04596354067325592,
        -0.1507885754108429,
        -0.16793765127658844,
        -0.12058643251657486,
        0.058069344609975815,
        -0.026140781119465828,
        -0.04574290290474892,
        0.060819417238235474,
        0.10794749110937119,
        0.05249951779842377,
        0.07172758877277374,
        0.17593072354793549,
        -0.041006702929735184,
        -0.12032540887594223,
        -0.007232115603983402,
        -0.19474782049655914,
        0.05064426735043526,
        0.03744588792324066,
        -0.0659518837928772,
        0.12323939055204391,
        0.03936398774385452,
        0.015833033248782158,
        -0.12015590071678162,
        -0.10127213597297668,
        0.03642328828573227,
        -0.10300987958908081,
        -0.04894191771745682,
        -0.00835911463946104,
        -0.21712614595890045,
        0.06175598129630089,
        -0.20234660804271698,
        0.08575046062469482,
        -0.041988734155893326
      ]
    },
    {
      "path": "blocks[0].mlp.fc1.weight",
      "shape": [
        16,
        64
      ],
      "data": [
        0.002311781281605363,
        -0.07638370990753174,
        -0.08134810626506805,
        0.2442638874053955,
        -0.15697985887527466,
        0.17998695373535156,
        0.12559883296489716,
        -0.23575812578201294,
        0.14464035630226135,
        0.006277579348534346,
        0.016241397708654404,
        -0.07429280877113342,
        0.06153929606080055,
        0.0592007040977478,
        -0.005843725521117449,
        0.135365828871727,
        -0.02079346962273121,
        -0.1670299619436264,
        0.1571844518184662,
        -0.13444878160953522,
        0.2407742589712143,
        0.032234665006399155,
        -0.23707807064056396,
        -0.07769707590341568,
        0.21627728641033173,
        -0.12656959891319275,
        -0.16369473934173584,
        -0.12203370034694672,
        0.005147851537913084,
        -0.046719662845134735,
        0.028752971440553665,
        0.015924781560897827,
        -0.009822744876146317,
        -0.10025307536125183,
        -0.08984295278787613,
        0.036138903349637985,
        0.07123785465955734,
        -0.10496187955141068,
        -0.060726895928382874,
        -0.037637755274772644,
        0.20856337249279022,
        -0.17428679764270782,
        0.30137771368026733,
        0.08888880908489227,
        -0.10290748625993729,
        -0.3492465913295746,
        -0.15015731751918793,
        0.014059231616556644,
        -0.2738945782184601,
        -0.07980051636695862,
        0.1371881514787674,
        -0.012087141163647175,
        0.05099566653370857,
        -0.00495472177863121,
        -0.04187475144863129,
        0.048873309046030045,
        0.13221505284309387,
        -0.26952409744262695,
        0.025385642424225807,
        0.12026078999042511,
        0.05310395359992981,
        0.045284803956747055,
        -0.0025678572710603476,
        -0.11659872531890869,
        -0.108080193400383,
        0.0795597955584526,
        0.16295136511325836,
        0.09586101025342941,
        0.23829025030136108,
        0.0041984086856245995,
        0.09346532076597214,
        0.19122819602489471,
        -0.08920585364103317,
        0.06492219120264053,
        -0.1533358097076416,
        0.08225259929895401,
        -0.0802513062953949,
        0.10446368902921677,
        -0.1592683047056198,
        -0.07806253433227539,
        -0.13228997588157654,
        0.004843431990593672,
        0.17517706751823425,
        -0.15814752876758575,
        0.010315509513020515,
        -0.04451514407992363,
        0.18528816103935242,
        -0.00913848727941513,
        -0.05453747883439064,
        -0.0864274799823761,
        -0.057882655411958694,
        -0.09888876229524612,
        0.2732394337654114,
        -0.16992002725601196,
        -0.1315094381570816,
        -0.1723266839981079,
        0.06171178072690964,
        0.24326391518115997,
        0.14956501126289368,
        0.04590709134936333,
        -0.11079555004835129,
        0.11010495573282242,
        -0.13425032794475555,
        0.05288664996623993,
        -0.04888148233294487,
        0.1333678960800171,
        -0.03245841711759567,
        0.05163728445768356,
        -0.10412932187318802,
        -0.047471463680267334,
        -0.19550533592700958,
        0.02275427244603634,
        0.058819886296987534,
        -0.18481309711933136,
        0.09193319082260132,
        -0.05921926349401474,
        -0.026045752689242363,
        0.05072402581572533,
        -0.14693769812583923,
        0.2065112292766571,
        -0.03435792028903961,
        0.03631743788719177,
        -0.00038867545663379133,
        0.04559563845396042,
        0.07266075164079666,
        0.17423942685127258,
        -0.03803152218461037,
        -0.03756428509950638,
        -0.05745665729045868,
        -0.014050755649805069,
        -0.10656815022230148,
        0.0004544704861473292,
        -0.028286200016736984,
        -0.08659210056066513,
        0.16522431373596191,
        -0.08493854850530624,
        -0.02497785910964012,
        0.13224083185195923,
        0.11486941576004028,
        0.20038031041622162,
        -0.06135191395878792,
        0.06264115869998932,
        -0.2084864228963852,
        0.22116993367671967,
        0.07091234624385834,
        -0.05636432021856308,
        0.04277777671813965,
        0.05596540495753288,
        0.1590881496667862,
        -0.028086580336093903,
        -0.060075413435697556,
        0.08708416670560837,
        -0.11624908447265625,
        -0.024277668446302414,
        0.0701703131198883,
        -0.006390128284692764,
        -0.14193326234817505,
        -0.05235875025391579,
        -0.03696468845009804,
        0.0037822320591658354,
        -0.043847616761922836,
        0.06844234466552734,
        -0.09292910248041153,
        -0.07764910161495209,
        0.12145105004310608,
        0.012716347351670265,
        0.10596314817667007,
        0.14513513445854187,
        -0.08762886375188828,
        0.08223976194858551,
        -0.22827522456645966,
        0.25534936785697937,
        0.14219194650650024,
        0.11863844841718674,
        -0.056570786982774734,
        -0.06203749030828476,
        0.05972399562597275,
        -0.13180023431777954,
        0.19779400527477264,
        -0.07739751040935516,
        0.032104868441820145,
        -0.09495548903942108,
        -0.2462063729763031,
        -0.15143775939941406,
        0.1287582814693451,
        -0.03727732226252556,
        0.1820165514945984,
        -0.11131839454174042,
        -0.11172442138195038,
        0.006618370767682791,
        0.06421636790037155,
        0.07459044456481934,
        0.007941614836454391,
        -0.024990558624267578,
        -0.013640955090522766,
        0.24030674993991852,
        0.019955869764089584,
        -0.017432861030101776,
        0.06235082447528839,
        0.08724025636911392,
        -0.05617097020149231,
        -0.26519179344177246,
        -0.10326007753610611,
        -0.12028802186250687,
        -0.008221151307225227,
        0.11578685790300369,
        0.04065903276205063,
        -0.15265578031539917,
        -0.15238162875175476,
        0.1869954615831375,
        0.003371576080098748,
        0.16316534578800201,
        -0.030164554715156555,
        -0.04105736315250397,
        0.17730043828487396,
        0.26666003465652466,
        -0.017247673124074936,
        -0.12301327288150787,
        -0.011496715247631073,
        0.11760367453098297,
        0.026685910299420357,
        0.06493807584047318,
        0.11915837228298187,
        -0.19280515611171722,
        0.04357224330306053,
        -0.028203479945659637,
        0.11956962198019028,
        0.10231567919254303,
        0.09103844314813614,
        0.07482027262449265,
        -0.1606825292110443,
        0.05749952048063278,
        -0.12036992609500885,
        -0.08605066686868668,
        0.0058708530850708485,
        0.0512801930308342,
        0.010577255859971046,
        -0.007390811573714018,
        -0.0867564007639885,
        -0.0927843526005745,
        0.059969935566186905,
        0.1427164375782013,
        -0.10599150508642197,
        -0.08434091508388519,
        0.006335067097097635,
        0.17288938164710999,
        -0.044100649654865265,
        -0.11806461960077286,
        -0.0661272183060646,
        0.03960549086332321,
        -0.19070672988891602,
        -0.015980340540409088,
        -0.02823808416724205,
        0.09993240237236023,
        0.18867789208889008,
        0.10964469611644745,
        -0.1335715651512146,
        0.04155633598566055,
        0.1619541347026825,
        -0.015745144337415695,
        0.040810730308294296,
        -0.19621075689792633,
        -0.014326675795018673,
        0.13402056694030762,
        -0.047299824655056,
        0.0420873649418354,
        0.12581637501716614,
        -0.07169830054044724,
        0.20496022701263428,
        0.018056781962513924,
        0.04367837682366371,
        0.1677272915840149,
        0.14191430807113647,
        -0.11491698026657104,
        0.047395914793014526,
        -0.0054182019084692,
        0.05096589773893356,
        -0.14848308265209198,
        0.017330938950181007,
        0.06992140412330627,
        -0.20530971884727478,
        0.03577515110373497,
        -0.0651656836271286,
        0.07427682727575302,
        0.20217998325824738,
        0.09423252940177917,
        0.05649091675877571,
        0.05638537555932999,
        -0.06123470142483711,
        0.10166122764348984,
        0.05706598982214928,
        -0.0898350328207016,
        0.03778811916708946,
        -0.0797731876373291,
        0.0008942633285187185,
        0.030752208083868027,
        -0.18805937469005585,
        -0.047634389251470566,
        0.05551766976714134,
        -0.0047432295978069305,
        -0.08360998332500458,
        0.04018348082900047,
        -0.02144046314060688,
        -0.10051131993532181,
        0.03249663487076759,
        -0.04454825446009636,
        -0.17733827233314514,
        0.07004189491271973,
        0.16663852334022522,
        -0.2663285434246063,
        0.12340226024389267,
        -0.21538665890693665,
        0.005363781470805407,
        0.21890974044799805,
        0.07948951423168182,
        -0.08043791353702545,
        0.06983128935098648,
        0.1251179575920105,
        0.039769578725099564,
        0.09968387335538864,
        -0.1596476137638092,
        -0.1441228687763214,
        -0.13164930045604706,
        -0.010701858438551426,
        -0.14248529076576233,
        -0.014397740364074707,
        0.018738603219389915,
        -0.2152872383594513,
        -0.039342187345027924,
        0.09041502326726913,
        0.05809968709945679,
        -0.09126676619052887,
        -0.0821341797709465,
        -0.02773183584213257,
        0.03107621893286705,
        0.049190372228622437,
        -0.04892624169588089,
        0.18029411137104034,
        0.024153470993041992,
        0.04442601650953293,
        -0.07446872442960739,
        -0.0372307188808918,
        0.0317540317773819,
        0.22474975883960724,
        0.010960831306874752,
        0.09673409909009933,
        0.0019345140317454934,
        -0.039820294827222824,
        0.14979147911071777,
        -0.0772797167301178,
        -0.05421091616153717,
        -0.0035829583648592234,
        -0.06488609313964844,
        -0.20164453983306885,
        0.11625207960605621,
        -0.06473313271999359,
        0.056429892778396606,
        0.02022257074713707,
        -0.034431811422109604,
        -0.010580193251371384,
        0.07514315098524094,
        -0.0260502640157938,
        -0.22214390337467194,
        0.14169147610664368,
        0.019634412601590157,
        0.21780085563659668,
        -0.03334636613726616,
        -0.07087422907352448,
        -0.022576726973056793,
        -0.3019731640815735,
        0.04786746948957443,
        -0.16764500737190247,
        0.049620453268289566,
        0.08965372294187546,
        -0.251939058303833,
        0.2277904450893402,
        0.01418391428887844,
        -0.20363664627075195,
        0.05727080628275871,
        -0.023688826709985733,
        0.051642343401908875,
        0.17091038823127747,
        0.19112446904182434,
        0.016547804698348045,
        -0.09141277521848679,
        -0.009822200983762741,
        -0.0411493219435215,
        -0.04633700102567673,
        -0.08877867460250854,
        0.054035548120737076,
        -0.06827932596206665,
        -0.13372443616390228,
        -0.017518477514386177,
        0.03264055773615837,
        0.0568973645567894,
        0.14955918490886688,
        0.005555827170610428,
        -0.0648057758808136,
        0.029347369447350502,
        -0.09695028513669968,
        0.11258750408887863,
        0.1449022740125656,
        -0.24255461990833282,
        0.1661471575498581,
        -0.07958187162876129,
        -0.2750377655029297,
        0.21093297004699707,
        0.1236124336719513,
        -0.16261206567287445,
        0.07229787111282349,
        -0.07763359695672989,
        0.14307498931884766,
        -0.059444546699523926,
        0.018627185374498367,
        -0.06160951033234596,
        0.14254306256771088,
        -0.06302221119403839,
        -0.06171658635139465,
        0.3071657121181488,
        0.20432014763355255,
        -0.06393608450889587,
        -0.003463196801021695,
        0.24608805775642395,
        0.09861578792333603,
        0.09512149542570114,
        -0.13733644783496857,
        0.2584500014781952,
        0.02624984085559845,
        -0.05649936571717262,
        -0.05289234593510628,
        0.0812259316444397,
        -0.06531377881765366,
        0.18448345363140106,
        0.053866587579250336,
        -0.019547175616025925,
        0.13828377425670624,
        0.1656201332807541,
        0.15427307784557343,
        0.14837975800037384,
        0.0027748325373977423,
        -0.11002202332019806,
        0.0065181986428797245,
        -0.07478908449411392,
        -0.1854160726070404,
        0.11498823761940002,
        0.044395964592695236,
        0.14180396497249603,
        -0.04054146632552147,
        0.034792497754096985,
        0.14316070079803467,
        0.10755342245101929,
        0.0334118977189064,
        -0.10592388361692429,
        0.09656540304422379,
        0.2061818689107895,
        0.0872291773557663,
        -0.06416205316781998,
        -0.040937937796115875,
        0.02049250155687332,
        -0.03259936347603798,
        -0.0017336225137114525,
        0.05271448567509651,
        -0.1815001368522644,
        0.08761877566576004,
        0.1350031942129135,
        0.21375922858715057,
        0.17635436356067657,
        0.2394871860742569,
        0.2665424942970276,
        -0.017738351598381996,
        0.1908830851316452,
        -0.060640837997198105,
        0.059769127517938614,
        0.1249716505408287,
        -0.06967339664697647,
        -0.018578417599201202,
        -0.04314368963241577,
        0.08440213650465012,
        0.038106635212898254,
        -0.041387006640434265,
        0.13050195574760437,
        0.0031529676634818316,
        -0.06452836096286774,
        -0.09090043604373932,
        0.17746135592460632,
        0.07364360988140106,
        0.06544822454452515,
        -0.010841362178325653,
        0.04261896386742592,
        -0.016234325245022774,
        -0.04569763317704201,
        -0.13802440464496613,
        -0.06717921048402786,
        0.03108159825205803,
        0.21926532685756683,
        0.20660750567913055,
        -0.052010707557201385,
        0.005849885288625956,
        -0.01543625257909298,
        0.00033204772626049817,
        -0.00595106603577733,
        0.00888107344508171,
        -0.02952502854168415,
        0.08239670842885971,
        -0.07157783955335617,
        -0.002092415001243353,
        0.04577615112066269,
        -0.00764516880735755,
        -0.022299185395240784,
        0.0020539937540888786,
        -0.03843937814235687,
        0.07816191017627716,
        0.004090690985321999,
        -0.1354803591966629,
        -0.06676723808050156,
        -0.1330748349428177,
        0.03145771101117134,
        0.054310496896505356,
        0.08020755648612976,
        0.04763469099998474,
        -0.009288113564252853,
        -0.09180520474910736,
        -0.14865447580814362,
        0.13054043054580688,
        -0.16944336891174316,
        -0.15365244448184967,
        -0.18528814613819122,
